{"learner":{"attributes":{"scikit_learn":"{\"_estimator_type\": \"classifier\"}"},"feature_names":[],"feature_types":[],"gradient_booster":{"model":{"cats":{"enc":[],"feature_segments":[],"sorted_idx":[]},"gbtree_model_param":{"num_parallel_tree":"1","num_trees":"1200"},"iteration_indptr":[0,3,6,9,12,15,18,21,24,27,30,33,36,39,42,45,48,51,54,57,60,63,66,69,72,75,78,81,84,87,90,93,96,99,102,105,108,111,114,117,120,123,126,129,132,135,138,141,144,147,150,153,156,159,162,165,168,171,174,177,180,183,186,189,192,195,198,201,204,207,210,213,216,219,222,225,228,231,234,237,240,243,246,249,252,255,258,261,264,267,270,273,276,279,282,285,288,291,294,297,300,303,306,309,312,315,318,321,324,327,330,333,336,339,342,345,348,351,354,357,360,363,366,369,372,375,378,381,384,387,390,393,396,399,402,405,408,411,414,417,420,423,426,429,432,435,438,441,444,447,450,453,456,459,462,465,468,471,474,477,480,483,486,489,492,495,498,501,504,507,510,513,516,519,522,525,528,531,534,537,540,543,546,549,552,555,558,561,564,567,570,573,576,579,582,585,588,591,594,597,600,603,606,609,612,615,618,621,624,627,630,633,636,639,642,645,648,651,654,657,660,663,666,669,672,675,678,681,684,687,690,693,696,699,702,705,708,711,714,717,720,723,726,729,732,735,738,741,744,747,750,753,756,759,762,765,768,771,774,777,780,783,786,789,792,795,798,801,804,807,810,813,816,819,822,825,828,831,834,837,840,843,846,849,852,855,858,861,864,867,870,873,876,879,882,885,888,891,894,897,900,903,906,909,912,915,918,921,924,927,930,933,936,939,942,945,948,951,954,957,960,963,966,969,972,975,978,981,984,987,990,993,996,999,1002,1005,1008,1011,1014,1017,1020,1023,1026,1029,1032,1035,1038,1041,1044,1047,1050,1053,1056,1059,1062,1065,1068,1071,1074,1077,1080,1083,1086,1089,1092,1095,1098,1101,1104,1107,1110,1113,1116,1119,1122,1125,1128,1131,1134,1137,1140,1143,1146,1149,1152,1155,1158,1161,1164,1167,1170,1173,1176,1179,1182,1185,1188,1191,1194,1197,1200],"tree_info":[0,1,2,0,1,2,0,1,2,0,1,2,0,1,2,0,1,2,0,1,2,0,1,2,0,1,2,0,1,2,0,1,2,0,1,2,0,1,2,0,1,2,0,1,2,0,1,2,0,1,2,0,1,2,0,1,2,0,1,2,0,1,2,0,1,2,0,1,2,0,1,2,0,1,2,0,1,2,0,1,2,0,1,2,0,1,2,0,1,2,0,1,2,0,1,2,0,1,2,0,1,2,0,1,2,0,1,2,0,1,2,0,1,2,0,1,2,0,1,2,0,1,2,0,1,2,0,1,2,0,1,2,0,1,2,0,1,2,0,1,2,0,1,2,0,1,2,0,1,2,0,1,2,0,1,2,0,1,2,0,1,2,0,1,2,0,1,2,0,1,2,0,1,2,0,1,2,0,1,2,0,1,2,0,1,2,0,1,2,0,1,2,0,1,2,0,1,2,0,1,2,0,1,2,0,1,2,0,1,2,0,1,2,0,1,2,0,1,2,0,1,2,0,1,2,0,1,2,0,1,2,0,1,2,0,1,2,0,1,2,0,1,2,0,1,2,0,1,2,0,1,2,0,1,2,0,1,2,0,1,2,0,1,2,0,1,2,0,1,2,0,1,2,0,1,2,0,1,2,0,1,2,0,1,2,0,1,2,0,1,2,0,1,2,0,1,2,0,1,2,0,1,2,0,1,2,0,1,2,0,1,2,0,1,2,0,1,2,0,1,2,0,1,2,0,1,2,0,1,2,0,1,2,0,1,2,0,1,2,0,1,2,0,1,2,0,1,2,0,1,2,0,1,2,0,1,2,0,1,2,0,1,2,0,1,2,0,1,2,0,1,2,0,1,2,0,1,2,0,1,2,0,1,2,0,1,2,0,1,2,0,1,2,0,1,2,0,1,2,0,1,2,0,1,2,0,1,2,0,1,2,0,1,2,0,1,2,0,1,2,0,1,2,0,1,2,0,1,2,0,1,2,0,1,2,0,1,2,0,1,2,0,1,2,0,1,2,0,1,2,0,1,2,0,1,2,0,1,2,0,1,2,0,1,2,0,1,2,0,1,2,0,1,2,0,1,2,0,1,2,0,1,2,0,1,2,0,1,2,0,1,2,0,1,2,0,1,2,0,1,2,0,1,2,0,1,2,0,1,2,0,1,2,0,1,2,0,1,2,0,1,2,0,1,2,0,1,2,0,1,2,0,1,2,0,1,2,0,1,2,0,1,2,0,1,2,0,1,2,0,1,2,0,1,2,0,1,2,0,1,2,0,1,2,0,1,2,0,1,2,0,1,2,0,1,2,0,1,2,0,1,2,0,1,2,0,1,2,0,1,2,0,1,2,0,1,2,0,1,2,0,1,2,0,1,2,0,1,2,0,1,2,0,1,2,0,1,2,0,1,2,0,1,2,0,1,2,0,1,2,0,1,2,0,1,2,0,1,2,0,1,2,0,1,2,0,1,2,0,1,2,0,1,2,0,1,2,0,1,2,0,1,2,0,1,2,0,1,2,0,1,2,0,1,2,0,1,2,0,1,2,0,1,2,0,1,2,0,1,2,0,1,2,0,1,2,0,1,2,0,1,2,0,1,2,0,1,2,0,1,2,0,1,2,0,1,2,0,1,2,0,1,2,0,1,2,0,1,2,0,1,2,0,1,2,0,1,2,0,1,2,0,1,2,0,1,2,0,1,2,0,1,2,0,1,2,0,1,2,0,1,2,0,1,2,0,1,2,0,1,2,0,1,2,0,1,2,0,1,2,0,1,2,0,1,2,0,1,2,0,1,2,0,1,2,0,1,2,0,1,2,0,1,2,0,1,2,0,1,2,0,1,2,0,1,2,0,1,2,0,1,2,0,1,2,0,1,2,0,1,2,0,1,2,0,1,2,0,1,2,0,1,2,0,1,2,0,1,2,0,1,2,0,1,2,0,1,2,0,1,2,0,1,2,0,1,2,0,1,2,0,1,2,0,1,2,0,1,2,0,1,2,0,1,2,0,1,2,0,1,2,0,1,2,0,1,2,0,1,2,0,1,2,0,1,2,0,1,2,0,1,2,0,1,2,0,1,2,0,1,2,0,1,2,0,1,2,0,1,2,0,1,2,0,1,2,0,1,2,0,1,2,0,1,2,0,1,2,0,1,2,0,1,2,0,1,2,0,1,2,0,1,2,0,1,2,0,1,2,0,1,2,0,1,2,0,1,2,0,1,2,0,1,2,0,1,2,0,1,2,0,1,2,0,1,2,0,1,2,0,1,2,0,1,2,0,1,2,0,1,2,0,1,2,0,1,2,0,1,2,0,1,2,0,1,2,0,1,2,0,1,2,0,1,2,0,1,2,0,1,2,0,1,2,0,1,2,0,1,2,0,1,2,0,1,2,0,1,2,0,1,2,0,1,2,0,1,2,0,1,2,0,1,2,0,1,2,0,1,2,0,1,2,0,1,2,0,1,2,0,1,2,0,1,2,0,1,2,0,1,2,0,1,2,0,1,2,0,1,2,0,1,2,0,1,2,0,1,2,0,1,2,0,1,2,0,1,2,0,1,2,0,1,2,0,1,2,0,1,2,0,1,2,0,1,2,0,1,2,0,1,2,0,1,2,0,1,2,0,1,2,0,1,2,0,1,2,0,1,2,0,1,2,0,1,2,0,1,2,0,1,2,0,1,2,0,1,2,0,1,2,0,1,2,0,1,2,0,1,2],"trees":[{"base_weights":[1.6168859E-3,-5.43938E-1,5.9115034E-1,-2.732258E-2,-2.021212E-1,-2.7321002E-2,1.5951672E0,-2.697863E-2,1.017877E-1,2.9370105E-1,-5.274204E-1,7.131144E-2,-2.6560212E-2,5.7700332E-2,-2.7320063E-2],"categories":[],"categories_nodes":[],"categories_segments":[],"categories_sizes":[],"default_left":[0,0,0,0,0,0,0,0,0,0,0,0,0,0,0],"id":0,"left_children":[1,3,5,-1,7,-1,9,-1,11,-1,13,-1,-1,-1,-1],"loss_changes":[3.941569E4,5.3828125E1,6.727732E4,0E0,4.8603874E1,0E0,2.8418138E5,0E0,2.0798451E2,0E0,6.6752E2,0E0,0E0,0E0,0E0],"parents":[2147483647,0,0,1,1,2,2,4,4,6,6,8,8,10,10],"right_children":[2,4,6,-1,8,-1,10,-1,12,-1,14,-1,-1,-1,-1],"split_conditions":[3.8966273E-3,-8.489047E-3,-3.003303E-1,-2.732258E-2,-3.003303E-1,-2.7321002E-2,2.9669937E-1,-2.697863E-2,2.9669937E-1,2.9370105E-1,3.096559E-1,7.131144E-2,-2.6560212E-2,5.7700332E-2,-2.7320063E-2],"split_indices":[47,47,8,0,8,0,8,0,8,0,8,0,0,0,0],"split_type":[0,0,0,0,0,0,0,0,0,0,0,0,0,0,0],"sum_hessian":[1.2255038E5,6.3648438E4,5.890195E4,6.318031E4,4.6812793E2,2.7614102E4,3.1287848E4,2.230144E2,2.4511353E2,1.0373982E4,2.0913865E4,7.9370094E1,1.6574344E2,2.3219644E2,2.0681668E4],"tree_param":{"num_deleted":"0","num_feature":"128","num_nodes":"15","size_leaf_vector":"1"}},{"base_weights":[-7.119418E-5,5.08734E-1,-2.7508354E-2,-2.750715E-2,1.4438009E0,5.46375E0,-5.325237E-1,2.7384317E-1,1.8280824E-1,5.1273473E-2,-2.7506342E-2],"categories":[],"categories_nodes":[],"categories_segments":[],"categories_sizes":[],"default_left":[0,0,0,0,0,0,0,0,0,0,0],"id":1,"left_children":[1,3,-1,-1,5,7,9,-1,-1,-1,-1],"loss_changes":[3.6534227E4,6.714066E4,0E0,0E0,2.8610084E5,2.521875E2,6.622085E2,0E0,0E0,0E0,0E0],"parents":[2147483647,0,0,1,1,4,4,5,5,6,6],"right_children":[2,4,-1,-1,6,8,10,-1,-1,-1,-1],"split_conditions":[3.8966273E-3,-3.003303E-1,-2.7508354E-2,-2.750715E-2,2.9669937E-1,-8.489047E-3,3.096559E-1,2.7384317E-1,1.8280824E-1,5.1273473E-2,-2.7506342E-2],"split_indices":[47,8,0,0,8,47,8,0,0,0,0],"split_type":[0,0,0,0,0,0,0,0,0,0,0],"sum_hessian":[1.3052775E5,6.780786E4,6.2719887E4,3.1798422E4,3.6009438E4,1.1868013E4,2.4141426E4,1.1779969E4,8.804385E1,2.6844257E2,2.3872982E4],"tree_param":{"num_deleted":"0","num_feature":"128","num_nodes":"11","size_leaf_vector":"1"}},{"base_weights":[6.8994705E-4,3.0349106E-2,-5.3462756E-1,-1.4171591E-1,5.971168E-1,-2.841705E-1,3.0348856E-2,-4.4652827E-2,-1.3334869E-2],"categories":[],"categories_nodes":[],"categories_segments":[],"categories_sizes":[],"default_left":[0,0,0,0,0,0,0,0,0],"id":2,"left_children":[1,-1,3,-1,5,7,-1,-1,-1],"loss_changes":[7.416713E4,0E0,3.158653E5,0E0,7.0727344E2,8.172012E0,0E0,0E0,0E0],"parents":[2147483647,0,0,2,2,4,4,5,5],"right_children":[2,-1,4,-1,6,8,-1,-1,-1],"split_conditions":[-3.003303E-1,3.0349106E-2,2.9669937E-1,-1.4171591E-1,3.096559E-1,-8.639334E-1,3.0348856E-2,-4.4652827E-2,-1.3334869E-2],"split_indices":[8,0,8,0,8,14,0,0,0],"split_type":[0,0,0,0,0,0,0,0,0],"sum_hessian":[2.2851453E5,1.0715463E5,1.2135991E5,4.0026316E4,8.133359E4,8.9850195E2,8.0435086E4,2.2070507E1,8.764314E2],"tree_param":{"num_deleted":"0","num_feature":"128","num_nodes":"9","size_leaf_vector":"1"}},{"base_weights":[-2.8138852E-3,-5.4257625E-1,5.462474E-1,-2.7256489E-2,-2.0230064E-1,-2.7203023E-2,1.3811377E0,-2.6848922E-2,8.1394285E-2,2.0093608E-1,-5.2436626E-1,5.6662288E-2,-2.6414994E-2,5.1676054E-2,-2.7202046E-2],"categories":[],"categories_nodes":[],"categories_segments":[],"categories_sizes":[],"default_left":[0,0,0,0,0,0,0,0,0,0,0,0,0,0,0],"id":3,"left_children":[1,3,5,-1,7,-1,9,-1,11,-1,13,-1,-1,-1,-1],"loss_changes":[3.6457645E4,5.304492E1,5.5513E4,0E0,4.479746E1,0E0,1.7358719E5,0E0,1.6266203E2,0E0,6.146836E2,0E0,0E0,0E0,0E0],"parents":[2147483647,0,0,1,1,2,2,4,4,6,6,8,8,10,10],"right_children":[2,4,6,-1,8,-1,10,-1,12,-1,14,-1,-1,-1,-1],"split_conditions":[3.8966273E-3,-8.489047E-3,-3.003303E-1,-2.7256489E-2,-3.003303E-1,-2.7203023E-2,2.9669937E-1,-2.6848922E-2,2.838924E-1,2.0093608E-1,3.096559E-1,5.6662288E-2,-2.6414994E-2,5.1676054E-2,-2.7202046E-2],"split_indices":[47,47,8,0,8,0,8,0,8,0,8,0,0,0,0],"split_type":[0,0,0,0,0,0,0,0,0,0,0,0,0,0,0],"sum_hessian":[1.2301501E5,6.2033723E4,6.098128E4,6.1568164E4,4.655598E2,2.6445055E4,3.4536227E4,2.147955E2,2.5076431E2,1.4485259E4,2.0050969E4,9.23032E1,1.584611E2,2.4879012E2,1.9802178E4],"tree_param":{"num_deleted":"0","num_feature":"128","num_nodes":"15","size_leaf_vector":"1"}},{"base_weights":[-3.6728813E-3,4.7240683E-1,-2.7436143E-2,-2.7378464E-2,1.2617785E0,3.813763E0,-5.302112E-1,1.9106899E-1,1.3553022E-1,4.525408E-2,-2.7377618E-2],"categories":[],"categories_nodes":[],"categories_segments":[],"categories_sizes":[],"default_left":[0,0,0,0,0,0,0,0,0,0,0],"id":4,"left_children":[1,3,-1,-1,5,7,9,-1,-1,-1,-1],"loss_changes":[3.397057E4,5.6262312E4,0E0,0E0,1.8015194E5,1.1965625E2,5.761538E2,0E0,0E0,0E0,0E0],"parents":[2147483647,0,0,1,1,4,4,5,5,6,6],"right_children":[2,4,-1,-1,6,8,10,-1,-1,-1,-1],"split_conditions":[3.8966273E-3,-3.003303E-1,-2.7436143E-2,-2.7378464E-2,2.9669937E-1,-8.489047E-3,3.096559E-1,1.9106899E-1,1.3553022E-1,4.525408E-2,-2.7377618E-2],"split_indices":[47,8,0,0,8,47,8,0,0,0,0],"split_type":[0,0,0,0,0,0,0,0,0,0,0],"sum_hessian":[1.30911945E5,6.9876164E4,6.103578E4,3.0484742E4,3.9391418E4,1.6249635E4,2.3141783E4,1.613486E4,1.1477384E2,2.7496133E2,2.2866822E4],"tree_param":{"num_deleted":"0","num_feature":"128","num_nodes":"11","size_leaf_vector":"1"}},{"base_weights":[3.2837149E-3,3.0048791E-2,-4.8668602E-1,-1.1304938E-1,5.9087855E-1,-2.597414E-1,3.0048544E-2,-1.4589548E-2,-1.1839998E-3],"categories":[],"categories_nodes":[],"categories_segments":[],"categories_sizes":[],"default_left":[0,0,0,0,0,0,0,0,0],"id":5,"left_children":[1,-1,3,-1,5,7,-1,-1,-1],"loss_changes":[6.710536E4,0E0,2.4075002E5,0E0,6.730371E2,6.6238937E0,0E0,0E0,0E0],"parents":[2147483647,0,0,2,2,4,4,5,5],"right_children":[2,-1,4,-1,6,8,-1,-1,-1],"split_conditions":[-3.003303E-1,3.0048791E-2,2.9669937E-1,-1.1304938E-1,3.096559E-1,7.206863E-1,3.0048544E-2,-1.4589548E-2,-1.1839998E-3],"split_indices":[8,0,8,0,8,43,0,0,0],"split_type":[0,0,0,0,0,0,0,0,0],"sum_hessian":[2.2914264E5,1.0322495E5,1.2591769E5,4.7577355E4,7.834033E4,9.1713055E2,7.7423195E4,8.0356055E2,1.1357E2],"tree_param":{"num_deleted":"0","num_feature":"128","num_nodes":"9","size_leaf_vector":"1"}},{"base_weights":[-6.021053E-3,-5.4119724E-1,5.094596E-1,-2.7188916E-2,-2.0124584E-1,-4.8456305E-1,1.0448451E0,-4.9330452E-1,8.196994E-3,-5.1699346E-1,3.404824E-1,2.0422332E0,-1.9640602E-1,-2.5861962E-2,-1.0811994E-3,3.115747E-2,-1.7553184E-2,-2.6819987E-2,3.1138228E-3,-1.773948E-2,1.23135924E-1,2.6584271E-2,1.1134726E-1,8.410957E-2,-2.1833636E-2],"categories":[],"categories_nodes":[],"categories_segments":[],"categories_sizes":[],"default_left":[0,0,0,0,0,0,0,0,0,0,0,0,0,0,0,0,0,0,0,0,0,0,0,0,0],"id":6,"left_children":[1,3,5,-1,7,9,11,13,15,17,19,21,23,-1,-1,-1,-1,-1,-1,-1,-1,-1,-1,-1,-1],"loss_changes":[3.389272E4,5.2035156E1,3.33045E4,0E0,2.8548084E1,5.864912E2,5.0356168E4,1.6353912E0,5.9285652E1,2.374707E2,1.2246516E3,6.288586E3,8.1790103E3,0E0,0E0,0E0,0E0,0E0,0E0,0E0,0E0,0E0,0E0,0E0,0E0],"parents":[2147483647,0,0,1,1,2,2,4,4,5,5,6,6,7,7,8,8,9,9,10,10,11,11,12,12],"right_children":[2,4,6,-1,8,10,12,14,16,18,20,22,24,-1,-1,-1,-1,-1,-1,-1,-1,-1,-1,-1,-1],"split_conditions":[3.8966273E-3,-8.489047E-3,-5.132445E-1,-2.7188916E-2,-4.1162327E-1,-1.4571762E-2,3.4528452E-1,1.7247854E-2,1.4576828E-1,-2.7929747E-1,-5.189217E-1,-8.0084544E-1,-1.100751E-1,-2.5861962E-2,-1.0811994E-3,3.115747E-2,-1.7553184E-2,-2.6819987E-2,3.1138228E-3,-1.773948E-2,1.23135924E-1,2.6584271E-2,1.1134726E-1,8.410957E-2,-2.1833636E-2],"split_indices":[47,47,13,0,13,7,13,7,13,9,9,7,7,0,0,0,0,0,0,0,0,0,0,0,0],"split_type":[0,0,0,0,0,0,0,0,0,0,0,0,0,0,0,0,0,0,0,0,0,0,0,0,0],"sum_hessian":[1.22854125E5,6.0276484E4,6.257764E4,5.9818777E4,4.5770718E2,2.1905346E4,4.0672297E4,1.9258093E2,2.6512625E2,2.1078393E4,8.269525E2,2.2551527E4,1.812077E4,1.8117102E2,1.1409913E1,9.852623E1,1.6660002E2,2.0396873E4,6.815189E2,6.231591E2,2.0379338E2,2.458182E3,2.0093346E4,2.053636E3,1.6067134E4],"tree_param":{"num_deleted":"0","num_feature":"128","num_nodes":"25","size_leaf_vector":"1"}},{"base_weights":[-5.287664E-3,-2.7257849E-2,4.0096638E-1,1.6509606E0,-5.354075E-1,2.0038846E0,-8.000364E-2,2.3019604E-1,-2.7257396E-2,1.4742918E-1,8.413922E-2,-2.273858E-2,7.770589E-2,4.7909867E-2,2.619235E-3],"categories":[],"categories_nodes":[],"categories_segments":[],"categories_sizes":[],"default_left":[0,0,0,0,0,0,0,0,0,0,0,0,0,0,0],"id":7,"left_children":[1,-1,3,5,7,9,11,13,-1,-1,-1,-1,-1,-1,-1],"loss_changes":[2.8699537E4,0E0,8.739535E4,1.953764E4,3.1878125E2,8.0481406E3,3.3166316E3,6.828323E1,0E0,0E0,0E0,0E0,0E0,0E0,0E0],"parents":[2147483647,0,0,2,2,3,3,4,4,5,5,6,6,7,7],"right_children":[2,-1,4,6,8,10,12,14,-1,-1,-1,-1,-1,-1,-1],"split_conditions":[-3.003303E-1,-2.7257849E-2,2.9669937E-1,1.54894E0,3.096559E-1,-4.797043E-2,3.1458502E0,-4.797043E-2,-2.7257396E-2,1.4742918E-1,8.413922E-2,-2.273858E-2,7.770589E-2,4.7909867E-2,2.619235E-3],"split_indices":[8,0,8,48,8,48,48,48,0,0,0,0,0,0,0],"split_type":[0,0,0,0,0,0,0,0,0,0,0,0,0,0,0],"sum_hessian":[1.3085181E5,5.618711E4,7.46647E4,3.1977396E4,4.2687305E4,2.6562105E4,5.41529E3,5.3469476E2,4.215261E4,6.7352437E3,1.9826861E4,4.4061265E3,1.00916345E3,1.0299526E2,4.3169952E2],"tree_param":{"num_deleted":"0","num_feature":"128","num_nodes":"15","size_leaf_vector":"1"}},{"base_weights":[7.5637023E-3,2.9767228E-2,-4.4712883E-1,-9.5615156E-2,5.847817E-1,-2.571893E-1,2.9766975E-2,-1.816851E-2,-8.788207E-3],"categories":[],"categories_nodes":[],"categories_segments":[],"categories_sizes":[],"default_left":[0,0,0,0,0,0,0,0,0],"id":8,"left_children":[1,-1,3,-1,5,7,-1,-1,-1],"loss_changes":[6.095051E4,0E0,1.9441378E5,0E0,6.7117773E2,7.471138E0,0E0,0E0,0E0],"parents":[2147483647,0,0,2,2,4,4,5,5],"right_children":[2,-1,4,-1,6,8,-1,-1,-1],"split_conditions":[-3.003303E-1,2.9767228E-2,2.9669937E-1,-9.5615156E-2,3.096559E-1,-7.501254E-2,2.9766975E-2,-1.816851E-2,-8.788207E-3],"split_indices":[8,0,8,0,8,39,0,0,0],"split_type":[0,0,0,0,0,0,0,0,0],"sum_hessian":[2.2805483E5,9.947083E4,1.2858399E5,5.3136883E4,7.544712E4,9.3287915E2,7.4514234E4,3.98057E2,5.3482214E2],"tree_param":{"num_deleted":"0","num_feature":"128","num_nodes":"9","size_leaf_vector":"1"}},{"base_weights":[-5.824669E-3,-5.399424E-1,4.8422036E-1,-2.7126243E-2,-2.0704734E-1,-2.7021995E-2,1.1291131E0,-2.6623955E-2,3.8630866E-2,2.669944E0,-5.206706E-1,3.9935898E-2,-2.5842294E-2,1.4086191E-1,1.331334E-1,4.0426705E-2,-2.7047817E-2],"categories":[],"categories_nodes":[],"categories_segments":[],"categories_sizes":[],"default_left":[0,0,0,0,0,0,0,0,0,0,0,0,0,0,0,0,0],"id":9,"left_children":[1,3,5,-1,7,-1,9,-1,11,13,15,-1,-1,-1,-1,-1,-1],"loss_changes":[3.1956146E4,4.9359375E1,4.2074777E4,0E0,3.683703E1,0E0,9.9341234E4,0E0,1.09649E2,8.671875E0,5.0903955E2,0E0,0E0,0E0,0E0,0E0,0E0],"parents":[2147483647,0,0,1,1,2,2,4,4,6,6,8,8,9,9,10,10],"right_children":[2,4,6,-1,8,-1,10,-1,12,14,16,-1,-1,-1,-1,-1,-1],"split_conditions":[3.8966273E-3,-8.489047E-3,-3.003303E-1,-2.7126243E-2,-2.871812E-1,-2.7021995E-2,2.9669937E-1,-2.6623955E-2,2.838924E-1,-8.0084544E-1,3.096559E-1,3.9935898E-2,-2.5842294E-2,1.4086191E-1,1.331334E-1,4.0426705E-2,-2.7047817E-2],"split_indices":[47,47,8,0,8,0,8,0,8,7,8,0,0,0,0,0,0],"split_type":[0,0,0,0,0,0,0,0,0,0,0,0,0,0,0,0,0],"sum_hessian":[1.22088164E5,5.8418105E4,6.367006E4,5.79648E4,4.533081E2,2.4593088E4,3.907697E4,1.9625139E2,2.5705673E2,2.0205676E4,1.8871293E4,1.0911352E2,1.479432E2,9.265084E2,1.9279168E4,2.8235062E2,1.8588943E4],"tree_param":{"num_deleted":"0","num_feature":"128","num_nodes":"17","size_leaf_vector":"1"}},{"base_weights":[-7.149082E-3,4.317852E-1,-2.7350146E-2,-2.7141297E-2,1.0531529E0,2.536784E0,-5.2435815E-1,1.2274151E-1,1.2894014E-1,3.8648345E-2,-2.7140377E-2],"categories":[],"categories_nodes":[],"categories_segments":[],"categories_sizes":[],"default_left":[0,0,0,0,0,0,0,0,0,0,0],"id":10,"left_children":[1,3,-1,-1,5,7,9,-1,-1,-1,-1],"loss_changes":[3.0860725E4,4.3501188E4,0E0,0E0,1.0266832E5,6.6484375E1,5.0905957E2,0E0,0E0,0E0,0E0],"parents":[2147483647,0,0,1,1,4,4,5,5,6,6],"right_children":[2,4,-1,-1,6,8,10,-1,-1,-1,-1],"split_conditions":[3.8966273E-3,-3.003303E-1,-2.7350146E-2,-2.7141297E-2,2.9669937E-1,-4.797043E-2,3.096559E-1,1.2274151E-1,1.2894014E-1,3.8648345E-2,-2.7140377E-2],"split_indices":[47,8,0,0,8,48,8,0,0,0,0],"split_type":[0,0,0,0,0,0,0,0,0,0,0],"sum_hessian":[1.30233336E5,7.182972E4,5.840362E4,2.7965125E4,4.3864594E4,2.2604938E4,2.1259656E4,7.689839E3,1.4915099E4,2.9676263E2,2.0962895E4],"tree_param":{"num_deleted":"0","num_feature":"128","num_nodes":"11","size_leaf_vector":"1"}},{"base_weights":[6.9725453E-3,2.9521747E-2,-4.221072E-1,-8.483791E-2,5.8007383E-1,-2.2112338E-1,2.9535135E-2,-1.5785879E-2,-7.24448E-3],"categories":[],"categories_nodes":[],"categories_segments":[],"categories_sizes":[],"default_left":[0,0,0,0,0,0,0,0,0],"id":11,"left_children":[1,-1,3,-1,5,7,-1,-1,-1],"loss_changes":[5.6634777E4,0E0,1.6652158E5,0E0,6.2196484E2,6.380104E0,0E0,0E0,0E0],"parents":[2147483647,0,0,2,2,4,4,5,5],"right_children":[2,-1,4,-1,6,8,-1,-1,-1],"split_conditions":[-3.003303E-1,2.9521747E-2,2.9669937E-1,-8.483791E-2,3.096559E-1,-7.501254E-2,2.9535135E-2,-1.5785879E-2,-7.24448E-3],"split_indices":[8,0,8,0,8,39,0,0,0],"split_type":[0,0,0,0,0,0,0,0,0],"sum_hessian":[2.2621803E5,9.586408E4,1.3035395E5,5.737734E4,7.297662E4,9.5395715E2,7.202266E4,4.1845776E2,5.354994E2],"tree_param":{"num_deleted":"0","num_feature":"128","num_nodes":"9","size_leaf_vector":"1"}},{"base_weights":[-6.373128E-3,-5.3838044E-1,4.596112E-1,-2.705783E-2,-1.8461776E-1,-2.6919676E-2,1.032311E0,-2.649363E-2,6.3158944E-2,2.2582345E0,-5.170824E-1,3.6661305E-2,-2.5998298E-2,1.1249155E-1,1.1695706E-1,3.911928E-2,-2.694404E-2],"categories":[],"categories_nodes":[],"categories_segments":[],"categories_sizes":[],"default_left":[0,0,0,0,0,0,0,0,0,0,0,0,0,0,0,0,0],"id":12,"left_children":[1,3,5,-1,7,-1,9,-1,11,13,15,-1,-1,-1,-1,-1,-1],"loss_changes":[3.002201E4,5.4708984E1,3.6898242E4,0E0,3.8535282E1,0E0,7.791542E4,0E0,1.0142552E2,5.7265625E0,5.134331E2,0E0,0E0,0E0,0E0,0E0,0E0],"parents":[2147483647,0,0,1,1,2,2,4,4,6,6,8,8,9,9,10,10],"right_children":[2,4,6,-1,8,-1,10,-1,12,14,16,-1,-1,-1,-1,-1,-1],"split_conditions":[3.8966273E-3,-8.489047E-3,-3.003303E-1,-2.705783E-2,-3.003303E-1,-2.6919676E-2,2.9669937E-1,-2.649363E-2,2.9669937E-1,3.4528452E-1,3.096559E-1,3.6661305E-2,-2.5998298E-2,1.1249155E-1,1.1695706E-1,3.911928E-2,-2.694404E-2],"split_indices":[47,47,8,0,8,0,8,0,8,13,8,0,0,0,0,0,0],"split_type":[0,0,0,0,0,0,0,0,0,0,0,0,0,0,0,0,0],"sum_hessian":[1.2109955E5,5.6544984E4,6.4554566E4,5.6101367E4,4.436152E2,2.353684E4,4.1017727E4,1.8655907E2,2.5705615E2,2.2899326E4,1.81184E4,1.2028941E2,1.3676672E2,2.078195E4,2.1173767E3,2.975863E2,1.7820812E4],"tree_param":{"num_deleted":"0","num_feature":"128","num_nodes":"17","size_leaf_vector":"1"}},{"base_weights":[-8.397965E-3,4.1022354E-1,-2.728097E-2,-4.350271E-1,6.6277134E-1,-5.231018E-1,1.4269137E0,1.0096076E0,-4.2140546E-1,-2.6784569E-2,9.686012E-3,1.2320617E-3,9.440275E-2,-1.230542E-2,6.3623965E-2,7.15333E-2,-2.6325224E-2],"categories":[],"categories_nodes":[],"categories_segments":[],"categories_sizes":[],"default_left":[0,0,0,0,0,0,0,0,0,0,0,0,0,0,0,0,0],"id":13,"left_children":[1,3,-1,5,7,9,11,13,15,-1,-1,-1,-1,-1,-1,-1,-1],"loss_changes":[2.9003174E4,1.5472943E4,0E0,2.734226E3,2.0986871E4,1.4413525E2,4.848745E2,1.3958734E4,2.6327805E3,0E0,0E0,0E0,0E0,0E0,0E0,0E0,0E0],"parents":[2147483647,0,0,1,1,3,3,4,4,5,5,6,6,7,7,8,8],"right_children":[2,4,-1,6,8,10,12,14,16,-1,-1,-1,-1,-1,-1,-1,-1],"split_conditions":[3.8966273E-3,-8.918901E-1,-2.728097E-2,6.944392E-1,8.954581E-1,4.9980783E-1,-1.0686426E0,-7.5450593E-1,-3.727092E-1,-2.6784569E-2,9.686012E-3,1.2320617E-3,9.440275E-2,-1.230542E-2,6.3623965E-2,7.15333E-2,-2.6325224E-2],"split_indices":[47,7,0,10,7,10,7,10,10,0,0,0,0,0,0,0,0],"split_type":[0,0,0,0,0,0,0,0,0,0,0,0,0,0,0,0,0],"sum_hessian":[1.28962055E5,7.248085E4,5.648121E4,1.6673096E4,5.5807754E4,1.5921234E4,7.5186017E2,4.228232E4,1.3525434E4,1.5648056E4,2.7317953E2,1.8686113E2,5.649991E2,7.318539E3,3.496378E4,7.2512024E2,1.2800313E4],"tree_param":{"num_deleted":"0","num_feature":"128","num_nodes":"17","size_leaf_vector":"1"}},{"base_weights":[6.917551E-3,5.5424553E-1,-2.9512805E-1,5.6834024E-1,9.662241E-3,-8.8511735E-1,3.7912798E-1,5.827597E-1,2.7829194E-1,4.575174E-1,-1.1961079E0,-3.0632896E-2,-1.0025463E0,-7.180194E-1,5.170407E-1,2.9216934E-2,2.3301091E-2,2.405681E-2,-4.981123E-2,2.6045313E-2,-7.2954493E-3,-3.1533994E-2,-7.059777E-2,2.2912305E-2,-5.6065287E-2,-5.6064278E-2,-7.696158E-3,-5.8731258E-2,1.3362244E-2,-3.5825055E-2,2.7331028E-2],"categories":[],"categories_nodes":[],"categories_segments":[],"categories_sizes":[],"default_left":[0,0,0,0,0,0,0,0,0,0,0,0,0,0,0,0,0,0,0,0,0,0,0,0,0,0,0,0,0,0,0],"id":14,"left_children":[1,3,5,7,9,11,13,15,17,19,21,23,25,27,29,-1,-1,-1,-1,-1,-1,-1,-1,-1,-1,-1,-1,-1,-1,-1,-1],"loss_changes":[3.692504E4,6.0909375E2,5.725567E4,3.227871E2,1.0834452E3,7.7012695E3,1.0163237E4,1.2271484E1,9.492577E2,5.647061E1,6.3356262E1,4.9475044E3,6.798758E3,3.375206E3,2.1773887E3,0E0,0E0,0E0,0E0,0E0,0E0,0E0,0E0,0E0,0E0,0E0,0E0,0E0,0E0,0E0,0E0],"parents":[2147483647,0,0,1,1,2,2,3,3,4,4,5,5,6,6,7,7,8,8,9,9,10,10,11,11,12,12,13,13,14,14],"right_children":[2,4,6,8,10,12,14,16,18,20,22,24,26,28,30,-1,-1,-1,-1,-1,-1,-1,-1,-1,-1,-1,-1,-1,-1,-1,-1],"split_conditions":[-5.132445E-1,4.92714E-2,3.1901264E-1,-3.6431658E-1,-5.3877056E-1,-7.7744144E-1,-1.2605621E-1,-4.1661277E-1,-4.1515225E-1,2.849758E-1,-4.8872638E-1,2.5294903E-1,8.135976E-1,9.639281E-1,-7.26165E-2,2.9216934E-2,2.3301091E-2,2.405681E-2,-4.981123E-2,2.6045313E-2,-7.2954493E-3,-3.1533994E-2,-7.059777E-2,2.2912305E-2,-5.6065287E-2,-5.6064278E-2,-7.696158E-3,-5.8731258E-2,1.3362244E-2,-3.5825055E-2,2.7331028E-2],"split_indices":[13,7,13,9,9,7,7,9,7,7,9,9,7,9,9,0,0,0,0,0,0,0,0,0,0,0,0,0,0,0,0],"split_type":[0,0,0,0,0,0,0,0,0,0,0,0,0,0,0,0,0,0,0,0,0,0,0,0,0,0,0,0,0,0,0],"sum_hessian":[2.233541E5,7.94278E4,1.439263E5,7.74221E4,2.0056959E3,7.676039E4,6.716591E4,7.375119E4,3.6709124E3,1.4635459E3,5.4215E2,9.275562E3,6.748483E4,7.4987896E3,5.966712E4,7.275455E4,9.966407E2,3.1681035E3,5.028089E2,1.3260416E3,1.3750438E2,1.5214635E2,3.900037E2,6.404497E3,2.871064E3,5.9200066E4,8.284761E3,5.1246646E3,2.3741248E3,1.3959501E3,5.8271168E4],"tree_param":{"num_deleted":"0","num_feature":"128","num_nodes":"31","size_leaf_vector":"1"}},{"base_weights":[-6.762925E-3,-2.6822394E-2,3.315661E-1,1.1522102E0,-5.258508E-1,-4.919256E-1,1.3600918E0,1.740593E-1,-2.6836315E-2,-2.6244849E-2,-2.2828987E-2,5.657812E-2,9.36172E-2,5.054007E-4,3.4103986E-2],"categories":[],"categories_nodes":[],"categories_segments":[],"categories_sizes":[],"default_left":[0,0,0,0,0,0,0,0,0,0,0,0,0,0,0],"id":15,"left_children":[1,-1,3,5,7,9,11,13,-1,-1,-1,-1,-1,-1,-1],"loss_changes":[2.1479334E4,0E0,5.1463723E4,1.2774527E4,2.727168E2,3.6676636E0,3.8787773E3,4.482927E1,0E0,0E0,0E0,0E0,0E0,0E0,0E0],"parents":[2147483647,0,0,2,2,3,3,4,4,5,5,6,6,7,7],"right_children":[2,-1,4,6,8,10,12,14,-1,-1,-1,-1,-1,-1,-1],"split_conditions":[-3.003303E-1,-2.6822394E-2,2.9669937E-1,-4.797043E-2,3.096559E-1,-6.677329E-2,1.54894E0,1.54894E0,-2.6836315E-2,-2.6244849E-2,-2.2828987E-2,5.657812E-2,9.36172E-2,5.054007E-4,3.4103986E-2],"split_indices":[8,0,8,48,8,46,48,48,0,0,0,0,0,0,0],"split_type":[0,0,0,0,0,0,0,0,0,0,0,0,0,0,0],"sum_hessian":[1.1985399E5,4.671686E4,7.313714E4,3.7370348E4,3.576679E4,4.193981E3,3.3176367E4,5.4562054E2,3.5221168E4,2.148071E3,2.0459099E3,2.2945098E4,1.0231269E4,4.147563E2,1.3086423E2],"tree_param":{"num_deleted":"0","num_feature":"128","num_nodes":"15","size_leaf_vector":"1"}},{"base_weights":[-7.7072936E-3,-2.6965603E-2,3.3245495E-1,1.1635323E0,-5.293539E-1,1.3823372E0,-1.2983184E-1,1.4851326E-1,-2.6985703E-2,9.591266E-2,5.9184756E-2,-2.304898E-2,5.474018E-2,3.4509845E-2,1.02348524E-4],"categories":[],"categories_nodes":[],"categories_segments":[],"categories_sizes":[],"default_left":[0,0,0,0,0,0,0,0,0,0,0,0,0,0,0],"id":16,"left_children":[1,-1,3,5,7,9,11,13,-1,-1,-1,-1,-1,-1,-1],"loss_changes":[2.3131242E4,0E0,5.5868156E4,1.123902E4,2.6939355E2,3.610332E3,2.330106E3,4.498665E1,0E0,0E0,0E0,0E0,0E0,0E0,0E0],"parents":[2147483647,0,0,2,2,3,3,4,4,5,5,6,6,7,7],"right_children":[2,-1,4,6,8,10,12,14,-1,-1,-1,-1,-1,-1,-1],"split_conditions":[-3.003303E-1,-2.6965603E-2,2.9669937E-1,1.54894E0,3.096559E-1,-4.797043E-2,3.1458502E0,-4.797043E-2,-2.6985703E-2,9.591266E-2,5.9184756E-2,-2.304898E-2,5.474018E-2,3.4509845E-2,1.02348524E-4],"split_indices":[8,0,8,48,8,48,48,48,0,0,0,0,0,0,0],"split_type":[0,0,0,0,0,0,0,0,0,0,0,0,0,0,0],"sum_hessian":[1.2791259E5,4.991223E4,7.800037E4,3.970858E4,3.8291785E4,3.3963508E4,5.7450713E3,5.747654E2,3.771702E4,9.180842E3,2.4782666E4,4.523369E3,1.2217023E3,1.2009013E2,4.5467526E2],"tree_param":{"num_deleted":"0","num_feature":"128","num_nodes":"15","size_leaf_vector":"1"}},{"base_weights":[8.0900695E-3,5.491015E-1,-2.791359E-1,5.7615364E-1,2.7794296E-1,-8.1640995E-1,3.8257074E-1,5.794696E-1,4.8051992E-1,4.1808876E-1,-3.679101E-1,-1.8385473E-1,-9.0233874E-1,8.088375E-3,5.3698444E-1,2.902208E-2,2.7824908E-2,2.7819017E-2,-5.2339667E-3,2.2864945E-2,-7.01186E-3,1.7606039E-2,-3.3247642E-2,7.3453956E-3,-3.2367986E-2,-5.1265903E-2,-2.3274124E-2,-3.0016357E-2,2.3754952E-2,2.7878126E-2,-5.5441963E-3],"categories":[],"categories_nodes":[],"categories_segments":[],"categories_sizes":[],"default_left":[0,0,0,0,0,0,0,0,0,0,0,0,0,0,0,0,0,0,0,0,0,0,0,0,0,0,0,0,0,0,0],"id":17,"left_children":[1,3,5,7,9,11,13,15,17,19,21,23,25,27,29,-1,-1,-1,-1,-1,-1,-1,-1,-1,-1,-1,-1,-1,-1,-1,-1],"loss_changes":[3.4263074E4,5.5989844E2,5.120453E4,2.0707031E1,6.285401E2,4.319285E3,3.7314404E3,4.1015625E-2,1.0465173E2,1.2529443E2,2.651206E2,1.4584489E3,3.7576406E3,5.3548315E3,6.0970703E2,0E0,0E0,0E0,0E0,0E0,0E0,0E0,0E0,0E0,0E0,0E0,0E0,0E0,0E0,0E0,0E0],"parents":[2147483647,0,0,1,1,2,2,3,3,4,4,5,5,6,6,7,7,8,8,9,9,10,10,11,11,12,12,13,13,14,14],"right_children":[2,4,6,8,10,12,14,16,18,20,22,24,26,28,30,-1,-1,-1,-1,-1,-1,-1,-1,-1,-1,-1,-1,-1,-1,-1,-1],"split_conditions":[-5.132445E-1,-4.987849E-1,3.320366E-1,-5.683017E-1,2.6460367E-1,-4.0023988E-1,6.5675914E-1,-5.872065E-1,1.294055E0,1.176063E-1,-6.528986E-1,5.909046E-1,1.4576828E-1,5.9675504E-2,1.0240264E0,2.902208E-2,2.7824908E-2,2.7819017E-2,-5.2339667E-3,2.2864945E-2,-7.01186E-3,1.7606039E-2,-3.3247642E-2,7.3453956E-3,-3.2367986E-2,-5.1265903E-2,-2.3274124E-2,-3.0016357E-2,2.3754952E-2,2.7878126E-2,-5.5441963E-3],"split_indices":[13,9,13,13,5,13,13,9,20,9,13,5,13,5,21,0,0,0,0,0,0,0,0,0,0,0,0,0,0,0,0],"split_type":[0,0,0,0,0,0,0,0,0,0,0,0,0,0,0,0,0,0,0,0,0,0,0,0,0,0,0,0,0,0,0],"sum_hessian":[2.2048997E5,7.646502E4,1.4402495E5,6.9524125E4,6.940896E3,7.948678E4,6.4538168E4,6.717924E4,2.3448804E3,5.7048765E3,1.2360194E3,9.508177E3,6.99786E4,1.8844418E4,4.569375E4,6.4386938E4,2.792308E3,2.0773481E3,2.6753223E2,5.3323667E3,3.7250967E2,3.599499E2,8.7606946E2,5.5477573E3,3.9604194E3,5.4603535E4,1.5375067E4,8.1822544E3,1.0662163E4,4.42887E4,1.4050518E3],"tree_param":{"num_deleted":"0","num_feature":"128","num_nodes":"31","size_leaf_vector":"1"}},{"base_weights":[-6.96253E-3,-2.6751338E-2,3.164159E-1,1.0610543E0,-5.243818E-1,9.37304E-1,1.1709657E0,1.5526518E-1,-2.6769508E-2,4.4122E-2,4.981644E-2,5.5636924E-2,6.1839323E-2,9.814914E-3,-6.2165647E-3],"categories":[],"categories_nodes":[],"categories_segments":[],"categories_sizes":[],"default_left":[0,0,0,0,0,0,0,0,0,0,0,0,0,0,0],"id":18,"left_children":[1,-1,3,5,7,9,11,13,-1,-1,-1,-1,-1,-1,-1],"loss_changes":[2.0289744E4,0E0,4.6136625E4,5.2833984E2,2.594043E2,5.680078E1,7.556641E1,6.4174604E0,0E0,0E0,0E0,0E0,0E0,0E0,0E0],"parents":[2147483647,0,0,2,2,3,3,4,4,5,5,6,6,7,7],"right_children":[2,-1,4,6,8,10,12,14,-1,-1,-1,-1,-1,-1,-1],"split_conditions":[-3.003303E-1,-2.6751338E-2,2.9669937E-1,-6.3655335E-3,3.096559E-1,-6.568124E-1,7.876447E-1,1.1242489E0,-2.6769508E-2,4.4122E-2,4.981644E-2,5.5636924E-2,6.1839323E-2,9.814914E-3,-6.2165647E-3],"split_indices":[8,0,8,46,8,46,46,42,0,0,0,0,0,0,0],"split_type":[0,0,0,0,0,0,0,0,0,0,0,0,0,0,0],"sum_hessian":[1.1881378E5,4.5126473E4,7.368731E4,3.9078777E4,3.4608535E4,1.83909E4,2.0687875E4,5.4996716E2,3.4058566E4,9.548444E3,8.842457E3,1.0994714E4,9.693161E3,4.829629E2,6.700429E1],"tree_param":{"num_deleted":"0","num_feature":"128","num_nodes":"15","size_leaf_vector":"1"}},{"base_weights":[-6.84977E-3,3.8695475E-1,-5.4394275E-1,-2.6906684E-2,8.745238E-1,-2.6861144E-2,-5.4890925E-1,1.8417137E0,-5.189973E-1,-2.8189441E-2,-2.687419E-2,9.223407E-2,6.856706E-2,2.9187897E-2,-2.6946072E-2],"categories":[],"categories_nodes":[],"categories_segments":[],"categories_sizes":[],"default_left":[0,0,0,0,0,0,0,0,0,0,0,0,0,0,0],"id":19,"left_children":[1,3,5,-1,7,-1,9,11,13,-1,-1,-1,-1,-1,-1],"loss_changes":[2.680696E4,3.2982695E4,4.0820312E-1,0E0,6.454357E4,0E0,3.8154297E0,3.371875E1,4.3134082E2,0E0,0E0,0E0,0E0,0E0,0E0],"parents":[2147483647,0,0,1,1,2,2,4,4,6,6,7,7,8,8],"right_children":[2,4,6,-1,8,-1,10,12,14,-1,-1,-1,-1,-1,-1],"split_conditions":[3.8966273E-3,-3.003303E-1,-3.003303E-1,-2.6906684E-2,2.9669937E-1,-2.6861144E-2,2.9669937E-1,-8.489047E-3,3.096559E-1,-2.8189441E-2,-2.687419E-2,9.223407E-2,6.856706E-2,2.9187897E-2,-2.6946072E-2],"split_indices":[47,8,8,0,8,0,8,47,8,0,0,0,0,0,0],"split_type":[0,0,0,0,0,0,0,0,0,0,0,0,0,0,0],"sum_hessian":[1.26738336E5,7.312236E4,5.3615977E4,2.523694E4,4.788542E4,2.291761E4,3.069837E4,2.8266865E4,1.9618557E4,1.3274633E4,1.7423734E4,2.8084625E4,1.8224097E2,3.4677652E2,1.927178E4],"tree_param":{"num_deleted":"0","num_feature":"128","num_nodes":"15","size_leaf_vector":"1"}},{"base_weights":[7.0766904E-3,5.78469E-1,-3.6944538E-1,2.8825566E-2,2.9424742E-2,-1.3287997E0,5.680899E-1,-1.3491489E0,-1.3070319E0,-1.4953117E-1,2.8971417E-2,-6.711985E-2,-6.860743E-2,-6.5049075E-2,-6.791406E-2,-8.975611E-3,3.0021255E-3],"categories":[],"categories_nodes":[],"categories_segments":[],"categories_sizes":[],"default_left":[0,0,0,0,0,0,0,0,0,0,0,0,0,0,0,0,0],"id":20,"left_children":[1,3,5,-1,-1,7,9,11,13,15,-1,-1,-1,-1,-1,-1,-1],"loss_changes":[4.6779844E4,1.9140625E-1,1.1788703E5,0E0,0E0,2.428125E1,5.3988086E2,6.3671875E-1,5.296875E0,6.604986E0,0E0,0E0,0E0,0E0,0E0,0E0,0E0],"parents":[2147483647,0,0,1,1,2,2,5,5,6,6,7,7,8,8,9,9],"right_children":[2,4,6,-1,-1,8,10,12,14,16,-1,-1,-1,-1,-1,-1,-1],"split_conditions":[-3.003303E-1,-5.132445E-1,2.9669937E-1,2.8825566E-2,2.9424742E-2,3.8966273E-3,3.096559E-1,1.4576828E-1,3.1901264E-1,7.3550266E-1,2.8971417E-2,-6.711985E-2,-6.860743E-2,-6.5049075E-2,-6.791406E-2,-8.975611E-3,3.0021255E-3],"split_indices":[8,13,8,0,0,47,8,13,13,43,0,0,0,0,0,0,0],"split_type":[0,0,0,0,0,0,0,0,0,0,0,0,0,0,0,0,0],"sum_hessian":[2.1743428E5,8.636814E4,1.3106613E5,7.2391125E4,1.3977016E4,6.477959E4,6.628655E4,3.342571E4,3.1353877E4,1.0294777E3,6.525707E4,2.5919525E4,7.506185E3,2.8084215E4,3.2696628E3,9.049351E2,1.2454256E2],"tree_param":{"num_deleted":"0","num_feature":"128","num_nodes":"17","size_leaf_vector":"1"}},{"base_weights":[-6.4274175E-3,-5.367092E-1,4.26579E-1,-5.3971684E-1,-1.6912834E-1,-2.6682599E-2,8.849837E-1,-2.6640922E-2,-5.446802E-1,-2.6205614E-2,5.3822897E-2,1.6951963E0,-2.671173E-2,-2.7956411E-2,-2.6653567E-2,2.8151048E-2,-2.605997E-2,8.5398726E-2,2.9769361E-2],"categories":[],"categories_nodes":[],"categories_segments":[],"categories_sizes":[],"default_left":[0,0,0,0,0,0,0,0,0,0,0,0,0,0,0,0,0,0,0],"id":21,"left_children":[1,3,5,7,9,-1,11,-1,13,-1,15,17,-1,-1,-1,-1,-1,-1,-1],"loss_changes":[2.6923559E4,5.7469727E1,2.8412574E4,4.2285156E-1,3.4682842E1,0E0,5.0240598E4,0E0,3.6865234E0,0E0,7.777424E1,3.875547E2,0E0,0E0,0E0,0E0,0E0,0E0,0E0],"parents":[2147483647,0,0,1,1,2,2,3,3,4,4,6,6,8,8,10,10,11,11],"right_children":[2,4,6,8,10,-1,12,-1,14,-1,16,18,-1,-1,-1,-1,-1,-1,-1],"split_conditions":[3.8966273E-3,-8.489047E-3,-3.003303E-1,-3.003303E-1,-3.003303E-1,-2.6682599E-2,3.096559E-1,-2.6640922E-2,2.9669937E-1,-2.6205614E-2,3.096559E-1,2.9669937E-1,-2.671173E-2,-2.7956411E-2,-2.6653567E-2,2.8151048E-2,-2.605997E-2,8.5398726E-2,2.9769361E-2],"split_indices":[47,47,8,8,8,0,8,0,8,0,8,8,0,0,0,0,0,0,0],"split_type":[0,0,0,0,0,0,0,0,0,0,0,0,0,0,0,0,0,0,0],"sum_hessian":[1.1725254E5,5.2706965E4,6.4545574E4,5.2276043E4,4.3092532E2,2.0855898E4,4.3689676E4,2.2003604E4,3.0272438E4,1.6744815E2,2.6347717E2,2.781244E4,1.5877236E4,1.3427549E4,1.6844889E4,1.4066998E2,1.22807205E2,2.7491566E4,3.208727E2],"tree_param":{"num_deleted":"0","num_feature":"128","num_nodes":"19","size_leaf_vector":"1"}},{"base_weights":[-6.861902E-3,-2.6790757E-2,3.0207497E-1,9.8067826E-1,-5.252688E-1,1.0680319E0,8.627122E-1,1.2836565E-1,-2.681383E-2,5.5836745E-2,5.1134672E-2,4.588199E-2,3.980653E-2,1.2392769E-2,1.6462648E-3],"categories":[],"categories_nodes":[],"categories_segments":[],"categories_sizes":[],"default_left":[0,0,0,0,0,0,0,0,0,0,0,0,0,0,0],"id":22,"left_children":[1,-1,3,5,7,9,11,13,-1,-1,-1,-1,-1,-1,-1],"loss_changes":[2.0374182E4,0E0,4.418994E4,4.4273828E2,2.5566113E2,5.155664E1,6.487402E1,6.401849E0,0E0,0E0,0E0,0E0,0E0,0E0,0E0],"parents":[2147483647,0,0,2,2,3,3,4,4,5,5,6,6,7,7],"right_children":[2,-1,4,6,8,10,12,14,-1,-1,-1,-1,-1,-1,-1],"split_conditions":[-3.003303E-1,-2.6790757E-2,2.9669937E-1,2.5667975E-2,3.096559E-1,-6.568124E-1,9.0485543E-1,-7.501254E-2,-2.681383E-2,5.5836745E-2,5.1134672E-2,4.588199E-2,3.980653E-2,1.2392769E-2,1.6462648E-3],"split_indices":[8,0,8,46,8,46,46,39,0,0,0,0,0,0,0],"split_type":[0,0,0,0,0,0,0,0,0,0,0,0,0,0,0],"sum_hessian":[1.2467555E5,4.5969812E4,7.870574E4,4.3240266E4,3.5465473E4,2.4834111E4,1.8406154E4,5.8569824E2,3.4879773E4,1.1950789E4,1.2883323E4,1.0070515E4,8.33564E3,2.5471928E2,3.3097894E2],"tree_param":{"num_deleted":"0","num_feature":"128","num_nodes":"15","size_leaf_vector":"1"}},{"base_weights":[7.339495E-3,5.3972554E-1,-2.5677618E-1,5.6687945E-1,2.613021E-1,-7.100516E-1,3.8655403E-1,5.705275E-1,4.6460432E-1,4.02031E-1,-3.7019208E-1,-1.6738744E-1,-7.779995E-1,3.6680236E-2,5.317659E-1,2.8593196E-2,2.7069226E-2,2.7528897E-2,-3.9799036E-3,2.187915E-2,-9.779005E-3,1.2974724E-2,-3.4203816E-2,1.1405216E-2,-2.4864452E-2,-4.4139687E-2,-1.826281E-2,-2.5044817E-2,2.3556551E-2,2.7487576E-2,-5.348752E-3],"categories":[],"categories_nodes":[],"categories_segments":[],"categories_sizes":[],"default_left":[0,0,0,0,0,0,0,0,0,0,0,0,0,0,0,0,0,0,0,0,0,0,0,0,0,0,0,0,0,0,0],"id":23,"left_children":[1,3,5,7,9,11,13,15,17,19,21,23,25,27,29,-1,-1,-1,-1,-1,-1,-1,-1,-1,-1,-1,-1,-1,-1,-1,-1],"loss_changes":[3.000612E4,5.3400586E2,4.1593312E4,2.2753906E1,5.594463E2,3.084371E3,2.9947393E3,1E0,1.0509387E2,1.0970386E2,2.2712201E2,1.2156715E3,3.2149219E3,4.0395542E3,4.7912207E2,0E0,0E0,0E0,0E0,0E0,0E0,0E0,0E0,0E0,0E0,0E0,0E0,0E0,0E0,0E0,0E0],"parents":[2147483647,0,0,1,1,2,2,3,3,4,4,5,5,6,6,7,7,8,8,9,9,10,10,11,11,12,12,13,13,14,14],"right_children":[2,4,6,8,10,12,14,16,18,20,22,24,26,28,30,-1,-1,-1,-1,-1,-1,-1,-1,-1,-1,-1,-1,-1,-1,-1,-1],"split_conditions":[-5.132445E-1,-4.8872638E-1,3.5811788E-1,-5.683017E-1,2.6460367E-1,-4.0023988E-1,6.740057E-1,-5.872065E-1,1.219645E0,1.7719345E-1,5.507191E-1,-5.0279602E-2,1.7062981E-1,-2.698599E-2,1.1238626E0,2.8593196E-2,2.7069226E-2,2.7528897E-2,-3.9799036E-3,2.187915E-2,-9.779005E-3,1.2974724E-2,-3.4203816E-2,1.1405216E-2,-2.4864452E-2,-4.4139687E-2,-1.826281E-2,-2.5044817E-2,2.3556551E-2,2.7487576E-2,-5.348752E-3],"split_indices":[13,9,13,13,5,13,13,9,20,9,20,21,13,5,21,0,0,0,0,0,0,0,0,0,0,0,0,0,0,0,0],"split_type":[0,0,0,0,0,0,0,0,0,0,0,0,0,0,0,0,0,0,0,0,0,0,0,0,0,0,0,0,0,0,0],"sum_hessian":[2.1339336E5,7.0761E4,1.4263236E5,6.4468887E4,6.2921113E3,8.367697E4,5.895539E4,6.223467E4,2.2342139E3,5.147037E3,1.1450737E3,9.31346E3,7.4363516E4,1.729439E4,4.1661E4,5.9455332E4,2.779338E3,1.9309813E3,3.0323248E2,4.8598647E3,2.8717267E2,3.7991318E2,7.651606E2,4.2344297E3,5.0790303E3,5.930309E4,1.5060424E4,7.7286865E3,9.565703E3,4.0521695E4,1.139304E3],"tree_param":{"num_deleted":"0","num_feature":"128","num_nodes":"31","size_leaf_vector":"1"}},{"base_weights":[-6.4512515E-3,-5.3583205E-1,4.140072E-1,-5.385856E-1,-2.0371583E-1,-4.797704E-1,7.2500587E-1,-2.6549513E-2,-5.42699E-1,-5.126119E-1,-5.643926E-2,-5.222533E-1,-5.9983926E-3,1.094845E0,-3.1162217E-1,-2.7539356E-2,-2.6664648E-2,-0E0,-2.5991146E-2,6.8842396E-3,-2.202394E-2,-2.6464745E-2,6.125932E-3,-2.1079237E-2,5.602486E-2,5.9402015E-2,-2.192237E-4,4.2742535E-2,-2.3048243E-2],"categories":[],"categories_nodes":[],"categories_segments":[],"categories_sizes":[],"default_left":[0,0,0,0,0,0,0,0,0,0,0,0,0,0,0,0,0,0,0,0,0,0,0,0,0,0,0,0,0],"id":24,"left_children":[1,3,5,7,9,11,13,-1,15,17,19,21,23,25,27,-1,-1,-1,-1,-1,-1,-1,-1,-1,-1,-1,-1,-1,-1],"loss_changes":[2.572043E4,4.592871E1,1.7901871E4,2.2363281E-1,1.8746387E1,3.3406836E2,1.8318621E4,0E0,1.1152344E0,6.721878E-1,2.2076435E1,6.972998E1,6.416E2,3.6087773E3,2.1886406E3,0E0,0E0,0E0,0E0,0E0,0E0,0E0,0E0,0E0,0E0,0E0,0E0,0E0,0E0],"parents":[2147483647,0,0,1,1,2,2,3,3,4,4,5,5,6,6,8,8,9,9,10,10,11,11,12,12,13,13,14,14],"right_children":[2,4,6,8,10,12,14,-1,16,18,20,22,24,26,28,-1,-1,-1,-1,-1,-1,-1,-1,-1,-1,-1,-1,-1,-1],"split_conditions":[3.8966273E-3,-8.489047E-3,-5.356435E-1,-5.132445E-1,-5.683017E-1,-4.6824595E-1,4.976676E-1,-2.6549513E-2,3.1901264E-1,-9.2227215E-1,4.5354348E-1,1.4501543E-1,-4.4406164E-1,8.954581E-1,-1.7301625E-1,-2.7539356E-2,-2.6664648E-2,-0E0,-2.5991146E-2,6.8842396E-3,-2.202394E-2,-2.6464745E-2,6.125932E-3,-2.1079237E-2,5.602486E-2,5.9402015E-2,-2.192237E-4,4.2742535E-2,-2.3048243E-2],"split_indices":[47,47,13,13,13,9,13,0,13,30,13,7,7,7,7,0,0,0,0,0,0,0,0,0,0,0,0,0,0],"split_type":[0,0,0,0,0,0,0,0,0,0,0,0,0,0,0,0,0,0,0,0,0,0,0,0,0,0,0,0,0],"sum_hessian":[1.1555199E5,5.1151496E4,6.44005E4,5.072728E4,4.2421487E2,1.6623254E4,4.7777246E4,1.7951873E4,3.2775406E4,1.3396588E2,2.90249E2,1.5253287E4,1.3699668E3,3.5214594E4,1.2562651E4,1.7534178E4,1.5241229E4,1.2308838E0,1.32735E2,1.9149156E2,9.875744E1,1.5090215E4,1.6307155E2,1.00187054E3,3.6809622E2,3.2463127E4,2.751467E3,1.4245419E3,1.1138109E4],"tree_param":{"num_deleted":"0","num_feature":"128","num_nodes":"29","size_leaf_vector":"1"}},{"base_weights":[-5.5534565E-3,3.7202632E-1,-5.428951E-1,-4.488485E-1,6.0660094E-1,-2.6693165E-2,-5.4643863E-1,-5.2392775E-1,1.2634952E0,8.6748743E-1,-4.17165E-1,-2.7565017E-2,-2.6739383E-2,-2.6550973E-2,5.1202526E-4,2.9880828E-3,7.256808E-2,-1.8425511E-2,4.9494874E-2,5.8491137E-2,-2.643011E-2],"categories":[],"categories_nodes":[],"categories_segments":[],"categories_sizes":[],"default_left":[0,0,0,0,0,0,0,0,0,0,0,0,0,0,0,0,0,0,0,0,0],"id":25,"left_children":[1,3,5,7,9,-1,11,13,15,17,19,-1,-1,-1,-1,-1,-1,-1,-1,-1,-1],"loss_changes":[2.5028953E4,1.3951213E4,2.5683594E-1,2.0699922E3,1.5051037E4,0E0,6.8359375E-1,5.8965332E1,1.5129065E2,6.795383E3,2.0237246E3,0E0,0E0,0E0,0E0,0E0,0E0,0E0,0E0,0E0,0E0],"parents":[2147483647,0,0,1,1,2,2,3,3,4,4,6,6,7,7,8,8,9,9,10,10],"right_children":[2,4,6,8,10,-1,12,14,16,18,20,-1,-1,-1,-1,-1,-1,-1,-1,-1,-1],"split_conditions":[3.8966273E-3,-7.009188E-1,-7.009188E-1,3.0045596E-1,9.0891314E-1,-2.6693165E-2,8.683951E-1,1.9163725E-1,-8.251783E-1,-9.733453E-1,-2.590646E-1,-2.7565017E-2,-2.6739383E-2,-2.6550973E-2,5.1202526E-4,2.9880828E-3,7.256808E-2,-1.8425511E-2,4.9494874E-2,5.8491137E-2,-2.643011E-2],"split_indices":[47,12,12,7,7,0,7,7,12,7,12,0,0,0,0,0,0,0,0,0,0],"split_type":[0,0,0,0,0,0,0,0,0,0,0,0,0,0,0,0,0,0,0,0,0],"sum_hessian":[1.2335974E5,7.244938E4,5.091036E4,1.6100792E4,5.634859E4,1.446799E4,3.644237E4,1.5425716E4,6.750763E2,4.490625E4,1.144234E4,2.561958E4,1.0822791E4,1.5225457E4,2.0025862E2,9.203203E1,5.830443E2,4.045713E3,4.086054E4,7.495436E2,1.0692797E4],"tree_param":{"num_deleted":"0","num_feature":"128","num_nodes":"21","size_leaf_vector":"1"}},{"base_weights":[6.8418877E-3,5.3942376E-1,-2.4467237E-1,5.640387E-1,2.8008574E-1,-6.364757E-1,4.2234418E-1,5.6720096E-1,7.5028114E-2,4.923192E-1,-6.488329E-1,-7.313441E-1,1.15278184E-1,-4.7993648E-1,5.208848E-1,2.839571E-2,1.8419456E-2,2.4411825E-2,-3.831056E-2,2.6234625E-2,-8.361715E-3,-1.6206097E-2,-5.092969E-2,4.331685E-3,-4.08571E-2,-4.2959955E-2,2.7079245E-2,-4.3616634E-2,1.5986783E-2,-1.4933678E-2,2.7396394E-2],"categories":[],"categories_nodes":[],"categories_segments":[],"categories_sizes":[],"default_left":[0,0,0,0,0,0,0,0,0,0,0,0,0,0,0,0,0,0,0,0,0,0,0,0,0,0,0,0,0,0,0],"id":26,"left_children":[1,3,5,7,9,11,13,15,17,19,21,23,25,27,29,-1,-1,-1,-1,-1,-1,-1,-1,-1,-1,-1,-1,-1,-1,-1,-1],"loss_changes":[2.8053475E4,4.278418E2,3.7175484E4,9.418945E1,1.1493433E3,6.3916406E3,4.680298E3,7.4941406E0,1.382264E2,1.0178967E2,1.28436E2,5.5852305E3,4.1715254E3,1.6269225E3,1.0521885E3,0E0,0E0,0E0,0E0,0E0,0E0,0E0,0E0,0E0,0E0,0E0,0E0,0E0,0E0,0E0,0E0],"parents":[2147483647,0,0,1,1,2,2,3,3,4,4,5,5,6,6,7,7,8,8,9,9,10,10,11,11,12,12,13,13,14,14],"right_children":[2,4,6,8,10,12,14,16,18,20,22,24,26,28,30,-1,-1,-1,-1,-1,-1,-1,-1,-1,-1,-1,-1,-1,-1,-1,-1],"split_conditions":[-5.2444994E-1,-4.8872638E-1,4.257453E-1,1.9163725E-1,-3.0962092E-1,8.4138644E-1,-1.7301625E-1,1.4501543E-1,-6.257218E-1,2.1415581E-1,-3.6431658E-1,-8.588934E-1,-1.16671726E-1,9.879127E-1,6.099513E-2,2.839571E-2,1.8419456E-2,2.4411825E-2,-3.831056E-2,2.6234625E-2,-8.361715E-3,-1.6206097E-2,-5.092969E-2,4.331685E-3,-4.08571E-2,-4.2959955E-2,2.7079245E-2,-4.3616634E-2,1.5986783E-2,-1.4933678E-2,2.7396394E-2],"split_indices":[13,9,13,7,7,7,7,7,9,9,9,7,9,9,9,0,0,0,0,0,0,0,0,0,0,0,0,0,0,0,0],"split_type":[0,0,0,0,0,0,0,0,0,0,0,0,0,0,0,0,0,0,0,0,0,0,0,0,0,0,0,0,0,0,0],"sum_hessian":[2.0942522E5,6.7178164E4,1.4224705E5,6.135013E4,5.828035E3,8.961125E4,5.26358E4,6.0953754E4,3.963747E2,4.7453857E3,1.0826493E3,7.957105E4,1.0040199E4,5.181128E3,4.745467E4,6.072901E4,2.247421E2,2.6688956E2,1.2948515E2,4.525003E3,2.2038274E2,5.788791E2,5.0377017E2,7.552786E3,7.201826E4,3.054555E3,6.9856445E3,3.4764207E3,1.7047072E3,1.5143444E3,4.594033E4],"tree_param":{"num_deleted":"0","num_feature":"128","num_nodes":"31","size_leaf_vector":"1"}},{"base_weights":[-5.109327E-3,-5.3454465E-1,3.9965713E-1,-5.3740144E-1,-1.914685E-1,-2.6605863E-2,8.0763084E-1,-2.6508724E-2,-5.424312E-1,-2.6069453E-2,1.13534145E-2,1.4775141E0,-2.6633346E-2,-2.781005E-2,-2.6516825E-2,2.371041E-2,-2.5570145E-2,7.4462615E-2,2.52976E-2],"categories":[],"categories_nodes":[],"categories_segments":[],"categories_sizes":[],"default_left":[0,0,0,0,0,0,0,0,0,0,0,0,0,0,0,0,0,0,0],"id":27,"left_children":[1,3,5,7,9,-1,11,-1,13,-1,15,17,-1,-1,-1,-1,-1,-1,-1],"loss_changes":[2.4479664E4,4.7677734E1,2.4609686E4,4.248047E-1,2.8164455E1,0E0,4.0426703E4,0E0,3.4169922E0,0E0,6.190116E1,3.39625E2,0E0,0E0,0E0,0E0,0E0,0E0,0E0],"parents":[2147483647,0,0,1,1,2,2,3,3,4,4,6,6,8,8,10,10,11,11],"right_children":[2,4,6,8,10,-1,12,-1,14,-1,16,18,-1,-1,-1,-1,-1,-1,-1],"split_conditions":[3.8966273E-3,-8.489047E-3,-3.003303E-1,-3.1329927E-1,-3.003303E-1,-2.6605863E-2,3.096559E-1,-2.6508724E-2,3.096559E-1,-2.6069453E-2,2.838924E-1,2.9669937E-1,-2.6633346E-2,-2.781005E-2,-2.6516825E-2,2.371041E-2,-2.5570145E-2,7.4462615E-2,2.52976E-2],"split_indices":[47,47,8,8,8,0,8,0,8,0,8,8,0,0,0,0,0,0,0],"split_type":[0,0,0,0,0,0,0,0,0,0,0,0,0,0,0,0,0,0,0],"sum_hessian":[1.1422944E5,4.9493715E4,6.4735723E4,4.9081527E4,4.1218762E2,1.9712174E4,4.5023547E4,2.0266596E4,2.881493E4,1.5820425E2,2.5398338E2,3.0020094E4,1.5003454E4,1.3414611E4,1.5400319E4,1.357736E2,1.1820978E2,2.9660184E4,3.5991028E2],"tree_param":{"num_deleted":"0","num_feature":"128","num_nodes":"19","size_leaf_vector":"1"}},{"base_weights":[-5.264566E-3,3.5755113E-1,-5.4155E-1,-2.6708141E-2,7.6242113E-1,-2.6625184E-2,-5.478288E-1,1.4811403E0,-5.149168E-1,-2.8249422E-2,-2.6644358E-2,7.0720136E-2,7.577841E-2,2.198526E-2,-2.6777694E-2],"categories":[],"categories_nodes":[],"categories_segments":[],"categories_sizes":[],"default_left":[0,0,0,0,0,0,0,0,0,0,0,0,0,0,0],"id":28,"left_children":[1,3,5,-1,7,-1,9,11,13,-1,-1,-1,-1,-1,-1],"loss_changes":[2.3696543E4,2.6226006E4,1.4189453E0,0E0,4.5866656E4,0E0,6.013672E0,6.838281E1,3.5472705E2,0E0,0E0,0E0,0E0,0E0,0E0],"parents":[2147483647,0,0,1,1,2,2,4,4,6,6,7,7,8,8],"right_children":[2,4,6,-1,8,-1,10,12,14,-1,-1,-1,-1,-1,-1],"split_conditions":[3.8966273E-3,-3.003303E-1,-3.003303E-1,-2.6708141E-2,2.9669937E-1,-2.6625184E-2,2.9669937E-1,-4.797043E-2,3.096559E-1,-2.8249422E-2,-2.6644358E-2,7.0720136E-2,7.577841E-2,2.198526E-2,-2.6777694E-2],"split_indices":[47,8,8,0,8,0,8,48,8,0,0,0,0,0,0],"split_type":[0,0,0,0,0,0,0,0,0,0,0,0,0,0,0],"sum_hessian":[1.2178463E5,7.263977E4,4.914486E4,2.268155E4,4.995822E4,2.0235516E4,2.8909344E4,3.1970191E4,1.798803E4,1.3407662E4,1.5501682E4,1.0904069E4,2.1066121E4,3.7918372E2,1.7608846E4],"tree_param":{"num_deleted":"0","num_feature":"128","num_nodes":"15","size_leaf_vector":"1"}},{"base_weights":[6.2772958E-3,5.3081095E-1,-2.3698296E-1,5.4607713E-1,3.140569E-3,-6.190208E-1,3.9921167E-1,5.60216E-1,1.950857E-1,4.3337622E-1,-9.251474E-1,-7.0121026E-1,8.385372E-2,-4.4373506E-1,5.1600116E-1,2.8201506E-2,2.09699E-2,2.2273546E-2,-4.464343E-2,2.5144858E-2,-6.1619594E-3,-2.690022E-2,-5.2748073E-2,-3.0981516E-3,-3.9977428E-2,-4.1279607E-2,2.6756912E-2,-3.8720857E-2,1.973107E-2,-1.5723076E-2,2.7255744E-2],"categories":[],"categories_nodes":[],"categories_segments":[],"categories_sizes":[],"default_left":[0,0,0,0,0,0,0,0,0,0,0,0,0,0,0,0,0,0,0,0,0,0,0,0,0,0,0,0,0,0,0],"id":29,"left_children":[1,3,5,7,9,11,13,15,17,19,21,23,25,27,29,-1,-1,-1,-1,-1,-1,-1,-1,-1,-1,-1,-1,-1,-1,-1,-1],"loss_changes":[2.6331018E4,5.261289E2,3.4264574E4,3.1446484E2,7.352636E2,5.0891445E3,5.2074893E3,3.1585938E1,6.7136884E2,4.918132E1,2.7123322E1,4.9566055E3,3.7846926E3,1.7849392E3,1.1236602E3,0E0,0E0,0E0,0E0,0E0,0E0,0E0,0E0,0E0,0E0,0E0,0E0,0E0,0E0,0E0,0E0],"parents":[2147483647,0,0,1,1,2,2,3,3,4,4,5,5,6,6,7,7,8,8,9,9,10,10,11,11,12,12,13,13,14,14],"right_children":[2,4,6,8,10,12,14,16,18,20,22,24,26,28,30,-1,-1,-1,-1,-1,-1,-1,-1,-1,-1,-1,-1,-1,-1,-1,-1],"split_conditions":[-5.132445E-1,4.92714E-2,3.9811775E-1,-3.0191877E-1,-5.3877056E-1,8.4138644E-1,-1.100751E-1,-4.1661277E-1,-4.7325882E-1,2.849758E-1,-4.8872638E-1,-7.411551E-1,-1.16671726E-1,1.0371059E0,3.8363498E-2,2.8201506E-2,2.09699E-2,2.2273546E-2,-4.464343E-2,2.5144858E-2,-6.1619594E-3,-2.690022E-2,-5.2748073E-2,-3.0981516E-3,-3.9977428E-2,-4.1279607E-2,2.6756912E-2,-3.8720857E-2,1.973107E-2,-1.5723076E-2,2.7255744E-2],"split_indices":[13,7,13,9,9,7,7,9,7,7,9,7,9,9,9,0,0,0,0,0,0,0,0,0,0,0,0,0,0,0,0],"split_type":[0,0,0,0,0,0,0,0,0,0,0,0,0,0,0,0,0,0,0,0,0,0,0,0,0,0,0,0,0,0,0],"sum_hessian":[2.0635456E5,6.5380273E4,1.409743E5,6.3540047E4,1.8402281E3,8.808215E4,5.2892145E4,6.107629E4,2.4637563E3,1.2585402E3,5.816879E2,7.886198E4,9.220169E3,6.435018E3,4.6457125E4,5.945581E4,1.6204827E3,2.0040481E3,4.5970828E2,1.1204854E3,1.3805486E2,1.4929501E2,4.3239294E2,1.051581E4,6.834617E4,3.0568477E3,6.163322E3,4.615676E3,1.8193424E3,1.5720001E3,4.4885125E4],"tree_param":{"num_deleted":"0","num_feature":"128","num_nodes":"31","size_leaf_vector":"1"}},{"base_weights":[-3.925267E-3,-5.3298235E-1,3.8737297E-1,-5.3610545E-1,-1.6897677E-1,-2.6552115E-2,7.696559E-1,-2.6431978E-2,-5.408237E-1,-2.597338E-2,2.7679613E-2,1.3762865E0,-2.6575511E-2,-2.7651919E-2,-2.645721E-2,2.2800464E-2,-2.586574E-2,6.934448E-2,2.460594E-2],"categories":[],"categories_nodes":[],"categories_segments":[],"categories_sizes":[],"default_left":[0,0,0,0,0,0,0,0,0,0,0,0,0,0,0,0,0,0,0],"id":30,"left_children":[1,3,5,7,9,-1,11,-1,13,-1,15,17,-1,-1,-1,-1,-1,-1,-1],"loss_changes":[2.326565E4,5.352246E1,2.2681836E4,3.154297E-1,2.8811403E1,0E0,3.6007383E4,0E0,2.7480469E0,0E0,6.137755E1,2.891172E2,0E0,0E0,0E0,0E0,0E0,0E0,0E0],"parents":[2147483647,0,0,1,1,2,2,3,3,4,4,6,6,8,8,10,10,11,11],"right_children":[2,4,6,8,10,-1,12,-1,14,-1,16,18,-1,-1,-1,-1,-1,-1,-1],"split_conditions":[3.8966273E-3,-8.489047E-3,-3.003303E-1,-3.7794954E-1,-3.003303E-1,-2.6552115E-2,3.096559E-1,-2.6431978E-2,3.096559E-1,-2.597338E-2,2.9669937E-1,2.9669937E-1,-2.6575511E-2,-2.7651919E-2,-2.645721E-2,2.2800464E-2,-2.586574E-2,6.934448E-2,2.460594E-2],"split_indices":[47,47,8,8,8,0,8,0,8,0,8,8,0,0,0,0,0,0,0],"split_type":[0,0,0,0,0,0,0,0,0,0,0,0,0,0,0,0,0,0,0],"sum_hessian":[1.1238138E5,4.7780996E4,6.4600383E4,4.737134E4,4.0965967E2,1.8985553E4,4.561483E4,1.8470244E4,2.8901094E4,1.4847809E2,2.6118155E2,3.1110965E4,1.4503865E4,1.4062422E4,1.4838671E4,1.473625E2,1.1381905E2,3.0740617E4,3.703481E2],"tree_param":{"num_deleted":"0","num_feature":"128","num_nodes":"19","size_leaf_vector":"1"}},{"base_weights":[-6.296661E-3,3.4584185E-1,-5.4008174E-1,-4.8227546E-1,6.184729E-1,-2.6509574E-2,-5.451122E-1,-5.0566626E-1,6.673414E-2,9.447241E-1,-3.3113167E-1,-2.7717033E-2,-2.6666943E-2,-2.6241938E-2,-1.1029995E-2,-1.6426366E-2,5.5544723E-2,5.1082265E-2,7.049759E-4,3.0237807E-2,-2.3997575E-2],"categories":[],"categories_nodes":[],"categories_segments":[],"categories_sizes":[],"default_left":[0,0,0,0,0,0,0,0,0,0,0,0,0,0,0,0,0,0,0,0,0],"id":31,"left_children":[1,3,5,7,9,-1,11,13,15,17,19,-1,-1,-1,-1,-1,-1,-1,-1,-1,-1],"loss_changes":[2.2518107E4,1.6296351E4,1.0039062E0,2.3004297E2,1.682461E4,0E0,2.0351562E0,9.286035E1,3.0229068E2,2.892289E3,1.9341809E3,0E0,0E0,0E0,0E0,0E0,0E0,0E0,0E0,0E0,0E0],"parents":[2147483647,0,0,1,1,2,2,3,3,4,4,6,6,7,7,8,8,9,9,10,10],"right_children":[2,4,6,8,10,-1,12,14,16,18,20,-1,-1,-1,-1,-1,-1,-1,-1,-1,-1],"split_conditions":[3.8966273E-3,-5.356435E-1,-5.2444994E-1,-3.0368574E-2,4.976676E-1,-2.6509574E-2,3.320366E-1,-1.9073352E-1,-5.726777E-1,8.8197446E-1,-7.836829E-2,-2.7717033E-2,-2.6666943E-2,-2.6241938E-2,-1.1029995E-2,-1.6426366E-2,5.5544723E-2,5.1082265E-2,7.049759E-4,3.0237807E-2,-2.3997575E-2],"split_indices":[47,13,13,7,13,0,13,10,11,7,7,0,0,0,0,0,0,0,0,0,0],"split_type":[0,0,0,0,0,0,0,0,0,0,0,0,0,0,0,0,0,0,0,0,0],"sum_hessian":[1.1979562E5,7.2178125E4,4.7617496E4,1.7875826E4,5.4302297E4,1.6156921E4,3.1460576E4,1.7147164E4,7.286619E2,4.0417355E4,1.3884943E4,1.7562951E4,1.3897625E4,1.6062511E4,1.0846533E3,5.2837573E2,2.0028621E2,3.73306E4,3.0867534E3,1.9036455E3,1.1981298E4],"tree_param":{"num_deleted":"0","num_feature":"128","num_nodes":"21","size_leaf_vector":"1"}},{"base_weights":[5.920358E-3,5.311442E-1,-2.2662419E-1,5.5593807E-1,2.646912E-1,-5.735595E-1,4.1113168E-1,5.603972E-1,9.137078E-2,4.7278175E-1,-6.420103E-1,-6.502172E-1,1.6408525E-1,-3.937061E-1,5.1659906E-1,2.8045876E-2,1.9084536E-2,2.2462165E-2,-3.9770033E-2,2.5735855E-2,-7.589155E-3,-1.4957701E-2,-4.5193225E-2,1.227026E-2,-3.5575904E-2,-4.055919E-2,2.5896763E-2,-3.99308E-2,1.211034E-2,-1.4946656E-2,2.7123122E-2],"categories":[],"categories_nodes":[],"categories_segments":[],"categories_sizes":[],"default_left":[0,0,0,0,0,0,0,0,0,0,0,0,0,0,0,0,0,0,0,0,0,0,0,0,0,0,0,0,0,0,0],"id":32,"left_children":[1,3,5,7,9,11,13,15,17,19,21,23,25,27,29,-1,-1,-1,-1,-1,-1,-1,-1,-1,-1,-1,-1,-1,-1,-1,-1],"loss_changes":[2.4704953E4,4.0911523E2,3.1019914E4,1.1693164E2,9.981675E2,5.1350664E3,4.193117E3,4.0742188E0,1.7239632E2,1.1316229E2,8.7129974E1,4.5166367E3,2.9498738E3,1.4741595E3,9.215752E2,0E0,0E0,0E0,0E0,0E0,0E0,0E0,0E0,0E0,0E0,0E0,0E0,0E0,0E0,0E0,0E0],"parents":[2147483647,0,0,1,1,2,2,3,3,4,4,5,5,6,6,7,7,8,8,9,9,10,10,11,11,12,12,13,13,14,14],"right_children":[2,4,6,8,10,12,14,16,18,20,22,24,26,28,30,-1,-1,-1,-1,-1,-1,-1,-1,-1,-1,-1,-1,-1,-1,-1,-1],"split_conditions":[-5.2444994E-1,-4.7855487E-1,4.257453E-1,1.6083021E-1,-2.944923E-1,8.683951E-1,-1.2605621E-1,1.290173E-1,-5.972089E-1,1.7719345E-1,-6.2175903E-2,-9.438274E-1,-1.4993416E-1,8.9603704E-1,3.8363498E-2,2.8045876E-2,1.9084536E-2,2.2462165E-2,-3.9770033E-2,2.5735855E-2,-7.589155E-3,-1.4957701E-2,-4.5193225E-2,1.227026E-2,-3.5575904E-2,-4.055919E-2,2.5896763E-2,-3.99308E-2,1.211034E-2,-1.4946656E-2,2.7123122E-2],"split_indices":[13,9,13,7,7,7,7,7,9,9,7,7,9,9,9,0,0,0,0,0,0,0,0,0,0,0,0,0,0,0,0],"split_type":[0,0,0,0,0,0,0,0,0,0,0,0,0,0,0,0,0,0,0,0,0,0,0,0,0,0,0,0,0,0,0],"sum_hessian":[2.0226644E5,6.207261E4,1.4019384E5,5.678394E4,5.288667E3,9.0800555E4,4.9393285E4,5.6241742E4,5.422001E2,4.3027544E3,9.859127E2,8.2254016E4,8.54654E3,5.721259E3,4.3672023E4,5.6070766E4,1.7097491E2,3.8745624E2,1.5474382E2,4.0336956E3,2.690588E2,4.295054E2,5.5640735E2,5.267986E3,7.698603E4,2.2742402E3,6.2723E3,3.4963298E3,2.2249292E3,1.3409062E3,4.2331117E4],"tree_param":{"num_deleted":"0","num_feature":"128","num_nodes":"31","size_leaf_vector":"1"}},{"base_weights":[-5.1009506E-3,-4.9900237E-1,1.797219E-1,-5.2065545E-1,-2.2603606E-1,4.1639453E-1,-3.9505225E-1,-5.2496684E-1,-1.1477938E-1,-4.7057408E-1,4.809589E-1,4.753701E-1,-1.8357109E-1,2.5988477E-1,-4.8997542E-1,-2.629434E-2,-2.0832432E-2,-2.2768186E-2,3.283116E-2,-2.4743475E-2,2.3505447E-2,8.095751E-3,3.6203213E-2,-1.5760368E-2,2.5670353E-2,2.7871331E-2,-2.5553668E-2,2.5866631E-2,-1.8661281E-2,1.3659867E-2,-2.5618399E-2],"categories":[],"categories_nodes":[],"categories_segments":[],"categories_sizes":[],"default_left":[0,0,0,0,0,0,0,0,0,0,0,0,0,0,0,0,0,0,0,0,0,0,0,0,0,0,0,0,0,0,0],"id":33,"left_children":[1,3,5,7,9,11,13,15,17,19,21,23,25,27,29,-1,-1,-1,-1,-1,-1,-1,-1,-1,-1,-1,-1,-1,-1,-1,-1],"loss_changes":[1.0068222E4,1.7665918E2,1.091779E4,4.7987793E1,3.827426E2,2.0119307E3,1.4555769E3,1.5820312E0,7.790827E1,3.786447E1,4.3056442E1,1.55696E3,1.2348245E3,4.8319318E2,3.4979053E2,0E0,0E0,0E0,0E0,0E0,0E0,0E0,0E0,0E0,0E0,0E0,0E0,0E0,0E0,0E0,0E0],"parents":[2147483647,0,0,1,1,2,2,3,3,4,4,5,5,6,6,7,7,8,8,9,9,10,10,11,11,12,12,13,13,14,14],"right_children":[2,4,6,8,10,12,14,16,18,20,22,24,26,28,30,-1,-1,-1,-1,-1,-1,-1,-1,-1,-1,-1,-1,-1,-1,-1,-1],"split_conditions":[-5.356435E-1,-4.4790846E-1,4.679503E-1,1.4501543E-1,-4.5904216E-1,8.683951E-1,-1.100751E-1,6.529681E-2,-5.7782453E-1,4.409358E-1,-1.4183505E-1,-9.8282164E-1,-1.2652485E-1,1.0371059E0,4.963733E-2,-2.629434E-2,-2.0832432E-2,-2.2768186E-2,3.283116E-2,-2.4743475E-2,2.3505447E-2,8.095751E-3,3.6203213E-2,-1.5760368E-2,2.5670353E-2,2.7871331E-2,-2.5553668E-2,2.5866631E-2,-1.8661281E-2,1.3659867E-2,-2.5618399E-2],"split_indices":[13,9,13,7,7,7,7,7,9,9,7,7,9,9,9,0,0,0,0,0,0,0,0,0,0,0,0,0,0,0,0],"split_type":[0,0,0,0,0,0,0,0,0,0,0,0,0,0,0,0,0,0,0,0,0,0,0,0,0,0,0,0,0,0,0],"sum_hessian":[1.1028978E5,3.0033932E4,8.025585E4,2.7822352E4,2.2115798E3,5.6849258E4,2.3406592E4,2.7527188E4,2.9516428E2,1.644517E3,5.6706274E2,5.1762926E4,5.086333E3,2.9614358E3,2.0445156E4,2.7282396E4,2.4479008E2,2.0594354E2,8.922074E1,1.604611E3,3.990596E1,2.477296E2,3.193332E2,2.3745962E3,4.938833E4,1.5578435E3,3.5284895E3,2.1065793E3,8.5485645E2,5.811969E2,1.9863959E4],"tree_param":{"num_deleted":"0","num_feature":"128","num_nodes":"31","size_leaf_vector":"1"}},{"base_weights":[-4.372475E-3,-2.657482E-2,2.6714173E-1,7.990056E-1,-5.203526E-1,9.329024E-1,-1.5010154E-1,4.6474632E-2,-2.6611933E-2,6.2485766E-2,4.0416025E-2,-2.2896806E-2,3.8344022E-2,6.9011636E-3,-2.11144E-2],"categories":[],"categories_nodes":[],"categories_segments":[],"categories_sizes":[],"default_left":[0,0,0,0,0,0,0,0,0,0,0,0,0,0,0],"id":34,"left_children":[1,-1,3,5,7,9,11,13,-1,-1,-1,-1,-1,-1,-1],"loss_changes":[1.6902898E4,0E0,3.2648402E4,5.913625E3,2.1221582E2,1.606293E3,1.6237727E3,2.7435537E1,0E0,0E0,0E0,0E0,0E0,0E0,0E0],"parents":[2147483647,0,0,2,2,3,3,4,4,5,5,6,6,7,7],"right_children":[2,-1,4,6,8,10,12,14,-1,-1,-1,-1,-1,-1,-1],"split_conditions":[-3.003303E-1,-2.657482E-2,2.9669937E-1,1.54894E0,3.096559E-1,-4.797043E-2,3.1458502E0,1.54894E0,-2.6611933E-2,6.2485766E-2,4.0416025E-2,-2.2896806E-2,3.8344022E-2,6.9011636E-3,-2.11144E-2],"split_indices":[8,0,8,48,8,48,48,48,0,0,0,0,0,0,0],"split_type":[0,0,0,0,0,0,0,0,0,0,0,0,0,0,0],"sum_hessian":[1.1809777E5,4.0150805E4,7.794697E4,4.652549E4,3.142148E4,4.0774266E4,5.7512236E3,6.4357153E2,3.0777908E4,1.1503559E4,2.9270705E4,4.306953E3,1.4442704E3,5.4079407E2,1.0277744E2],"tree_param":{"num_deleted":"0","num_feature":"128","num_nodes":"15","size_leaf_vector":"1"}},{"base_weights":[5.7708467E-3,5.6425875E-1,-3.1833515E-1,2.7929848E-2,2.9409831E-2,-1.0334386E0,5.530623E-1,-1.023364E0,-1.0728636E0,-6.051714E-2,5.652976E-1,-5.1970568E-2,-5.0298955E-2,-5.2926112E-2,-5.5193882E-2,-1.0582415E-2,-1.2759252E-3,2.9230922E-2,2.8066108E-2],"categories":[],"categories_nodes":[],"categories_segments":[],"categories_sizes":[],"default_left":[0,0,0,0,0,0,0,0,0,0,0,0,0,0,0,0,0,0,0],"id":35,"left_children":[1,3,5,-1,-1,7,9,11,13,15,17,-1,-1,-1,-1,-1,-1,-1,-1],"loss_changes":[3.58952E4,8.394531E0,7.8193836E4,0E0,0E0,2.41875E1,4.2515234E2,1.2238281E1,2.8896484E0,5.602771E0,2.7832031E0,0E0,0E0,0E0,0E0,0E0,0E0,0E0,0E0],"parents":[2147483647,0,0,1,1,2,2,5,5,6,6,7,7,8,8,9,9,10,10],"right_children":[2,4,6,-1,-1,8,10,12,14,16,18,-1,-1,-1,-1,-1,-1,-1,-1],"split_conditions":[-3.003303E-1,-5.132445E-1,2.9669937E-1,2.7929848E-2,2.9409831E-2,1.7062981E-1,3.096559E-1,3.8966273E-3,4.257453E-1,-1.0889837E0,3.4528452E-1,-5.1970568E-2,-5.0298955E-2,-5.2926112E-2,-5.5193882E-2,-1.0582415E-2,-1.2759252E-3,2.9230922E-2,2.8066108E-2],"split_indices":[8,13,8,0,0,13,8,47,13,46,13,0,0,0,0,0,0,0,0],"split_type":[0,0,0,0,0,0,0,0,0,0,0,0,0,0,0,0,0,0,0],"sum_hessian":[1.983025E5,7.282148E4,1.2548103E5,5.894571E4,1.3875766E4,6.892192E4,5.6559105E4,5.493599E4,1.3985932E4,1.1041075E3,5.5455E4,2.8506557E4,2.6429432E4,9.609669E3,4.3762627E3,2.0128754E2,9.0282E2,9.395412E3,4.6059586E4],"tree_param":{"num_deleted":"0","num_feature":"128","num_nodes":"19","size_leaf_vector":"1"}},{"base_weights":[-5.762828E-3,-5.318689E-1,3.7056375E-1,-5.3507656E-1,-1.6597578E-1,-4.7538772E-1,6.071634E-1,-2.6267221E-2,-5.3982705E-1,-4.760329E-1,-2.1415254E-2,-5.005937E-1,6.848053E-2,8.3947426E-1,-3.8604304E-1,-2.7403215E-2,-2.6404604E-2,-2.5267793E-2,-0E0,7.5311377E-3,-2.0063525E-2,-2.6104165E-2,-1.0576187E-2,-2.0317653E-2,5.0308127E-2,4.560476E-2,-7.4797594E-3,2.3560496E-2,-2.3973733E-2],"categories":[],"categories_nodes":[],"categories_segments":[],"categories_sizes":[],"default_left":[0,0,0,0,0,0,0,0,0,0,0,0,0,0,0,0,0,0,0,0,0,0,0,0,0,0,0,0,0],"id":36,"left_children":[1,3,5,7,9,11,13,-1,15,17,19,21,23,25,27,-1,-1,-1,-1,-1,-1,-1,-1,-1,-1,-1,-1,-1,-1],"loss_changes":[2.1452729E4,5.224414E1,1.2643467E4,7.207031E-1,1.7279694E1,1.8971997E2,1.1390416E4,0E0,1.5332031E0,1.8420753E0,1.82104E1,8.112744E1,2.728743E2,2.8744707E3,7.4969324E2,0E0,0E0,0E0,0E0,0E0,0E0,0E0,0E0,0E0,0E0,0E0,0E0,0E0,0E0],"parents":[2147483647,0,0,1,1,2,2,3,3,4,4,5,5,6,6,8,8,9,9,10,10,11,11,12,12,13,13,14,14],"right_children":[2,4,6,8,10,12,14,-1,16,18,20,22,24,26,28,-1,-1,-1,-1,-1,-1,-1,-1,-1,-1,-1,-1,-1,-1],"split_conditions":[3.8966273E-3,-8.489047E-3,-5.467788E-1,-5.2444994E-1,-4.5719874E-1,-4.661588E-2,6.0616356E-1,-2.6267221E-2,3.5811788E-1,1.7247854E-2,4.5354348E-1,-3.5876462E-1,-5.8840996E-1,9.228724E-1,-1.7301625E-1,-2.7403215E-2,-2.6404604E-2,-2.5267793E-2,-0E0,7.5311377E-3,-2.0063525E-2,-2.6104165E-2,-1.0576187E-2,-2.0317653E-2,5.0308127E-2,4.560476E-2,-7.4797594E-3,2.3560496E-2,-2.3973733E-2],"split_indices":[47,47,13,13,13,7,13,0,13,7,13,12,12,7,7,0,0,0,0,0,0,0,0,0,0,0,0,0,0],"split_type":[0,0,0,0,0,0,0,0,0,0,0,0,0,0,0,0,0,0,0,0,0,0,0,0,0,0,0,0,0],"sum_hessian":[1.0835104E5,4.5184777E4,6.3166258E4,4.4788934E4,3.9584375E2,1.3804316E4,4.936194E4,1.4797023E4,2.9991912E4,1.2294267E2,2.729011E2,1.3194716E4,6.096007E2,4.0005766E4,9.356179E3,1.7545234E4,1.2446678E4,1.16189545E2,6.753125E0,1.8643486E2,8.6466225E1,1.2277721E4,9.16995E2,4.043445E2,2.0525618E2,3.7270336E4,2.7354302E3,9.1805975E2,8.438119E3],"tree_param":{"num_deleted":"0","num_feature":"128","num_nodes":"29","size_leaf_vector":"1"}},{"base_weights":[-4.9116444E-3,-2.6493946E-2,2.551012E-1,7.4514484E-1,-5.182609E-1,8.694134E-1,-1.5471125E-1,4.5647744E-2,-2.6529178E-2,5.8759194E-2,3.7518993E-2,-2.2764003E-2,3.5338763E-2,6.702823E-3,-2.0513711E-2],"categories":[],"categories_nodes":[],"categories_segments":[],"categories_sizes":[],"default_left":[0,0,0,0,0,0,0,0,0,0,0,0,0,0,0],"id":37,"left_children":[1,-1,3,5,7,9,11,13,-1,-1,-1,-1,-1,-1,-1],"loss_changes":[1.5813682E4,0E0,2.9362404E4,5.3041953E3,2.0932666E2,1.5139414E3,1.4901414E3,2.5648788E1,0E0,0E0,0E0,0E0,0E0,0E0,0E0],"parents":[2147483647,0,0,2,2,3,3,4,4,5,5,6,6,7,7],"right_children":[2,-1,4,6,8,10,12,14,-1,-1,-1,-1,-1,-1,-1],"split_conditions":[-3.003303E-1,-2.6493946E-2,2.9669937E-1,1.54894E0,3.096559E-1,-4.797043E-2,3.1458502E0,1.54894E0,-2.6529178E-2,5.8759194E-2,3.7518993E-2,-2.2764003E-2,3.5338763E-2,6.702823E-3,-2.0513711E-2],"split_indices":[8,0,8,48,8,48,48,48,0,0,0,0,0,0,0],"split_type":[0,0,0,0,0,0,0,0,0,0,0,0,0,0,0],"sum_hessian":[1.1584863E5,3.8374047E4,7.7474586E4,4.7424938E4,3.004965E4,4.1671344E4,5.7535923E3,6.408166E2,2.9408834E4,1.1671805E4,2.999954E4,4.2666196E3,1.4869725E3,5.391653E2,1.01651276E2],"tree_param":{"num_deleted":"0","num_feature":"128","num_nodes":"15","size_leaf_vector":"1"}},{"base_weights":[5.1497873E-3,5.13162E-1,-2.159479E-1,5.3308004E-1,-4.42261E-2,-5.4394984E-1,3.8384154E-1,5.5237645E-1,2.2294818E-1,4.2896128E-1,-7.6476914E-1,-6.149841E-1,5.524378E-2,-3.4433377E-1,5.090954E-1,2.7704597E-2,2.0692153E-2,2.4025913E-2,-2.9574564E-2,2.5505746E-2,-5.257579E-4,-1.9035988E-2,-4.5238923E-2,-3.4147054E-3,-3.4980405E-2,-3.5674673E-2,2.618587E-2,-3.156027E-2,2.0323848E-2,-8.898596E-3,2.7117943E-2],"categories":[],"categories_nodes":[],"categories_segments":[],"categories_sizes":[],"default_left":[0,0,0,0,0,0,0,0,0,0,0,0,0,0,0,0,0,0,0,0,0,0,0,0,0,0,0,0,0,0,0],"id":38,"left_children":[1,3,5,7,9,11,13,15,17,19,21,23,25,27,29,-1,-1,-1,-1,-1,-1,-1,-1,-1,-1,-1,-1,-1,-1,-1,-1],"loss_changes":[2.1730123E4,6.518428E2,2.6518928E4,3.3809375E2,6.905194E2,3.70967E3,4.3466753E3,1.1474609E1,6.972013E2,4.4055374E1,4.156006E1,3.603463E3,3.3261033E3,1.5067487E3,9.297461E2,0E0,0E0,0E0,0E0,0E0,0E0,0E0,0E0,0E0,0E0,0E0,0E0,0E0,0E0,0E0,0E0],"parents":[2147483647,0,0,1,1,2,2,3,3,4,4,5,5,6,6,7,7,8,8,9,9,10,10,11,11,12,12,13,13,14,14],"right_children":[2,4,6,8,10,12,14,16,18,20,22,24,26,28,30,-1,-1,-1,-1,-1,-1,-1,-1,-1,-1,-1,-1,-1,-1,-1,-1],"split_conditions":[-5.0251853E-1,4.92714E-2,3.9811775E-1,-3.750126E-1,-5.585129E-1,8.2737464E-1,-4.661588E-2,-4.1661277E-1,-5.441295E-1,2.6965544E-1,-4.987849E-1,-7.2880536E-1,-1.0524248E-1,1.0371059E0,8.333027E-2,2.7704597E-2,2.0692153E-2,2.4025913E-2,-2.9574564E-2,2.5505746E-2,-5.257579E-4,-1.9035988E-2,-4.5238923E-2,-3.4147054E-3,-3.4980405E-2,-3.5674673E-2,2.618587E-2,-3.156027E-2,2.0323848E-2,-8.898596E-3,2.7117943E-2],"split_indices":[13,7,13,9,9,7,7,9,7,7,9,7,9,9,9,0,0,0,0,0,0,0,0,0,0,0,0,0,0,0,0],"split_type":[0,0,0,0,0,0,0,0,0,0,0,0,0,0,0,0,0,0,0,0,0,0,0,0,0,0,0,0,0,0,0],"sum_hessian":[1.93461E5,5.8666715E4,1.3479428E5,5.6644395E4,2.0223223E3,8.714162E4,4.7652664E4,5.3322656E4,3.3217378E3,1.2200928E3,8.0222955E2,7.790736E4,9.234251E3,6.9923315E3,4.0660332E4,5.2660332E4,6.623254E2,2.5248733E3,7.968645E2,1.0316948E3,1.8839789E2,2.1722816E2,5.850014E2,1.0444858E4,6.746251E4,3.4955706E3,5.7386797E3,5.0603516E3,1.93198E3,1.8760269E3,3.8784305E4],"tree_param":{"num_deleted":"0","num_feature":"128","num_nodes":"31","size_leaf_vector":"1"}},{"base_weights":[-3.9109206E-3,-4.943411E-1,1.6656283E-1,-5.1076126E-1,-1.4028484E-1,3.6973667E-1,-4.0095595E-1,-5.2224475E-1,-3.5572046E-1,-4.3352032E-1,5.3522056E-1,4.2061767E-1,-2.3079568E-1,1.6287105E-1,-4.9325198E-1,-2.6171556E-2,-2.3530478E-2,-2.402853E-2,2.2374492E-2,-2.3665234E-2,2.1291317E-3,7.4275257E-3,3.3762287E-2,-1.5706906E-2,2.2687398E-2,2.5893843E-2,-2.50198E-2,1.7162198E-2,-2.2490498E-2,6.6825557E-3,-2.5602898E-2],"categories":[],"categories_nodes":[],"categories_segments":[],"categories_sizes":[],"default_left":[0,0,0,0,0,0,0,0,0,0,0,0,0,0,0,0,0,0,0,0,0,0,0,0,0,0,0,0,0,0,0],"id":39,"left_children":[1,3,5,7,9,11,13,15,17,19,21,23,25,27,29,-1,-1,-1,-1,-1,-1,-1,-1,-1,-1,-1,-1,-1,-1,-1,-1],"loss_changes":[8.925803E3,1.5937646E2,9.134416E3,4.5787598E1,2.427074E2,1.7827969E3,1.0871514E3,2.602539E-1,1.8314165E2,1.66557E1,1.9114815E1,1.3094736E3,9.1977295E2,3.2460126E2,2.1203711E2,0E0,0E0,0E0,0E0,0E0,0E0,0E0,0E0,0E0,0E0,0E0,0E0,0E0,0E0,0E0,0E0],"parents":[2147483647,0,0,1,1,2,2,3,3,4,4,5,5,6,6,7,7,8,8,9,9,10,10,11,11,12,12,13,13,14,14],"right_children":[2,4,6,8,10,12,14,16,18,20,22,24,26,28,30,-1,-1,-1,-1,-1,-1,-1,-1,-1,-1,-1,-1,-1,-1,-1,-1],"split_conditions":[-5.356435E-1,-4.661588E-2,4.976676E-1,-3.5876462E-1,-5.8840996E-1,8.954581E-1,-4.661588E-2,-1.4183505E-1,-5.441295E-1,2.6965544E-1,-5.327854E-1,-9.8282164E-1,-2.679487E-1,1.3824356E0,-2.006182E-1,-2.6171556E-2,-2.3530478E-2,-2.402853E-2,2.2374492E-2,-2.3665234E-2,2.1291317E-3,7.4275257E-3,3.3762287E-2,-1.5706906E-2,2.2687398E-2,2.5893843E-2,-2.50198E-2,1.7162198E-2,-2.2490498E-2,6.6825557E-3,-2.5602898E-2],"split_indices":[13,7,13,12,12,7,7,7,7,7,12,7,12,12,10,0,0,0,0,0,0,0,0,0,0,0,0,0,0,0,0],"split_type":[0,0,0,0,0,0,0,0,0,0,0,0,0,0,0,0,0,0,0,0,0,0,0,0,0,0,0,0,0,0,0],"sum_hessian":[1.0675508E5,2.7537457E4,7.921762E4,2.6313828E4,1.2236285E3,5.833543E4,2.088219E4,2.4491018E4,1.8228113E3,8.5452124E2,3.691073E2,5.378074E4,4.55469E3,2.9358413E3,1.7946348E4,2.3913096E4,5.779216E2,1.5790172E3,2.4379408E2,7.9056586E2,6.395539E1,1.0057596E2,2.6853134E2,2.3186917E3,5.1462047E4,1.2046844E3,3.3500051E3,2.2697114E3,6.6612976E2,5.209523E2,1.7425396E4],"tree_param":{"num_deleted":"0","num_feature":"128","num_nodes":"31","size_leaf_vector":"1"}},{"base_weights":[-4.441265E-3,3.285769E-1,-5.389006E-1,-2.649854E-2,6.626382E-1,-2.6363555E-2,-5.4627484E-1,1.180066E0,-2.6554538E-2,-2.8199518E-2,-2.6372204E-2,5.952943E-2,1.6521765E-2],"categories":[],"categories_nodes":[],"categories_segments":[],"categories_sizes":[],"default_left":[0,0,0,0,0,0,0,0,0,0,0,0,0],"id":40,"left_children":[1,3,5,-1,7,-1,9,11,-1,-1,-1,-1,-1],"loss_changes":[2.0292521E4,2.0146484E4,2.3925781E0,0E0,3.1235525E4,0E0,7.5195312E0,3.1348438E2,0E0,0E0,0E0,0E0,0E0],"parents":[2147483647,0,0,1,1,2,2,4,4,6,6,7,7],"right_children":[2,4,6,-1,8,-1,10,12,-1,-1,-1,-1,-1],"split_conditions":[3.8966273E-3,-3.003303E-1,-3.1329927E-1,-2.649854E-2,3.096559E-1,-2.6363555E-2,3.096559E-1,2.9669937E-1,-2.6554538E-2,-2.8199518E-2,-2.6372204E-2,5.952943E-2,1.6521765E-2],"split_indices":[47,8,8,0,8,0,8,8,0,0,0,0,0],"split_type":[0,0,0,0,0,0,0,0,0,0,0,0,0],"sum_hessian":[1.1400957E5,7.024123E4,4.376834E4,1.9674244E4,5.0566984E4,1.7064613E4,2.6703727E4,3.527689E4,1.5290096E4,1.3717031E4,1.2986695E4,3.4843773E4,4.3311618E2],"tree_param":{"num_deleted":"0","num_feature":"128","num_nodes":"13","size_leaf_vector":"1"}},{"base_weights":[4.9698204E-3,5.59498E-1,-3.0456135E-1,2.769371E-2,2.8984785E-2,-9.589435E-1,5.469572E-1,-1.0206084E0,-9.55301E-1,-5.101697E-2,5.603385E-1,-5.1041562E-2,-0E0,-4.761497E-2,-5.0178766E-2,-9.892653E-3,-1.0247764E-3,2.8955644E-2,2.7754469E-2],"categories":[],"categories_nodes":[],"categories_segments":[],"categories_sizes":[],"default_left":[0,0,0,0,0,0,0,0,0,0,0,0,0,0,0,0,0,0,0],"id":41,"left_children":[1,3,5,-1,-1,7,9,11,13,15,17,-1,-1,-1,-1,-1,-1,-1,-1],"loss_changes":[3.2484064E4,6.2460938E0,6.767784E4,0E0,0E0,1.246875E1,4.2284766E2,1.8774414E-1,6.4921875E0,4.951541E0,3.631836E0,0E0,0E0,0E0,0E0,0E0,0E0,0E0,0E0],"parents":[2147483647,0,0,1,1,2,2,5,5,6,6,7,7,8,8,9,9,10,10],"right_children":[2,4,6,-1,-1,8,10,12,14,16,18,-1,-1,-1,-1,-1,-1,-1,-1],"split_conditions":[-3.003303E-1,-5.63981E-1,2.9669937E-1,2.769371E-2,2.8984785E-2,-7.7744144E-1,3.096559E-1,9.365431E-1,1.2001278E0,-1.2129176E0,5.1802707E-1,-5.1041562E-2,-0E0,-4.761497E-2,-5.0178766E-2,-9.892653E-3,-1.0247764E-3,2.8955644E-2,2.7754469E-2],"split_indices":[8,8,8,0,0,7,8,5,14,46,8,0,0,0,0,0,0,0,0],"split_type":[0,0,0,0,0,0,0,0,0,0,0,0,0,0,0,0,0,0,0],"sum_hessian":[1.8924933E5,6.779548E4,1.2145385E5,5.309093E4,1.4704548E4,6.8677234E4,5.2776613E4,3.7995671E3,6.4877668E4,1.1534733E3,5.162314E4,3.7980884E3,1.4787837E0,6.1118797E4,3.7588728E3,1.9191933E2,9.615539E2,1.1214167E4,4.0408973E4],"tree_param":{"num_deleted":"0","num_feature":"128","num_nodes":"19","size_leaf_vector":"1"}},{"base_weights":[-2.8579452E-3,-5.304561E-1,3.5960317E-1,-5.3399664E-1,-1.446883E-1,-4.5880538E-1,5.22685E-1,-2.6189595E-2,-5.374334E-1,-4.905541E-1,-3.3701852E-2,-5.152542E-1,8.263484E-1,6.821605E-1,-4.2468724E-1,-2.7100125E-2,-2.6237754E-2,-2.5031587E-2,-0E0,3.7559525E-3,-2.3478976E-2,-2.6112303E-2,-1.5372579E-3,4.471035E-3,4.9313482E-2,-1.9024922E-2,3.8005374E-2,4.8854083E-2,-2.5793064E-2],"categories":[],"categories_nodes":[],"categories_segments":[],"categories_sizes":[],"default_left":[0,0,0,0,0,0,0,0,0,0,0,0,0,0,0,0,0,0,0,0,0,0,0,0,0,0,0,0,0],"id":42,"left_children":[1,3,5,7,9,11,13,-1,15,17,19,21,23,25,27,-1,-1,-1,-1,-1,-1,-1,-1,-1,-1,-1,-1,-1,-1],"loss_changes":[2.0100623E4,5.7708008E1,8.3159E3,1.4550781E-1,1.4553747E1,7.510918E2,7.8498096E3,0E0,4.8046875E-1,6.5052986E-1,1.4705019E1,3.3028076E1,5.012439E1,3.6840996E3,9.566886E2,0E0,0E0,0E0,0E0,0E0,0E0,0E0,0E0,0E0,0E0,0E0,0E0,0E0,0E0],"parents":[2147483647,0,0,1,1,2,2,3,3,4,4,5,5,6,6,8,8,9,9,10,10,11,11,12,12,13,13,14,14],"right_children":[2,4,6,8,10,12,14,-1,16,18,20,22,24,26,28,-1,-1,-1,-1,-1,-1,-1,-1,-1,-1,-1,-1,-1,-1],"split_conditions":[3.8966273E-3,-8.489047E-3,-7.3406076E-1,-7.25999E-1,-6.670593E-1,3.4766695E-1,9.499228E-1,-2.6189595E-2,8.683951E-1,1.6384423E0,8.954581E-1,2.53906E-1,-8.251783E-1,-9.919488E-1,-3.0848452E-1,-2.7100125E-2,-2.6237754E-2,-2.5031587E-2,-0E0,3.7559525E-3,-2.3478976E-2,-2.6112303E-2,-1.5372579E-3,4.471035E-3,4.9313482E-2,-1.9024922E-2,3.8005374E-2,4.8854083E-2,-2.5793064E-2],"split_indices":[47,47,12,12,12,7,7,0,7,5,7,7,12,7,12,0,0,0,0,0,0,0,0,0,0,0,0,0,0],"split_type":[0,0,0,0,0,0,0,0,0,0,0,0,0,0,0,0,0,0,0,0,0,0,0,0,0,0,0,0,0],"sum_hessian":[1.05107305E5,4.280405E4,6.2303254E4,4.2411824E4,3.9222592E2,1.0350823E4,5.195243E4,1.0797021E4,3.1614803E4,9.226657E1,2.9995935E2,9.916625E3,4.3419843E2,4.4468227E4,7.4842046E3,2.3150941E4,8.463862E3,9.1145035E1,1.12154E0,2.3885933E2,6.1100006E1,9.773444E3,1.4318091E2,7.881693E1,3.553815E2,3.037736E3,4.143049E4,4.557971E2,7.028407E3],"tree_param":{"num_deleted":"0","num_feature":"128","num_nodes":"29","size_leaf_vector":"1"}},{"base_weights":[-4.377912E-3,-2.6366577E-2,2.3779893E-1,6.685193E-1,-5.1469445E-1,6.612784E-1,6.9699425E-1,2.1694E-2,-2.6398046E-2,3.3873167E-2,3.2307442E-2,3.5454582E-2,3.311752E-2,5.47562E-3,-2.1253945E-3],"categories":[],"categories_nodes":[],"categories_segments":[],"categories_sizes":[],"default_left":[0,0,0,0,0,0,0,0,0,0,0,0,0,0,0],"id":43,"left_children":[1,-1,3,5,7,9,11,13,-1,-1,-1,-1,-1,-1,-1],"loss_changes":[1.4080234E4,0E0,2.4628184E4,8.142578E0,1.9734619E2,7.685547E0,2.2456055E0,3.830836E0,0E0,0E0,0E0,0E0,0E0,0E0,0E0],"parents":[2147483647,0,0,2,2,3,3,4,4,5,5,6,6,7,7],"right_children":[2,-1,4,6,8,10,12,14,-1,-1,-1,-1,-1,-1,-1],"split_conditions":[-3.003303E-1,-2.6366577E-2,2.9669937E-1,1.7062981E-1,3.096559E-1,-4.6610213E-3,3.4816E-1,-7.501254E-2,-2.6398046E-2,3.3873167E-2,3.2307442E-2,3.5454582E-2,3.311752E-2,5.47562E-3,-2.1253945E-3],"split_indices":[8,0,8,13,8,45,29,39,0,0,0,0,0,0,0],"split_type":[0,0,0,0,0,0,0,0,0,0,0,0,0,0,0],"sum_hessian":[1.1117251E5,3.518893E4,7.598358E4,4.8324508E4,2.765907E4,3.857473E4,9.74978E3,6.6574426E2,2.6993326E4,1.8584324E4,1.9990404E4,7.190557E3,2.5592231E3,2.8744012E2,3.7830414E2],"tree_param":{"num_deleted":"0","num_feature":"128","num_nodes":"15","size_leaf_vector":"1"}},{"base_weights":[4.6473583E-3,5.5684245E-1,-2.972698E-1,2.7498553E-2,2.9178966E-2,-9.2328995E-1,5.4470056E-1,-9.1750973E-1,-9.781998E-1,-1.4880811E-2,5.576702E-1,-4.9331795E-2,-4.5695078E-2,-4.7228884E-2,-5.3156506E-2,-2.0977806E-3,8.925751E-3,2.8817276E-2,2.7616382E-2],"categories":[],"categories_nodes":[],"categories_segments":[],"categories_sizes":[],"default_left":[0,0,0,0,0,0,0,0,0,0,0,0,0,0,0,0,0,0,0],"id":44,"left_children":[1,3,5,-1,-1,7,9,11,13,15,17,-1,-1,-1,-1,-1,-1,-1,-1],"loss_changes":[3.0722254E4,1.0513672E1,6.279625E4,0E0,0E0,1.8894531E1,3.6927148E2,1.2625E1,1.5481934E1,5.8929124E0,3.506836E0,0E0,0E0,0E0,0E0,0E0,0E0,0E0,0E0],"parents":[2147483647,0,0,1,1,2,2,5,5,6,6,7,7,8,8,9,9,10,10],"right_children":[2,4,6,-1,-1,8,10,12,14,16,18,-1,-1,-1,-1,-1,-1,-1,-1],"split_conditions":[-3.003303E-1,-5.132445E-1,2.9669937E-1,2.7498553E-2,2.9178966E-2,3.4528452E-1,3.096559E-1,-7.894298E-1,-1.2605621E-1,7.3550266E-1,5.1802707E-1,-4.9331795E-2,-4.5695078E-2,-4.7228884E-2,-5.3156506E-2,-2.0977806E-3,8.925751E-3,2.8817276E-2,2.7616382E-2],"split_indices":[8,13,8,0,0,13,8,7,7,43,8,0,0,0,0,0,0,0,0],"split_type":[0,0,0,0,0,0,0,0,0,0,0,0,0,0,0,0,0,0,0],"sum_hessian":[1.8427414E5,6.5139297E4,1.1913485E5,5.1868074E4,1.327122E4,6.833077E4,5.0804074E4,6.1855363E4,6.475414E3,1.1490776E3,4.9654996E4,3.0412498E3,5.8814113E4,4.6560728E3,1.8193416E3,1.0131883E3,1.3588931E2,1.0979888E4,3.867511E4],"tree_param":{"num_deleted":"0","num_feature":"128","num_nodes":"19","size_leaf_vector":"1"}},{"base_weights":[-2.1680968E-3,-5.2943015E-1,3.4919152E-1,-5.329592E-1,-1.4966959E-1,-5.2777904E-1,6.599153E-1,-2.61354E-2,-5.385225E-1,-2.5668114E-2,3.0243784E-2,-2.6100049E-2,-2.7261633E-2,1.10717E0,-2.6412038E-2,-2.7551457E-2,-2.618644E-2,1.9412508E-2,-2.3898242E-2,5.5872716E-2,1.5420041E-2],"categories":[],"categories_nodes":[],"categories_segments":[],"categories_sizes":[],"default_left":[0,0,0,0,0,0,0,0,0,0,0,0,0,0,0,0,0,0,0,0,0],"id":45,"left_children":[1,3,5,7,9,11,13,-1,15,-1,17,-1,-1,19,-1,-1,-1,-1,-1,-1,-1],"loss_changes":[1.9068021E4,5.4402344E1,1.6831072E4,9.824219E-1,2.5558498E1,2.7734375E-1,2.423715E4,0E0,3.5092773E0,0E0,4.6552048E1,0E0,0E0,2.704297E2,0E0,0E0,0E0,0E0,0E0,0E0,0E0],"parents":[2147483647,0,0,1,1,2,2,3,3,4,4,5,5,6,6,8,8,10,10,13,13],"right_children":[2,4,6,8,10,12,14,-1,16,-1,18,-1,-1,20,-1,-1,-1,-1,-1,-1,-1],"split_conditions":[3.8966273E-3,-8.489047E-3,-3.003303E-1,-4.1620797E-1,-3.003303E-1,-5.132445E-1,3.096559E-1,-2.61354E-2,3.096559E-1,-2.5668114E-2,2.578956E-1,-2.6100049E-2,-2.7261633E-2,2.9669937E-1,-2.6412038E-2,-2.7551457E-2,-2.618644E-2,1.9412508E-2,-2.3898242E-2,5.5872716E-2,1.5420041E-2],"split_indices":[47,47,8,8,8,13,8,0,8,0,8,0,0,8,0,0,0,0,0,0,0],"split_type":[0,0,0,0,0,0,0,0,0,0,0,0,0,0,0,0,0,0,0,0,0],"sum_hessian":[1.02923555E5,4.1159926E4,6.176363E4,4.077794E4,3.819839E2,1.6157536E4,4.5606094E4,1.4441556E4,2.6336387E4,1.27648605E2,2.5433528E2,1.2205187E4,3.9523494E3,3.3134332E4,1.2471764E4,1.4215026E4,1.212136E4,1.5051152E2,1.0382375E2,3.2711512E4,4.2281952E2],"tree_param":{"num_deleted":"0","num_feature":"128","num_nodes":"21","size_leaf_vector":"1"}},{"base_weights":[-3.6141812E-3,3.2150874E-1,-5.384513E-1,-2.6350647E-2,6.264788E-1,-2.6231015E-2,-5.4688483E-1,1.0726904E0,-2.6399955E-2,-2.8296834E-2,-2.6233613E-2,5.4064598E-2,1.8351791E-2],"categories":[],"categories_nodes":[],"categories_segments":[],"categories_sizes":[],"default_left":[0,0,0,0,0,0,0,0,0,0,0,0,0],"id":46,"left_children":[1,3,5,-1,7,-1,9,11,-1,-1,-1,-1,-1],"loss_changes":[1.897156E4,1.7558832E4,3.453125E0,0E0,2.5714027E4,0E0,9.427246E0,2.1666797E2,0E0,0E0,0E0,0E0,0E0],"parents":[2147483647,0,0,1,1,2,2,4,4,6,6,7,7],"right_children":[2,4,6,-1,8,-1,10,12,-1,-1,-1,-1,-1],"split_conditions":[3.8966273E-3,-3.003303E-1,-3.003303E-1,-2.6350647E-2,3.096559E-1,-2.6231015E-2,3.096559E-1,2.9669937E-1,-2.6399955E-2,-2.8296834E-2,-2.6233613E-2,5.4064598E-2,1.8351791E-2],"split_indices":[47,8,8,0,8,0,8,8,0,0,0,0,0],"split_type":[0,0,0,0,0,0,0,0,0,0,0,0,0],"sum_hessian":[1.0909907E5,6.785134E4,4.1247723E4,1.7938062E4,4.9913285E4,1.5692985E4,2.5554738E4,3.6000027E4,1.3913257E4,1.3718659E4,1.1836079E4,3.5564566E4,4.3546176E2],"tree_param":{"num_deleted":"0","num_feature":"128","num_nodes":"13","size_leaf_vector":"1"}},{"base_weights":[3.0336734E-3,5.542125E-1,-2.9202962E-1,2.7372936E-2,2.9009162E-2,-8.924381E-1,5.4129225E-1,-8.872931E-1,-9.4135576E-1,-3.872382E-2,5.5514604E-1,-4.7552064E-2,-4.4198368E-2,-4.5557994E-2,-5.087539E-2,-9.895421E-3,-0E0,2.8670354E-2,2.7494231E-2],"categories":[],"categories_nodes":[],"categories_segments":[],"categories_sizes":[],"default_left":[0,0,0,0,0,0,0,0,0,0,0,0,0,0,0,0,0,0,0],"id":47,"left_children":[1,3,5,-1,-1,7,9,11,13,15,17,-1,-1,-1,-1,-1,-1,-1,-1],"loss_changes":[2.9187494E4,9.53125E0,5.8485016E4,0E0,0E0,1.4433594E1,3.93875E2,1.03671875E1,1.1931152E1,6.8741074E0,3.15625E0,0E0,0E0,0E0,0E0,0E0,0E0,0E0,0E0],"parents":[2147483647,0,0,1,1,2,2,5,5,6,6,7,7,8,8,9,9,10,10],"right_children":[2,4,6,-1,-1,8,10,12,14,16,18,-1,-1,-1,-1,-1,-1,-1,-1],"split_conditions":[-3.003303E-1,-5.132445E-1,2.9669937E-1,2.7372936E-2,2.9009162E-2,3.4528452E-1,3.096559E-1,-7.894298E-1,-1.2605621E-1,-1.0889837E0,5.1802707E-1,-4.7552064E-2,-4.4198368E-2,-4.5557994E-2,-5.087539E-2,-9.895421E-3,-0E0,2.8670354E-2,2.7494231E-2],"split_indices":[8,13,8,0,0,13,8,7,7,46,8,0,0,0,0,0,0,0,0],"split_type":[0,0,0,0,0,0,0,0,0,0,0,0,0,0,0,0,0,0,0],"sum_hessian":[1.7946527E5,6.257589E4,1.16889375E5,4.970934E4,1.2866551E4,6.793984E4,4.8949535E4,6.150996E4,6.4298813E3,1.1401677E3,4.7809367E4,3.0208403E3,5.848912E4,4.622903E3,1.8069789E3,2.1819382E2,9.219739E2,1.0627128E4,3.718224E4],"tree_param":{"num_deleted":"0","num_feature":"128","num_nodes":"19","size_leaf_vector":"1"}},{"base_weights":[-5.9931306E-4,-5.28328E-1,3.423191E-1,-5.316925E-1,-1.6484384E-1,-5.263567E-1,6.368736E-1,-2.6083468E-2,-5.3717375E-1,-2.5668418E-2,1.0974268E-2,-2.6044652E-2,-2.7141819E-2,1.0501571E0,-2.634058E-2,-2.7475609E-2,-2.6126573E-2,1.64593E-2,-2.490087E-2,5.3018052E-2,1.3514941E-2],"categories":[],"categories_nodes":[],"categories_segments":[],"categories_sizes":[],"default_left":[0,0,0,0,0,0,0,0,0,0,0,0,0,0,0,0,0,0,0,0,0],"id":48,"left_children":[1,3,5,7,9,11,13,-1,15,-1,17,-1,-1,19,-1,-1,-1,-1,-1,-1,-1],"loss_changes":[1.8158809E4,4.7549805E1,1.5562434E4,8.1347656E-1,2.297528E1,3.955078E-2,2.1844963E4,0E0,3.1958008E0,0E0,3.9317593E1,0E0,0E0,2.6509766E2,0E0,0E0,0E0,0E0,0E0,0E0,0E0],"parents":[2147483647,0,0,1,1,2,2,3,3,4,4,5,5,6,6,8,8,10,10,13,13],"right_children":[2,4,6,8,10,12,14,-1,16,-1,18,-1,-1,20,-1,-1,-1,-1,-1,-1,-1],"split_conditions":[3.8966273E-3,-8.489047E-3,-3.003303E-1,-4.0354094E-1,-2.871812E-1,-5.132445E-1,3.096559E-1,-2.6083468E-2,3.096559E-1,-2.5668418E-2,2.9669937E-1,-2.6044652E-2,-2.7141819E-2,2.9669937E-1,-2.634058E-2,-2.7475609E-2,-2.6126573E-2,1.64593E-2,-2.490087E-2,5.3018052E-2,1.3514941E-2],"split_indices":[47,47,8,8,8,13,8,0,8,0,8,0,0,8,0,0,0,0,0,0,0],"split_type":[0,0,0,0,0,0,0,0,0,0,0,0,0,0,0,0,0,0,0,0,0],"sum_hessian":[1.0033969E5,3.9521344E4,6.0818344E4,3.915569E4,3.6565112E2,1.5399431E4,4.5418914E4,1.3941128E4,2.5214562E4,1.23870415E2,2.417807E2,1.16351875E4,3.764243E3,3.3516473E4,1.1902439E4,1.3626937E4,1.1587626E4,1.5019786E2,9.158285E1,3.3081977E4,4.3449695E2],"tree_param":{"num_deleted":"0","num_feature":"128","num_nodes":"21","size_leaf_vector":"1"}},{"base_weights":[-3.5695434E-3,3.1375745E-1,-5.370004E-1,-2.628251E-2,6.043121E-1,-2.6169673E-2,-5.4522717E-1,1.0195047E0,-2.6329769E-2,-2.8179524E-2,-2.6171615E-2,5.1404666E-2,1.5793E-2],"categories":[],"categories_nodes":[],"categories_segments":[],"categories_sizes":[],"default_left":[0,0,0,0,0,0,0,0,0,0,0,0,0],"id":49,"left_children":[1,3,5,-1,7,-1,9,11,-1,-1,-1,-1,-1],"loss_changes":[1.7967018E4,1.6231602E4,3.078125E0,0E0,2.3214889E4,0E0,8.465332E0,2.1688672E2,0E0,0E0,0E0,0E0,0E0],"parents":[2147483647,0,0,1,1,2,2,4,4,6,6,7,7],"right_children":[2,4,6,-1,8,-1,10,12,-1,-1,-1,-1,-1],"split_conditions":[3.8966273E-3,-3.003303E-1,-3.003303E-1,-2.628251E-2,3.096559E-1,-2.6169673E-2,3.096559E-1,2.9669937E-1,-2.6329769E-2,-2.8179524E-2,-2.6171615E-2,5.1404666E-2,1.5793E-2],"split_indices":[47,8,8,0,8,0,8,8,0,0,0,0,0],"split_type":[0,0,0,0,0,0,0,0,0,0,0,0,0],"sum_hessian":[1.0613955E5,6.654929E4,3.9590258E4,1.7111166E4,4.9438125E4,1.4987321E4,2.4602936E4,3.616264E4,1.3275485E4,1.3314234E4,1.1288701E4,3.57247E4,4.37941E2],"tree_param":{"num_deleted":"0","num_feature":"128","num_nodes":"13","size_leaf_vector":"1"}},{"base_weights":[2.9905962E-3,5.513633E-1,-2.8533468E-1,2.7300918E-2,2.8499683E-2,-8.6071116E-1,5.378559E-1,-9.043445E-1,-8.575398E-1,-3.4901854E-2,5.522719E-1,-4.5227733E-2,-0E0,-4.1882895E-2,-4.3083217E-2,-7.421641E-3,7.320763E-4,2.8476221E-2,2.7364472E-2],"categories":[],"categories_nodes":[],"categories_segments":[],"categories_sizes":[],"default_left":[0,0,0,0,0,0,0,0,0,0,0,0,0,0,0,0,0,0,0],"id":50,"left_children":[1,3,5,-1,-1,7,9,11,13,15,17,-1,-1,-1,-1,-1,-1,-1,-1],"loss_changes":[2.7498898E4,4.5371094E0,5.3990074E4,0E0,0E0,6.7421875E0,3.8773926E2,4.970703E-1,2.7109375E0,6.607571E0,2.5029297E0,0E0,0E0,0E0,0E0,0E0,0E0,0E0,0E0],"parents":[2147483647,0,0,1,1,2,2,5,5,6,6,7,7,8,8,9,9,10,10],"right_children":[2,4,6,-1,-1,8,10,12,14,16,18,-1,-1,-1,-1,-1,-1,-1,-1],"split_conditions":[-3.003303E-1,-5.63981E-1,2.9669937E-1,2.7300918E-2,2.8499683E-2,-7.411551E-1,3.096559E-1,1.1838785E0,-4.797043E-2,-5.2334374E-1,5.1802707E-1,-4.5227733E-2,-0E0,-4.1882895E-2,-4.3083217E-2,-7.421641E-3,7.320763E-4,2.8476221E-2,2.7364472E-2],"split_indices":[8,8,8,0,0,7,8,5,48,21,8,0,0,0,0,0,0,0,0],"split_type":[0,0,0,0,0,0,0,0,0,0,0,0,0,0,0,0,0,0,0],"sum_hessian":[1.7391919E5,5.9933258E4,1.1398594E5,4.663728E4,1.3295978E4,6.709232E4,4.6893613E4,4.5053994E3,6.258692E4,1.1495677E3,4.5744043E4,4.5039136E3,1.4858605E0,1.0829692E4,5.175723E4,3.547743E2,7.947935E2,1.0180058E4,3.556399E4],"tree_param":{"num_deleted":"0","num_feature":"128","num_nodes":"19","size_leaf_vector":"1"}},{"base_weights":[-5.869785E-4,-5.2629983E-1,3.3414683E-1,-5.3045297E-1,-9.635449E-2,-2.625267E-2,6.153966E-1,-2.6029143E-2,-5.3580254E-1,-2.5488898E-2,9.16774E-2,1.0010145E0,-2.6273206E-2,-2.7386665E-2,-2.6070764E-2,2.1046741E-2,-2.5339505E-2,5.0524767E-2,1.4164636E-2],"categories":[],"categories_nodes":[],"categories_segments":[],"categories_sizes":[],"default_left":[0,0,0,0,0,0,0,0,0,0,0,0,0,0,0,0,0,0,0],"id":51,"left_children":[1,3,5,7,9,-1,11,-1,13,-1,15,17,-1,-1,-1,-1,-1,-1,-1],"loss_changes":[1.716958E4,6.709961E1,1.4405289E4,6.513672E-1,2.8969032E1,0E0,1.975903E4,0E0,2.8120117E0,0E0,4.9631813E1,2.2682812E2,0E0,0E0,0E0,0E0,0E0,0E0,0E0],"parents":[2147483647,0,0,1,1,2,2,3,3,4,4,6,6,8,8,10,10,11,11],"right_children":[2,4,6,8,10,-1,12,-1,14,-1,16,18,-1,-1,-1,-1,-1,-1,-1],"split_conditions":[3.8966273E-3,-8.489047E-3,-3.003303E-1,-4.0354094E-1,-3.003303E-1,-2.625267E-2,3.096559E-1,-2.6029143E-2,3.096559E-1,-2.5488898E-2,2.9669937E-1,2.9669937E-1,-2.6273206E-2,-2.7386665E-2,-2.6070764E-2,2.1046741E-2,-2.5339505E-2,5.0524767E-2,1.4164636E-2],"split_indices":[47,47,8,8,8,0,8,0,8,0,8,8,0,0,0,0,0,0,0],"split_type":[0,0,0,0,0,0,0,0,0,0,0,0,0,0,0,0,0,0,0],"sum_hessian":[9.756583E4,3.7956324E4,5.9609508E4,3.759065E4,3.6567575E2,1.469939E4,4.4910117E4,1.3312955E4,2.4277691E4,1.1544822E2,2.5022752E2,3.3565707E4,1.1344413E4,1.3213637E4,1.1064055E4,1.6268892E2,8.753859E1,3.312632E4,4.393868E2],"tree_param":{"num_deleted":"0","num_feature":"128","num_nodes":"19","size_leaf_vector":"1"}},{"base_weights":[-3.7344622E-3,3.0662465E-1,-5.3564644E-1,-2.6218211E-2,5.8410364E-1,-2.6111076E-2,-5.43649E-1,9.7351134E-1,-2.6263017E-2,-2.806381E-2,-2.6113171E-2,4.9095787E-2,1.5135973E-2],"categories":[],"categories_nodes":[],"categories_segments":[],"categories_sizes":[],"default_left":[0,0,0,0,0,0,0,0,0,0,0,0,0],"id":52,"left_children":[1,3,5,-1,7,-1,9,11,-1,-1,-1,-1,-1],"loss_changes":[1.705657E4,1.5045182E4,2.7402344E0,0E0,2.1132178E4,0E0,7.5878906E0,2.0254297E2,0E0,0E0,0E0,0E0,0E0],"parents":[2147483647,0,0,1,1,2,2,4,4,6,6,7,7],"right_children":[2,4,6,-1,8,-1,10,12,-1,-1,-1,-1,-1],"split_conditions":[3.8966273E-3,-3.003303E-1,-3.003303E-1,-2.6218211E-2,3.096559E-1,-2.6111076E-2,3.096559E-1,2.9669937E-1,-2.6263017E-2,-2.806381E-2,-2.6113171E-2,4.9095787E-2,1.5135973E-2],"split_indices":[47,8,8,0,8,0,8,8,0,0,0,0,0],"split_type":[0,0,0,0,0,0,0,0,0,0,0,0,0],"sum_hessian":[1.03317336E5,6.524616E4,3.8071176E4,1.6331724E4,4.8914438E4,1.4289886E4,2.378129E4,3.6206348E4,1.2708089E4,1.2996691E4,1.0784599E4,3.57564E4,4.4994766E2],"tree_param":{"num_deleted":"0","num_feature":"128","num_nodes":"13","size_leaf_vector":"1"}},{"base_weights":[2.2532223E-3,5.4870844E-1,-2.7962488E-1,2.713163E-2,2.8589725E-2,-8.3256656E-1,5.347567E-1,-8.2813996E-1,-8.7393844E-1,-1.8586332E-2,5.4953873E-1,-4.3568704E-2,-4.1271273E-2,-4.263827E-2,-4.618559E-2,-2.449705E-3,9.663706E-3,2.841155E-2,2.7269095E-2],"categories":[],"categories_nodes":[],"categories_segments":[],"categories_sizes":[],"default_left":[0,0,0,0,0,0,0,0,0,0,0,0,0,0,0,0,0,0,0],"id":53,"left_children":[1,3,5,-1,-1,7,9,11,13,15,17,-1,-1,-1,-1,-1,-1,-1,-1],"loss_changes":[2.5950104E4,6.6152344E0,5.00469E4,0E0,0E0,9.6953125E0,3.6816016E2,4.6054688E0,4.1362305E0,7.393536E0,1.9775391E0,0E0,0E0,0E0,0E0,0E0,0E0,0E0,0E0],"parents":[2147483647,0,0,1,1,2,2,5,5,6,6,7,7,8,8,9,9,10,10],"right_children":[2,4,6,-1,-1,8,10,12,14,16,18,-1,-1,-1,-1,-1,-1,-1,-1],"split_conditions":[-3.003303E-1,-5.132445E-1,2.9669937E-1,2.713163E-2,2.8589725E-2,3.4528452E-1,3.096559E-1,-1.1766163E0,-6.245453E-1,7.3550266E-1,3.4528452E-1,-4.3568704E-2,-4.1271273E-2,-4.263827E-2,-4.618559E-2,-2.449705E-3,9.663706E-3,2.841155E-2,2.7269095E-2],"split_indices":[8,13,8,0,0,13,8,6,6,43,13,0,0,0,0,0,0,0,0],"split_type":[0,0,0,0,0,0,0,0,0,0,0,0,0,0,0,0,0,0,0],"sum_hessian":[1.684665E5,5.7329277E4,1.1113722E5,4.543849E4,1.1890791E4,6.619436E4,4.494286E4,5.983722E4,6.357139E3,1.1675981E3,4.377526E4,3.4943364E3,5.6342883E4,4.4867437E3,1.8703959E3,1.0258495E3,1.4174863E2,7.8954634E3,3.5879797E4],"tree_param":{"num_deleted":"0","num_feature":"128","num_nodes":"19","size_leaf_vector":"1"}},{"base_weights":[-4.2473307E-4,-5.2517515E-1,3.26205E-1,-5.2926636E-1,-1.12665534E-1,-2.6190152E-2,5.9501845E-1,-2.5985971E-2,-5.345858E-1,-2.539806E-2,5.9600785E-2,9.584706E-1,-2.6210738E-2,-2.7321888E-2,-2.6017351E-2,1.7548934E-2,-2.52135E-2,4.83666E-2,1.4403536E-2],"categories":[],"categories_nodes":[],"categories_segments":[],"categories_sizes":[],"default_left":[0,0,0,0,0,0,0,0,0,0,0,0,0,0,0,0,0,0,0],"id":54,"left_children":[1,3,5,7,9,-1,11,-1,13,-1,15,17,-1,-1,-1,-1,-1,-1,-1],"loss_changes":[1.6263272E4,6.0734375E1,1.3362915E4,4.9902344E-1,2.5072657E1,0E0,1.807509E4,0E0,2.5375977E0,0E0,4.1209995E1,1.977207E2,0E0,0E0,0E0,0E0,0E0,0E0,0E0],"parents":[2147483647,0,0,1,1,2,2,3,3,4,4,6,6,8,8,10,10,11,11],"right_children":[2,4,6,8,10,-1,12,-1,14,-1,16,18,-1,-1,-1,-1,-1,-1,-1],"split_conditions":[3.8966273E-3,-8.489047E-3,-3.003303E-1,-3.7794954E-1,-3.003303E-1,-2.6190152E-2,3.096559E-1,-2.5985971E-2,3.096559E-1,-2.539806E-2,3.096559E-1,2.9669937E-1,-2.6210738E-2,-2.7321888E-2,-2.6017351E-2,1.7548934E-2,-2.52135E-2,4.83666E-2,1.4403536E-2],"split_indices":[47,47,8,8,8,0,8,0,8,0,8,8,0,0,0,0,0,0,0],"split_type":[0,0,0,0,0,0,0,0,0,0,0,0,0,0,0,0,0,0,0],"sum_hessian":[9.488225E4,3.640226E4,5.8479984E4,3.6042098E4,3.6016623E2,1.4049562E4,4.443042E4,1.2998951E4,2.3043145E4,1.10488045E2,2.4967819E2,3.3539934E4,1.089049E4,1.251681E4,1.0526335E4,1.6603256E2,8.364562E1,3.3100477E4,4.394571E2],"tree_param":{"num_deleted":"0","num_feature":"128","num_nodes":"19","size_leaf_vector":"1"}},{"base_weights":[-3.1470081E-3,3.0059296E-1,-5.3424805E-1,-2.615637E-2,5.67158E-1,-2.6055714E-2,-5.420331E-1,9.330746E-1,-2.6199326E-2,-2.7948966E-2,-2.605742E-2,4.7055546E-2,1.4866354E-2],"categories":[],"categories_nodes":[],"categories_segments":[],"categories_sizes":[],"default_left":[0,0,0,0,0,0,0,0,0,0,0,0,0],"id":55,"left_children":[1,3,5,-1,7,-1,9,11,-1,-1,-1,-1,-1],"loss_changes":[1.6185916E4,1.4015568E4,2.3876953E0,0E0,1.9255465E4,0E0,6.7143555E0,1.83E2,0E0,0E0,0E0,0E0,0E0],"parents":[2147483647,0,0,1,1,2,2,4,4,6,6,7,7],"right_children":[2,4,6,-1,8,-1,10,12,-1,-1,-1,-1,-1],"split_conditions":[3.8966273E-3,-3.003303E-1,-3.003303E-1,-2.615637E-2,3.096559E-1,-2.6055714E-2,3.096559E-1,2.9669937E-1,-2.6199326E-2,-2.7948966E-2,-2.605742E-2,4.7055546E-2,1.4866354E-2],"split_indices":[47,8,8,0,8,0,8,8,0,0,0,0,0],"split_type":[0,0,0,0,0,0,0,0,0,0,0,0,0],"sum_hessian":[1.0033289E5,6.3827883E4,3.6505008E4,1.5604194E4,4.8223688E4,1.3658574E4,2.2846434E4,3.6113906E4,1.2109781E4,1.2571777E4,1.0274655E4,3.566107E4,4.5283453E2],"tree_param":{"num_deleted":"0","num_feature":"128","num_nodes":"13","size_leaf_vector":"1"}},{"base_weights":[2.142129E-3,5.461642E-1,-2.7382964E-1,2.702106E-2,2.8397148E-2,-8.0743057E-1,5.31192E-1,-8.0384E-1,-8.512582E-1,-3.1862147E-2,5.4695654E-1,-4.2614505E-2,-4.0065575E-2,-4.1166376E-2,-4.617943E-2,-2.6929204E-3,6.2968857E-3,2.8231237E-2,2.7151618E-2],"categories":[],"categories_nodes":[],"categories_segments":[],"categories_sizes":[],"default_left":[0,0,0,0,0,0,0,0,0,0,0,0,0,0,0,0,0,0,0],"id":56,"left_children":[1,3,5,-1,-1,7,9,11,13,15,17,-1,-1,-1,-1,-1,-1,-1,-1],"loss_changes":[2.4482553E4,5.4492188E0,4.6473188E4,0E0,0E0,7.8984375E0,3.833213E2,5.0351562E0,7.3686523E0,4.008812E0,1.4941406E0,0E0,0E0,0E0,0E0,0E0,0E0,0E0,0E0],"parents":[2147483647,0,0,1,1,2,2,5,5,6,6,7,7,8,8,9,9,10,10],"right_children":[2,4,6,-1,-1,8,10,12,14,16,18,-1,-1,-1,-1,-1,-1,-1,-1],"split_conditions":[-3.003303E-1,-5.132445E-1,2.9669937E-1,2.702106E-2,2.8397148E-2,3.9811775E-1,3.096559E-1,-8.0084544E-1,-1.2605621E-1,7.3550266E-1,3.4528452E-1,-4.2614505E-2,-4.0065575E-2,-4.1166376E-2,-4.617943E-2,-2.6929204E-3,6.2968857E-3,2.8231237E-2,2.7151618E-2],"split_indices":[8,13,8,0,0,13,8,7,7,43,13,0,0,0,0,0,0,0,0],"split_type":[0,0,0,0,0,0,0,0,0,0,0,0,0,0,0,0,0,0,0],"sum_hessian":[1.6306672E5,5.4881562E4,1.08185164E5,4.3486098E4,1.1395467E4,6.5061203E4,4.3123957E4,6.0173625E4,4.88758E3,1.1727542E3,4.1951203E4,2.9482725E3,5.722535E4,3.5449072E3,1.3426729E3,1.0354194E3,1.373348E2,7.5519146E3,3.439929E4],"tree_param":{"num_deleted":"0","num_feature":"128","num_nodes":"19","size_leaf_vector":"1"}},{"base_weights":[1.551279E-4,-5.280768E-1,3.1741235E-1,-2.5936607E-2,-5.3324723E-1,-2.6130004E-2,5.7506233E-1,-2.7233673E-2,-2.5966335E-2,9.170141E-1,-2.6149118E-2,4.6300482E-2,1.2209189E-2],"categories":[],"categories_nodes":[],"categories_segments":[],"categories_sizes":[],"default_left":[0,0,0,0,0,0,0,0,0,0,0,0,0],"id":57,"left_children":[1,3,5,-1,7,-1,9,-1,-1,11,-1,-1,-1],"loss_changes":[1.5435691E4,3.4179688E-1,1.2455164E4,0E0,2.1748047E0,0E0,1.6537117E4,0E0,0E0,2.0186328E2,0E0,0E0,0E0],"parents":[2147483647,0,0,1,1,2,2,4,4,6,6,9,9],"right_children":[2,4,6,-1,8,-1,10,-1,-1,12,-1,-1,-1],"split_conditions":[-8.489047E-3,-3.7794954E-1,-3.003303E-1,-2.5936607E-2,3.096559E-1,-2.6130004E-2,3.096559E-1,-2.7233673E-2,-2.5966335E-2,2.9669937E-1,-2.6149118E-2,4.6300482E-2,1.2209189E-2],"split_indices":[47,8,8,0,8,0,8,0,0,8,0,0,0],"split_type":[0,0,0,0,0,0,0,0,0,0,0,0,0],"sum_hessian":[9.210567E4,3.4559848E4,5.754582E4,1.2415501E4,2.2144348E4,1.3506351E4,4.403947E4,1.2101396E4,1.0042951E4,3.3582363E4,1.0457106E4,3.313747E4,4.4489645E2],"tree_param":{"num_deleted":"0","num_feature":"128","num_nodes":"13","size_leaf_vector":"1"}},{"base_weights":[-3.4289912E-3,2.9434547E-1,-5.329244E-1,-2.609912E-2,5.500086E-1,-2.6003039E-2,-5.404574E-1,8.965075E-1,-2.6138633E-2,-2.7834877E-2,-2.6004184E-2,4.5243457E-2,1.3095486E-2],"categories":[],"categories_nodes":[],"categories_segments":[],"categories_sizes":[],"default_left":[0,0,0,0,0,0,0,0,0,0,0,0,0],"id":58,"left_children":[1,3,5,-1,7,-1,9,11,-1,-1,-1,-1,-1],"loss_changes":[1.533629E4,1.2993128E4,2.0517578E0,0E0,1.7623445E4,0E0,5.915039E0,1.8875E2,0E0,0E0,0E0,0E0,0E0],"parents":[2147483647,0,0,1,1,2,2,4,4,6,6,7,7],"right_children":[2,4,6,-1,8,-1,10,12,-1,-1,-1,-1,-1],"split_conditions":[3.8966273E-3,-3.003303E-1,-3.003303E-1,-2.609912E-2,3.096559E-1,-2.6003039E-2,3.096559E-1,2.9669937E-1,-2.6138633E-2,-2.7834877E-2,-2.6004184E-2,4.5243457E-2,1.3095486E-2],"split_indices":[47,8,8,0,8,0,8,8,0,0,0,0,0],"split_type":[0,0,0,0,0,0,0,0,0,0,0,0,0],"sum_hessian":[9.726464E4,6.2253465E4,3.5011176E4,1.484588E4,4.7407586E4,1.3005446E4,2.2005729E4,3.5834465E4,1.1573121E4,1.2203132E4,9.802597E3,3.5366465E4,4.679985E2],"tree_param":{"num_deleted":"0","num_feature":"128","num_nodes":"13","size_leaf_vector":"1"}},{"base_weights":[1.842944E-3,4.9827546E-1,-1.6079006E-1,5.3182065E-1,-5.051383E-1,-3.3169442E-1,4.567949E-1,5.3614676E-1,1.233061E-1,1.6132684E-1,-6.619912E-1,-3.9662242E-1,3.3633953E-1,-5.252209E-1,5.333466E-1,2.6913846E-2,1.9979522E-2,-1.36769265E-2,2.3278378E-2,1.8127164E-2,-2.8686542E-2,-2.1654671E-2,-3.703416E-2,1.8884208E-2,-2.349223E-2,-3.01718E-2,2.5943695E-2,-3.2992367E-2,1.17011955E-2,9.010971E-3,2.6938766E-2],"categories":[],"categories_nodes":[],"categories_segments":[],"categories_sizes":[],"default_left":[0,0,0,0,0,0,0,0,0,0,0,0,0,0,0,0,0,0,0,0,0,0,0,0,0,0,0,0,0,0,0],"id":59,"left_children":[1,3,5,7,9,11,13,15,17,19,21,23,25,27,29,-1,-1,-1,-1,-1,-1,-1,-1,-1,-1,-1,-1,-1,-1,-1,-1],"loss_changes":[1.2710764E4,1.3079668E3,1.2516073E4,6.571387E1,1.3193967E2,4.0288232E3,1.9324072E3,9.666992E0,5.4332314E1,3.53367E1,1.6848969E1,4.799909E3,1.4114741E3,1.905155E2,4.4893555E1,0E0,0E0,0E0,0E0,0E0,0E0,0E0,0E0,0E0,0E0,0E0,0E0,0E0,0E0,0E0,0E0],"parents":[2147483647,0,0,1,1,2,2,3,3,4,4,5,5,6,6,7,7,8,8,9,9,10,10,11,11,12,12,13,13,14,14],"right_children":[2,4,6,8,10,12,14,16,18,20,22,24,26,28,30,-1,-1,-1,-1,-1,-1,-1,-1,-1,-1,-1,-1,-1,-1,-1,-1],"split_conditions":[-6.257218E-1,3.3271006E-1,8.954581E-1,2.53906E-1,-7.433815E-1,8.9603704E-1,-1.4993416E-1,1.4501543E-1,8.496933E-1,4.9936038E-1,4.0830612E-1,-9.438274E-1,-5.718326E-1,1.0701957E0,-1.0524248E-1,2.6913846E-2,1.9979522E-2,-1.36769265E-2,2.3278378E-2,1.8127164E-2,-2.8686542E-2,-2.1654671E-2,-3.703416E-2,1.8884208E-2,-2.349223E-2,-3.01718E-2,2.5943695E-2,-3.2992367E-2,1.17011955E-2,9.010971E-3,2.6938766E-2],"split_indices":[9,7,7,7,9,9,9,7,6,7,7,7,7,7,9,0,0,0,0,0,0,0,0,0,0,0,0,0,0,0,0],"split_type":[0,0,0,0,0,0,0,0,0,0,0,0,0,0,0,0,0,0,0,0,0,0,0,0,0,0,0,0,0,0,0],"sum_hessian":[1.5742936E5,3.8848754E4,1.185806E5,3.7593434E4,1.255322E3,9.287999E4,2.5700611E4,3.7196766E4,3.9666675E2,2.379353E2,1.01738666E3,8.465413E4,8.225857E3,1.8572052E3,2.3843406E4,3.661533E4,5.814362E2,1.8242639E2,2.1424036E2,1.8826613E2,4.9669186E1,2.6519724E2,7.5218945E2,7.3121436E3,7.734199E4,1.336601E3,6.889257E3,1.5787206E3,2.784847E2,3.643086E2,2.3479098E4],"tree_param":{"num_deleted":"0","num_feature":"128","num_nodes":"31","size_leaf_vector":"1"}},{"base_weights":[-4.146411E-4,-5.2279156E-1,3.1306157E-1,-5.269451E-1,-1.1274934E-1,-2.6095985E-2,5.6304175E-1,-2.5884975E-2,-5.317424E-1,-2.5253743E-2,5.1816437E-2,8.9030695E-1,-2.611819E-2,-2.7105073E-2,-2.593385E-2,1.5588626E-2,-2.5027594E-2,4.4980414E-2,1.1140388E-2],"categories":[],"categories_nodes":[],"categories_segments":[],"categories_sizes":[],"default_left":[0,0,0,0,0,0,0,0,0,0,0,0,0,0,0,0,0,0,0],"id":60,"left_children":[1,3,5,7,9,-1,11,-1,13,-1,15,17,-1,-1,-1,-1,-1,-1,-1],"loss_changes":[1.4691086E4,5.6606445E1,1.1703039E4,1.5234375E-1,2.2502136E1,0E0,1.5328371E4,0E0,1.6108398E0,0E0,3.4345253E1,2.0451953E2,0E0,0E0,0E0,0E0,0E0,0E0,0E0],"parents":[2147483647,0,0,1,1,2,2,3,3,4,4,6,6,8,8,10,10,11,11],"right_children":[2,4,6,8,10,-1,12,-1,14,-1,16,18,-1,-1,-1,-1,-1,-1,-1],"split_conditions":[3.8966273E-3,-8.489047E-3,-3.003303E-1,-4.1620797E-1,-3.003303E-1,-2.6095985E-2,3.096559E-1,-2.5884975E-2,3.096559E-1,-2.5253743E-2,3.096559E-1,2.9669937E-1,-2.611819E-2,-2.7105073E-2,-2.593385E-2,1.5588626E-2,-2.5027594E-2,4.4980414E-2,1.1140388E-2],"split_indices":[47,47,8,8,8,0,8,0,8,0,8,8,0,0,0,0,0,0,0],"split_type":[0,0,0,0,0,0,0,0,0,0,0,0,0,0,0,0,0,0,0],"sum_hessian":[8.971178E4,3.364622E4,5.606556E4,3.3306117E4,3.401022E2,1.2916595E4,4.3148965E4,1.1486273E4,2.1819844E4,1.0168712E2,2.3841508E2,3.315374E4,9.995224E3,1.2105114E4,9.7147295E3,1.6364587E2,7.476921E1,3.2696287E4,4.574538E2],"tree_param":{"num_deleted":"0","num_feature":"128","num_nodes":"19","size_leaf_vector":"1"}},{"base_weights":[-2.6106169E-3,2.891302E-1,-5.315197E-1,-2.6061658E-2,5.3715986E-1,-2.5963694E-2,-5.386808E-1,8.6947924E-1,-2.6104305E-2,-2.7705034E-2,-2.5967875E-2,4.3887258E-2,1.3171779E-2],"categories":[],"categories_nodes":[],"categories_segments":[],"categories_sizes":[],"default_left":[0,0,0,0,0,0,0,0,0,0,0,0,0],"id":61,"left_children":[1,3,5,-1,7,-1,9,11,-1,-1,-1,-1,-1],"loss_changes":[1.4621921E4,1.2275165E4,1.6171875E0,0E0,1.6460889E4,0E0,4.9492188E0,1.7693945E2,0E0,0E0,0E0,0E0,0E0],"parents":[2147483647,0,0,1,1,2,2,4,4,6,6,7,7],"right_children":[2,4,6,-1,8,-1,10,12,-1,-1,-1,-1,-1],"split_conditions":[3.8966273E-3,-3.003303E-1,-3.003303E-1,-2.6061658E-2,3.096559E-1,-2.5963694E-2,3.096559E-1,2.9669937E-1,-2.6104305E-2,-2.7705034E-2,-2.5967875E-2,4.3887258E-2,1.3171779E-2],"split_indices":[47,8,8,0,8,0,8,8,0,0,0,0,0],"split_type":[0,0,0,0,0,0,0,0,0,0,0,0,0],"sum_hessian":[9.475668E4,6.106978E4,3.3686902E4,1.4310226E4,4.6759555E4,1.2508946E4,2.1177955E4,3.559377E4,1.1165784E4,1.1734466E4,9.443488E3,3.511277E4,4.8100314E2],"tree_param":{"num_deleted":"0","num_feature":"128","num_nodes":"13","size_leaf_vector":"1"}},{"base_weights":[1.2053464E-3,5.421836E-1,-2.650789E-1,2.6826901E-2,2.8150652E-2,-7.6841736E-1,5.2627254E-1,-7.6480997E-1,-8.0170804E-1,-2.5108954E-2,5.4306185E-1,-4.047398E-2,-3.8118098E-2,-3.90405E-2,-4.2605475E-2,-2.6481093E-3,8.678E-3,2.7919373E-2,2.6923617E-2],"categories":[],"categories_nodes":[],"categories_segments":[],"categories_sizes":[],"default_left":[0,0,0,0,0,0,0,0,0,0,0,0,0,0,0,0,0,0,0],"id":62,"left_children":[1,3,5,-1,-1,7,9,11,13,15,17,-1,-1,-1,-1,-1,-1,-1,-1],"loss_changes":[2.207518E4,4.5429688E0,4.090438E4,0E0,0E0,5.3554688E0,3.7011523E2,4.0078125E0,4.11499E0,6.4122276E0,1.3261719E0,0E0,0E0,0E0,0E0,0E0,0E0,0E0,0E0],"parents":[2147483647,0,0,1,1,2,2,5,5,6,6,7,7,8,8,9,9,10,10],"right_children":[2,4,6,-1,-1,8,10,12,14,16,18,-1,-1,-1,-1,-1,-1,-1,-1],"split_conditions":[-3.003303E-1,-5.132445E-1,2.9669937E-1,2.6826901E-2,2.8150652E-2,3.4528452E-1,3.096559E-1,-7.894298E-1,-1.2605621E-1,7.53037E-1,5.1802707E-1,-4.047398E-2,-3.8118098E-2,-3.90405E-2,-4.2605475E-2,-2.6481093E-3,8.678E-3,2.7919373E-2,2.6923617E-2],"split_indices":[8,13,8,0,0,13,8,7,7,43,8,0,0,0,0,0,0,0,0],"split_type":[0,0,0,0,0,0,0,0,0,0,0,0,0,0,0,0,0,0,0],"sum_hessian":[1.532385E5,5.054827E4,1.02690234E5,3.982803E4,1.0720238E4,6.2767992E4,3.9922242E4,5.6680137E4,6.0878555E3,1.177919E3,3.874432E4,2.906466E3,5.377367E4,4.3291714E3,1.7586841E3,1.0381395E3,1.3977942E2,8.850792E3,2.989353E4],"tree_param":{"num_deleted":"0","num_feature":"128","num_nodes":"19","size_leaf_vector":"1"}},{"base_weights":[1.0440443E-3,-5.2584064E-1,3.0614737E-1,-2.5848443E-2,-5.3057736E-1,-2.6039844E-2,5.469864E-1,-2.704136E-2,-2.5886187E-2,8.573956E-1,-2.6062205E-2,4.3293267E-2,1.1979131E-2],"categories":[],"categories_nodes":[],"categories_segments":[],"categories_sizes":[],"default_left":[0,0,0,0,0,0,0,0,0,0,0,0,0],"id":63,"left_children":[1,3,5,-1,7,-1,9,-1,-1,11,-1,-1,-1],"loss_changes":[1.3973378E4,1.8554688E-2,1.0964003E4,0E0,1.3852539E0,0E0,1.4137899E4,0E0,0E0,1.715586E2,0E0,0E0,0E0],"parents":[2147483647,0,0,1,1,2,2,4,4,6,6,9,9],"right_children":[2,4,6,-1,8,-1,10,-1,-1,12,-1,-1,-1],"split_conditions":[-8.489047E-3,-3.9094844E-1,-3.003303E-1,-2.5848443E-2,3.096559E-1,-2.6039844E-2,3.096559E-1,-2.704136E-2,-2.5886187E-2,2.9669937E-1,-2.6062205E-2,4.3293267E-2,1.1979131E-2],"split_indices":[47,8,8,0,8,0,8,0,0,8,0,0,0],"split_type":[0,0,0,0,0,0,0,0,0,0,0,0,0],"sum_hessian":[8.69232E4,3.1874662E4,5.504854E4,1.1206421E4,2.0668242E4,1.2415024E4,4.263351E4,1.1432608E4,9.235633E3,3.3035195E4,9.598319E3,3.258644E4,4.4875516E2],"tree_param":{"num_deleted":"0","num_feature":"128","num_nodes":"13","size_leaf_vector":"1"}},{"base_weights":[-3.751928E-3,2.8274402E-1,-5.302458E-1,-2.600858E-2,5.2262175E-1,-2.5915354E-2,-5.371742E-1,8.4005815E-1,-2.6049191E-2,-2.7596897E-2,-2.5919179E-2,4.2416614E-2,1.1658988E-2],"categories":[],"categories_nodes":[],"categories_segments":[],"categories_sizes":[],"default_left":[0,0,0,0,0,0,0,0,0,0,0,0,0],"id":64,"left_children":[1,3,5,-1,7,-1,9,11,-1,-1,-1,-1,-1],"loss_changes":[1.3829529E4,1.1435561E4,1.3378906E0,0E0,1.5145633E4,0E0,4.293457E0,1.7474414E2,0E0,0E0,0E0,0E0,0E0],"parents":[2147483647,0,0,1,1,2,2,4,4,6,6,7,7],"right_children":[2,4,6,-1,8,-1,10,12,-1,-1,-1,-1,-1],"split_conditions":[3.8966273E-3,-3.003303E-1,-3.003303E-1,-2.600858E-2,3.096559E-1,