{"learner":{"attributes":{"scikit_learn":"{\"_estimator_type\": \"classifier\"}"},"feature_names":[],"feature_types":[],"gradient_booster":{"model":{"cats":{"enc":[],"feature_segments":[],"sorted_idx":[]},"gbtree_model_param":{"num_parallel_tree":"1","num_trees":"1200"},"iteration_indptr":[0,3,6,9,12,15,18,21,24,27,30,33,36,39,42,45,48,51,54,57,60,63,66,69,72,75,78,81,84,87,90,93,96,99,102,105,108,111,114,117,120,123,126,129,132,135,138,141,144,147,150,153,156,159,162,165,168,171,174,177,180,183,186,189,192,195,198,201,204,207,210,213,216,219,222,225,228,231,234,237,240,243,246,249,252,255,258,261,264,267,270,273,276,279,282,285,288,291,294,297,300,303,306,309,312,315,318,321,324,327,330,333,336,339,342,345,348,351,354,357,360,363,366,369,372,375,378,381,384,387,390,393,396,399,402,405,408,411,414,417,420,423,426,429,432,435,438,441,444,447,450,453,456,459,462,465,468,471,474,477,480,483,486,489,492,495,498,501,504,507,510,513,516,519,522,525,528,531,534,537,540,543,546,549,552,555,558,561,564,567,570,573,576,579,582,585,588,591,594,597,600,603,606,609,612,615,618,621,624,627,630,633,636,639,642,645,648,651,654,657,660,663,666,669,672,675,678,681,684,687,690,693,696,699,702,705,708,711,714,717,720,723,726,729,732,735,738,741,744,747,750,753,756,759,762,765,768,771,774,777,780,783,786,789,792,795,798,801,804,807,810,813,816,819,822,825,828,831,834,837,840,843,846,849,852,855,858,861,864,867,870,873,876,879,882,885,888,891,894,897,900,903,906,909,912,915,918,921,924,927,930,933,936,939,942,945,948,951,954,957,960,963,966,969,972,975,978,981,984,987,990,993,996,999,1002,1005,1008,1011,1014,1017,1020,1023,1026,1029,1032,1035,1038,1041,1044,1047,1050,1053,1056,1059,1062,1065,1068,1071,1074,1077,1080,1083,1086,1089,1092,1095,1098,1101,1104,1107,1110,1113,1116,1119,1122,1125,1128,1131,1134,1137,1140,1143,1146,1149,1152,1155,1158,1161,1164,1167,1170,1173,1176,1179,1182,1185,1188,1191,1194,1197,1200],"tree_info":[0,1,2,0,1,2,0,1,2,0,1,2,0,1,2,0,1,2,0,1,2,0,1,2,0,1,2,0,1,2,0,1,2,0,1,2,0,1,2,0,1,2,0,1,2,0,1,2,0,1,2,0,1,2,0,1,2,0,1,2,0,1,2,0,1,2,0,1,2,0,1,2,0,1,2,0,1,2,0,1,2,0,1,2,0,1,2,0,1,2,0,1,2,0,1,2,0,1,2,0,1,2,0,1,2,0,1,2,0,1,2,0,1,2,0,1,2,0,1,2,0,1,2,0,1,2,0,1,2,0,1,2,0,1,2,0,1,2,0,1,2,0,1,2,0,1,2,0,1,2,0,1,2,0,1,2,0,1,2,0,1,2,0,1,2,0,1,2,0,1,2,0,1,2,0,1,2,0,1,2,0,1,2,0,1,2,0,1,2,0,1,2,0,1,2,0,1,2,0,1,2,0,1,2,0,1,2,0,1,2,0,1,2,0,1,2,0,1,2,0,1,2,0,1,2,0,1,2,0,1,2,0,1,2,0,1,2,0,1,2,0,1,2,0,1,2,0,1,2,0,1,2,0,1,2,0,1,2,0,1,2,0,1,2,0,1,2,0,1,2,0,1,2,0,1,2,0,1,2,0,1,2,0,1,2,0,1,2,0,1,2,0,1,2,0,1,2,0,1,2,0,1,2,0,1,2,0,1,2,0,1,2,0,1,2,0,1,2,0,1,2,0,1,2,0,1,2,0,1,2,0,1,2,0,1,2,0,1,2,0,1,2,0,1,2,0,1,2,0,1,2,0,1,2,0,1,2,0,1,2,0,1,2,0,1,2,0,1,2,0,1,2,0,1,2,0,1,2,0,1,2,0,1,2,0,1,2,0,1,2,0,1,2,0,1,2,0,1,2,0,1,2,0,1,2,0,1,2,0,1,2,0,1,2,0,1,2,0,1,2,0,1,2,0,1,2,0,1,2,0,1,2,0,1,2,0,1,2,0,1,2,0,1,2,0,1,2,0,1,2,0,1,2,0,1,2,0,1,2,0,1,2,0,1,2,0,1,2,0,1,2,0,1,2,0,1,2,0,1,2,0,1,2,0,1,2,0,1,2,0,1,2,0,1,2,0,1,2,0,1,2,0,1,2,0,1,2,0,1,2,0,1,2,0,1,2,0,1,2,0,1,2,0,1,2,0,1,2,0,1,2,0,1,2,0,1,2,0,1,2,0,1,2,0,1,2,0,1,2,0,1,2,0,1,2,0,1,2,0,1,2,0,1,2,0,1,2,0,1,2,0,1,2,0,1,2,0,1,2,0,1,2,0,1,2,0,1,2,0,1,2,0,1,2,0,1,2,0,1,2,0,1,2,0,1,2,0,1,2,0,1,2,0,1,2,0,1,2,0,1,2,0,1,2,0,1,2,0,1,2,0,1,2,0,1,2,0,1,2,0,1,2,0,1,2,0,1,2,0,1,2,0,1,2,0,1,2,0,1,2,0,1,2,0,1,2,0,1,2,0,1,2,0,1,2,0,1,2,0,1,2,0,1,2,0,1,2,0,1,2,0,1,2,0,1,2,0,1,2,0,1,2,0,1,2,0,1,2,0,1,2,0,1,2,0,1,2,0,1,2,0,1,2,0,1,2,0,1,2,0,1,2,0,1,2,0,1,2,0,1,2,0,1,2,0,1,2,0,1,2,0,1,2,0,1,2,0,1,2,0,1,2,0,1,2,0,1,2,0,1,2,0,1,2,0,1,2,0,1,2,0,1,2,0,1,2,0,1,2,0,1,2,0,1,2,0,1,2,0,1,2,0,1,2,0,1,2,0,1,2,0,1,2,0,1,2,0,1,2,0,1,2,0,1,2,0,1,2,0,1,2,0,1,2,0,1,2,0,1,2,0,1,2,0,1,2,0,1,2,0,1,2,0,1,2,0,1,2,0,1,2,0,1,2,0,1,2,0,1,2,0,1,2,0,1,2,0,1,2,0,1,2,0,1,2,0,1,2,0,1,2,0,1,2,0,1,2,0,1,2,0,1,2,0,1,2,0,1,2,0,1,2,0,1,2,0,1,2,0,1,2,0,1,2,0,1,2,0,1,2,0,1,2,0,1,2,0,1,2,0,1,2,0,1,2,0,1,2,0,1,2,0,1,2,0,1,2,0,1,2,0,1,2,0,1,2,0,1,2,0,1,2,0,1,2,0,1,2,0,1,2,0,1,2,0,1,2,0,1,2,0,1,2,0,1,2,0,1,2,0,1,2,0,1,2,0,1,2,0,1,2,0,1,2,0,1,2,0,1,2,0,1,2,0,1,2,0,1,2,0,1,2,0,1,2,0,1,2,0,1,2,0,1,2,0,1,2,0,1,2,0,1,2,0,1,2,0,1,2,0,1,2,0,1,2,0,1,2,0,1,2,0,1,2,0,1,2,0,1,2,0,1,2,0,1,2,0,1,2,0,1,2,0,1,2,0,1,2,0,1,2,0,1,2,0,1,2,0,1,2,0,1,2,0,1,2,0,1,2,0,1,2,0,1,2,0,1,2,0,1,2,0,1,2,0,1,2,0,1,2,0,1,2,0,1,2,0,1,2,0,1,2,0,1,2,0,1,2,0,1,2,0,1,2,0,1,2,0,1,2,0,1,2,0,1,2,0,1,2,0,1,2,0,1,2,0,1,2,0,1,2,0,1,2,0,1,2,0,1,2],"trees":[{"base_weights":[-2.6606728E-4,-5.4591703E-1,5.899133E-1,-2.7322529E-2,-4.7731036E-1,-2.7320951E-2,1.5923615E0,-0E0,-4.8076412E-1,5.846311E0,-5.11487E-1,9.684338E-3,-4.133864E-3,-2.7011344E-2,-2.09704E-2,2.1968214E-1,2.9392764E-1,1.2796928E-1,-2.7320016E-2],"categories":[],"categories_nodes":[],"categories_segments":[],"categories_sizes":[],"default_left":[0,0,0,0,0,0,0,0,0,0,0,0,0,0,0,0,0,0,0],"id":0,"left_children":[1,3,5,-1,7,-1,9,11,13,15,17,-1,-1,-1,-1,-1,-1,-1,-1],"loss_changes":[3.947923E4,1.046875E0,6.7088E4,0E0,9.092636E-1,0E0,2.8004903E5,1.01174176E-1,6.763611E-1,4.4884375E2,2.2441401E3,0E0,0E0,0E0,0E0,0E0,0E0,0E0,0E0],"parents":[2147483647,0,0,1,1,2,2,4,4,6,6,7,7,8,8,9,9,10,10],"right_children":[2,4,6,-1,8,-1,10,12,14,16,18,-1,-1,-1,-1,-1,-1,-1,-1],"split_conditions":[6.741172E-4,-1.1724107E-2,-3.0329806E-1,-2.7322529E-2,-3.550899E0,-2.7320951E-2,2.936663E-1,-7.0324886E-1,-2.3659132E-1,-2.9027468E-1,3.065875E-1,9.684338E-3,-4.133864E-3,-2.7011344E-2,-2.09704E-2,2.1968214E-1,2.9392764E-1,1.2796928E-1,-2.7320016E-2],"split_indices":[47,47,8,0,37,0,8,4,8,8,8,0,0,0,0,0,0,0,0],"split_type":[0,0,0,0,0,0,0,0,0,0,0,0,0,0,0,0,0,0,0],"sum_hessian":[1.2259228E5,6.370008E4,5.8892203E4,6.3187137E4,5.129397E2,2.7602568E4,3.1289633E4,3.423748E0,5.0951596E2,1.0353569E4,2.0936064E4,1.0893744E0,2.3343737E0,2.4650986E2,2.630061E2,2.2845737E2,1.0125112E4,2.3421548E2,2.0701848E4],"tree_param":{"num_deleted":"0","num_feature":"128","num_nodes":"19","size_leaf_vector":"1"}},{"base_weights":[7.551995E-4,5.1073074E-1,-2.7524114E-2,-2.7522912E-2,1.4440223E0,5.4125476E0,-5.18596E-1,1.9600196E-1,2.7230182E-1,1.1554741E-1,-2.7522115E-2],"categories":[],"categories_nodes":[],"categories_segments":[],"categories_sizes":[],"default_left":[0,0,0,0,0,0,0,0,0,0,0],"id":1,"left_children":[1,3,-1,-1,5,7,9,-1,-1,-1,-1],"loss_changes":[3.689612E4,6.752369E4,0E0,0E0,2.825428E5,5.6925E2,2.1867002E3,0E0,0E0,0E0,0E0],"parents":[2147483647,0,0,1,1,4,4,5,5,6,6],"right_children":[2,4,-1,-1,6,8,10,-1,-1,-1,-1],"split_conditions":[6.741172E-4,-3.0329806E-1,-2.7524114E-2,-2.7522912E-2,2.936663E-1,-2.9027468E-1,3.065875E-1,1.9600196E-1,2.7230182E-1,1.1554741E-1,-2.7522115E-2],"split_indices":[47,8,0,0,8,8,8,0,0,0,0],"split_type":[0,0,0,0,0,0,0,0,0,0,0],"sum_hessian":[1.3124611E5,6.817558E4,6.3070527E4,3.1901578E4,3.6274004E4,1.2002673E4,2.427133E4,2.6665198E2,1.17360205E4,2.689852E2,2.4002346E4],"tree_param":{"num_deleted":"0","num_feature":"128","num_nodes":"11","size_leaf_vector":"1"}},{"base_weights":[-7.298448E-4,3.0368218E-2,-5.3682506E-1,-2.8094091E0,5.889761E-1,-1.9860055E0,-1.4140491E-1,-1.0672059E0,3.0367969E-2,-1.2550789E-2,-9.9427484E-2,2.7489455E-3,-5.376906E-2],"categories":[],"categories_nodes":[],"categories_segments":[],"categories_sizes":[],"default_left":[0,0,0,0,0,0,0,0,0,0,0,0,0],"id":2,"left_children":[1,-1,3,5,7,9,-1,11,-1,-1,-1,-1,-1],"loss_changes":[7.469289E4,0E0,3.1155156E5,6.10375E2,2.479463E3,1.2329102E0,0E0,9.278564E0,0E0,0E0,0E0,0E0,0E0],"parents":[2147483647,0,0,2,2,3,3,4,4,5,5,7,7],"right_children":[2,-1,4,6,8,10,-1,12,-1,-1,-1,-1,-1],"split_conditions":[-3.0329806E-1,3.0368218E-2,2.936663E-1,-2.9027468E-1,3.065875E-1,-9.0452445E-1,-1.4140491E-1,-8.8176453E-1,3.0367969E-2,-1.2550789E-2,-9.9427484E-2,2.7489455E-3,-5.376906E-2],"split_indices":[8,0,8,8,8,31,0,32,0,0,0,0,0],"split_type":[0,0,0,0,0,0,0,0,0,0,0,0,0],"sum_hessian":[2.2912005E5,1.0735031E5,1.21769734E5,4.0339105E4,8.143063E4,8.9883075E2,3.9440273E4,8.927182E2,8.0537914E4,2.037505E0,8.967932E2,5.5303707E0,8.8718787E2],"tree_param":{"num_deleted":"0","num_feature":"128","num_nodes":"13","size_leaf_vector":"1"}},{"base_weights":[-3.7843408E-3,-5.445194E-1,5.467385E-1,-2.7256487E-2,-4.672827E-1,-2.7203014E-2,1.3827118E0,-2.6892776E-2,-3.984216E-1,3.9726954E0,-2.7202034E-2,-6.1624697E-3,-2.6783004E-2,2.0034699E-1,1.0534135E-1],"categories":[],"categories_nodes":[],"categories_segments":[],"categories_sizes":[],"default_left":[0,0,0,0,0,0,0,0,0,0,0,0,0,0,0],"id":3,"left_children":[1,3,5,-1,7,-1,9,-1,11,13,-1,-1,-1,-1,-1],"loss_changes":[3.662903E4,1.6582031E0,5.559883E4,0E0,1.310936E0,0E0,1.7225728E5,0E0,9.373032E0,9.2628125E2,0E0,0E0,0E0,0E0,0E0],"parents":[2147483647,0,0,1,1,2,2,4,4,6,6,8,8,9,9],"right_children":[2,4,6,-1,8,-1,10,-1,12,14,-1,-1,-1,-1,-1],"split_conditions":[6.741172E-4,-1.1724107E-2,-3.0329806E-1,-2.7256487E-2,-2.4981557E-1,-2.7203014E-2,3.065875E-1,-2.6892776E-2,2.936663E-1,2.936663E-1,-2.7202034E-2,-6.1624697E-3,-2.6783004E-2,2.0034699E-1,1.0534135E-1],"split_indices":[47,47,8,0,8,0,8,0,8,8,0,0,0,0,0],"split_type":[0,0,0,0,0,0,0,0,0,0,0,0,0,0,0],"sum_hessian":[1.2304345E5,6.207445E4,6.0969E4,6.1568938E4,5.05513E2,2.64524E4,3.4516598E4,2.3911821E2,2.6639478E2,1.4723884E4,1.9792715E4,9.170496E1,1.746898E2,1.4456872E4,2.6701196E2],"tree_param":{"num_deleted":"0","num_feature":"128","num_nodes":"15","size_leaf_vector":"1"}},{"base_weights":[-3.220976E-3,4.7423202E-1,-2.74512E-2,-2.7393345E-2,1.2636281E0,3.7583938E0,-2.7392492E-2,1.8957464E-1,1.0004264E-1],"categories":[],"categories_nodes":[],"categories_segments":[],"categories_sizes":[],"default_left":[0,0,0,0,0,0,0,0,0],"id":4,"left_children":[1,3,-1,-1,5,7,-1,-1,-1],"loss_changes":[3.430017E4,5.6646504E4,0E0,0E0,1.7902561E5,9.5603125E2,0E0,0E0,0E0],"parents":[2147483647,0,0,1,1,4,4,5,5],"right_children":[2,4,-1,-1,6,8,-1,-1,-1],"split_conditions":[6.741172E-4,-3.0329806E-1,-2.74512E-2,-2.7393345E-2,3.065875E-1,2.936663E-1,-2.7392492E-2,1.8957464E-1,1.0004264E-1],"split_indices":[47,8,0,0,8,8,0,0,0],"split_type":[0,0,0,0,0,0,0,0,0],"sum_hessian":[1.3162011E5,7.020503E4,6.141507E4,3.0592861E4,3.9612168E4,1.666316E4,2.294901E4,1.6353456E4,3.0970337E2],"tree_param":{"num_deleted":"0","num_feature":"128","num_nodes":"9","size_leaf_vector":"1"}},{"base_weights":[3.1691466E-3,3.0066697E-2,-4.86383E-1,-2.2191486E0,3.0066503E-2,-2.2448094E0,-9.3177205E-1,-8.262349E-2,-1.128848E-1,-0E0,-4.7059968E-2],"categories":[],"categories_nodes":[],"categories_segments":[],"categories_sizes":[],"default_left":[0,0,0,0,0,0,0,0,0,0,0],"id":5,"left_children":[1,-1,3,5,-1,7,9,-1,-1,-1,-1],"loss_changes":[6.728012E4,0E0,2.3813739E5,1.604375E3,0E0,3.5703125E2,7.7735596E0,0E0,0E0,0E0,0E0],"parents":[2147483647,0,0,2,2,3,3,5,5,6,6],"right_children":[2,-1,4,6,-1,8,10,-1,-1,-1,-1],"split_conditions":[-3.0329806E-1,3.0066697E-2,3.065875E-1,2.936663E-1,3.0066503E-2,-2.9027468E-1,-3.5787177E0,-8.262349E-2,-1.128848E-1,-0E0,-4.7059968E-2],"split_indices":[8,0,8,8,0,8,40,0,0,0,0],"split_type":[0,0,0,0,0,0,0,0,0,0,0],"sum_hessian":[2.2975367E5,1.03406766E5,1.263469E5,4.872543E4,7.762147E4,4.7771703E4,9.5372784E2,1.0215664E3,4.6750137E4,1.0254712E1,9.4347314E2],"tree_param":{"num_deleted":"0","num_feature":"128","num_nodes":"11","size_leaf_vector":"1"}},{"base_weights":[-5.706831E-3,-5.4321206E-1,5.1265067E-1,-2.7188579E-2,-4.715478E-1,-4.847347E-1,1.0501336E0,-0E0,-4.7520664E-1,-5.163801E-1,3.991724E-1,2.0470066E0,-1.892798E-1,9.277717E-3,-1.0718774E-4,-0E0,-2.385444E-2,-2.6769236E-2,5.856737E-3,-1.3869521E-2,1.3647708E-1,2.8395966E-2,1.11737326E-1,8.572139E-2,-2.141011E-2],"categories":[],"categories_nodes":[],"categories_segments":[],"categories_sizes":[],"default_left":[0,0,0,0,0,0,0,0,0,0,0,0,0,0,0,0,0,0,0,0,0,0,0,0,0],"id":6,"left_children":[1,3,5,-1,7,9,11,13,15,17,19,21,23,-1,-1,-1,-1,-1,-1,-1,-1,-1,-1,-1,-1],"loss_changes":[3.42409E4,1.1464844E0,3.353845E4,0E0,1.0264282E0,6.131138E2,5.023184E4,7.266281E-2,5.8999634E-1,2.5514502E2,1.1962412E3,6.252742E3,8.242428E3,0E0,0E0,0E0,0E0,0E0,0E0,0E0,0E0,0E0,0E0,0E0,0E0],"parents":[2147483647,0,0,1,1,2,2,4,4,5,5,6,6,7,7,8,8,9,9,10,10,11,11,12,12],"right_children":[2,4,6,-1,8,10,12,14,16,18,20,22,24,-1,-1,-1,-1,-1,-1,-1,-1,-1,-1,-1,-1],"split_conditions":[6.741172E-4,-1.1724107E-2,-5.1457494E-1,-2.7188579E-2,-3.550899E0,-3.1682684E-3,3.4152737E-1,-1.2959099E-1,-9.628522E-1,-2.5846395E-1,-4.9978817E-1,-7.913711E-1,-1.2959099E-1,9.277717E-3,-1.0718774E-4,-0E0,-2.385444E-2,-2.6769236E-2,5.856737E-3,-1.3869521E-2,1.3647708E-1,2.8395966E-2,1.11737326E-1,8.572139E-2,-2.141011E-2],"split_indices":[47,47,13,0,37,7,13,7,26,9,9,7,7,0,0,0,0,0,0,0,0,0,0,0,0],"split_type":[0,0,0,0,0,0,0,0,0,0,0,0,0,0,0,0,0,0,0,0,0,0,0,0,0],"sum_hessian":[1.2289257E5,6.03329E4,6.255967E4,5.9845145E4,4.877543E2,2.190664E4,4.065303E4,2.9520583E0,4.8480222E2,2.115095E4,7.556922E2,2.253115E4,1.812188E4,1.1100458E0,1.8420125E0,1.2333212E0,4.835689E2,2.053661E4,6.1433887E2,5.860108E2,1.6968135E2,2.5388057E3,1.9992344E4,2.0195962E3,1.6102284E4],"tree_param":{"num_deleted":"0","num_feature":"128","num_nodes":"25","size_leaf_vector":"1"}},{"base_weights":[-5.397324E-3,-2.7271902E-2,4.0058526E-1,1.6236491E0,-2.7271444E-2,1.9681374E0,-1.041267E-1,1.4547199E-1,8.262755E-2,-2.2053925E-2,7.686571E-2],"categories":[],"categories_nodes":[],"categories_segments":[],"categories_sizes":[],"default_left":[0,0,0,0,0,0,0,0,0,0,0],"id":7,"left_children":[1,-1,3,5,-1,7,9,-1,-1,-1,-1],"loss_changes":[2.8846307E4,0E0,8.690191E4,1.9499008E4,0E0,8.1040312E3,3.0116465E3,0E0,0E0,0E0,0E0],"parents":[2147483647,0,0,2,2,3,3,5,5,6,6],"right_children":[2,-1,4,6,-1,8,10,-1,-1,-1,-1],"split_conditions":[-3.0329806E-1,-2.7271902E-2,3.065875E-1,1.54894E0,-2.7271444E-2,-4.797043E-2,3.1458502E0,1.4547199E-1,8.262755E-2,-2.2053925E-2,7.686571E-2],"split_indices":[8,0,8,48,0,48,48,0,0,0,0],"split_type":[0,0,0,0,0,0,0,0,0,0,0],"sum_hessian":[1.3156717E5,5.6462496E4,7.510467E4,3.275604E4,4.2348633E4,2.731112E4,5.4449194E3,6.854565E3,2.0456555E4,4.5186753E3,9.2624445E2],"tree_param":{"num_deleted":"0","num_feature":"128","num_nodes":"11","size_leaf_vector":"1"}},{"base_weights":[4.58069E-3,2.9784007E-2,-4.5017174E-1,-1.880989E0,2.9783806E-2,-1.9006054E0,-8.5014117E-1,-7.06154E-2,-9.555103E-2,-4.3182604E-2,-1.092744E-2],"categories":[],"categories_nodes":[],"categories_segments":[],"categories_sizes":[],"default_left":[0,0,0,0,0,0,0,0,0,0,0],"id":8,"left_children":[1,-1,3,5,-1,7,9,-1,-1,-1,-1],"loss_changes":[6.1491473E4,0E0,1.9347442E5,1.0996875E3,0E0,2.6645312E2,7.452881E0,0E0,0E0,0E0,0E0],"parents":[2147483647,0,0,2,2,3,3,5,5,6,6],"right_children":[2,-1,4,6,-1,8,10,-1,-1,-1,-1],"split_conditions":[-3.0329806E-1,2.9784007E-2,3.065875E-1,2.936663E-1,2.9783806E-2,-2.9027468E-1,-1.6740254E0,-7.06154E-2,-9.555103E-2,-4.3182604E-2,-1.092744E-2],"split_indices":[8,0,8,8,0,8,2,0,0,0,0],"split_type":[0,0,0,0,0,0,0,0,0,0,0],"sum_hessian":[2.2875708E5,9.946791E4,1.29289164E5,5.4596387E4,7.469278E4,5.3575066E4,1.0213191E3,1.1237139E3,5.2451355E4,9.980189E2,2.3300167E1],"tree_param":{"num_deleted":"0","num_feature":"128","num_nodes":"11","size_leaf_vector":"1"}},{"base_weights":[-4.92534E-3,-5.41949E-1,4.8783287E-1,-2.7126187E-2,-4.6960515E-1,-2.7021954E-2,1.1334145E0,-2.6668204E-2,-4.111051E-1,2.6463835E0,-2.7048716E-2,-1.0149135E-2,-2.6544368E-2,1.3320732E-1,7.768765E-2],"categories":[],"categories_nodes":[],"categories_segments":[],"categories_sizes":[],"default_left":[0,0,0,0,0,0,0,0,0,0,0,0,0,0,0],"id":9,"left_children":[1,3,5,-1,7,-1,9,-1,11,13,-1,-1,-1,-1,-1],"loss_changes":[3.2325912E4,1.1640625E0,4.2289824E4,0E0,6.3378906E-1,0E0,9.914411E4,0E0,5.7364693E0,3.9065625E2,0E0,0E0,0E0,0E0,0E0],"parents":[2147483647,0,0,1,1,2,2,4,4,6,6,8,8,9,9],"right_children":[2,4,6,-1,8,-1,10,-1,12,14,-1,-1,-1,-1,-1],"split_conditions":[6.741172E-4,-1.1724107E-2,-3.0329806E-1,-2.7126187E-2,-2.4981557E-1,-2.7021954E-2,3.065875E-1,-2.6668204E-2,2.936663E-1,2.936663E-1,-2.7048716E-2,-1.0149135E-2,-2.6544368E-2,1.3320732E-1,7.768765E-2],"split_indices":[47,47,8,0,8,0,8,0,8,8,0,0,0,0,0],"split_type":[0,0,0,0,0,0,0,0,0,0,0,0,0,0,0],"sum_hessian":[1.2215624E5,5.8453586E4,6.3702656E4,5.7972664E4,4.8092508E2,2.456868E4,3.9133977E4,2.1805586E2,2.6286923E2,2.0557943E4,1.8576033E4,1.0005909E2,1.6281013E2,2.0226762E4,3.3118268E2],"tree_param":{"num_deleted":"0","num_feature":"128","num_nodes":"15","size_leaf_vector":"1"}},{"base_weights":[-6.3083046E-3,4.33019E-1,-2.7364997E-2,-2.715459E-2,1.0540807E0,2.5112596E0,-2.715367E-2,1.2643181E-1,7.38769E-2],"categories":[],"categories_nodes":[],"categories_segments":[],"categories_sizes":[],"default_left":[0,0,0,0,0,0,0,0,0],"id":10,"left_children":[1,3,-1,-1,5,7,-1,-1,-1],"loss_changes":[3.1129107E4,4.381754E4,0E0,0E0,1.0280967E5,4.071875E2,0E0,0E0,0E0],"parents":[2147483647,0,0,1,1,4,4,5,5],"right_children":[2,4,-1,-1,6,8,-1,-1,-1],"split_conditions":[6.741172E-4,-3.0329806E-1,-2.7364997E-2,-2.715459E-2,3.065875E-1,2.936663E-1,-2.715367E-2,1.2643181E-1,7.38769E-2],"split_indices":[47,8,0,0,8,8,0,0,0],"split_type":[0,0,0,0,0,0,0,0,0],"sum_hessian":[1.3097238E5,7.227655E4,5.8695832E4,2.8104213E4,4.4172336E4,2.309837E4,2.1073967E4,2.2714137E4,3.8423306E2],"tree_param":{"num_deleted":"0","num_feature":"128","num_nodes":"9","size_leaf_vector":"1"}},{"base_weights":[6.2318733E-3,2.9537369E-2,-4.226347E-1,-1.670354E0,2.9551445E-2,-1.6878153E0,-7.332848E-1,-6.315937E-2,-8.483661E-2,-1.8973289E-2,-3.7752908E-2],"categories":[],"categories_nodes":[],"categories_segments":[],"categories_sizes":[],"default_left":[0,0,0,0,0,0,0,0,0,0,0],"id":11,"left_children":[1,-1,3,5,-1,7,9,-1,-1,-1,-1],"loss_changes":[5.68736E4,0E0,1.6551103E5,9.5615625E2,0E0,2.1292188E2,6.8672485E0,0E0,0E0,0E0,0E0],"parents":[2147483647,0,0,2,2,3,3,5,5,6,6],"right_children":[2,-1,4,6,-1,8,10,-1,-1,-1,-1],"split_conditions":[-3.0329806E-1,2.9537369E-2,3.065875E-1,2.936663E-1,2.9551445E-2,-2.9027468E-1,-8.945624E-1,-6.315937E-2,-8.483661E-2,-1.8973289E-2,-3.7752908E-2],"split_indices":[8,0,8,8,0,8,31,0,0,0,0],"split_type":[0,0,0,0,0,0,0,0,0,0,0],"sum_hessian":[2.268754E5,9.6015234E4,1.3086017E5,5.865815E4,7.220202E4,5.7583273E4,1.074873E3,1.1895652E3,5.639371E4,6.604188E1,1.0088312E3],"tree_param":{"num_deleted":"0","num_feature":"128","num_nodes":"11","size_leaf_vector":"1"}},{"base_weights":[-6.2742247E-3,-5.404868E-1,4.6200833E-1,-2.7058331E-2,-4.5605415E-1,-2.6919499E-2,1.0341706E0,-1.7897266E-1,-4.7094065E-1,2.2396307E0,-2.6945073E-2,-1.5473901E-2,9.446905E-3,-1.7438835E-3,-2.3826707E-2,1.12671696E-1,6.81176E-2],"categories":[],"categories_nodes":[],"categories_segments":[],"categories_sizes":[],"default_left":[0,0,0,0,0,0,0,0,0,0,0,0,0,0,0,0,0],"id":12,"left_children":[1,3,5,-1,7,-1,9,11,13,15,-1,-1,-1,-1,-1,-1,-1],"loss_changes":[3.0313191E4,2.0058594E0,3.696053E4,0E0,1.2052155E0,0E0,7.789814E4,1.5719752E0,5.504837E-1,2.749453E2,0E0,0E0,0E0,0E0,0E0,0E0,0E0],"parents":[2147483647,0,0,1,1,2,2,4,4,6,6,7,7,8,8,9,9],"right_children":[2,4,6,-1,8,-1,10,12,14,16,-1,-1,-1,-1,-1,-1,-1],"split_conditions":[6.741172E-4,-1.1724107E-2,-3.0329806E-1,-2.7058331E-2,-8.378156E-1,-2.6919499E-2,3.065875E-1,-1.5517168E0,-9.617041E-1,2.936663E-1,-2.6945073E-2,-1.5473901E-2,9.446905E-3,-1.7438835E-3,-2.3826707E-2,1.12671696E-1,6.81176E-2],"split_indices":[47,47,8,0,33,0,8,0,26,8,0,0,0,0,0,0,0],"split_type":[0,0,0,0,0,0,0,0,0,0,0,0,0,0,0,0,0],"sum_hessian":[1.2117171E5,5.6602293E4,6.4569414E4,5.61331E4,4.6918896E2,2.3492398E4,4.1077016E4,2.8011406E1,4.4117755E2,2.3255965E4,1.7821053E4,2.2800488E1,5.2109194E0,7.9432673E0,4.3323428E2,2.2893053E4,3.6291174E2],"tree_param":{"num_deleted":"0","num_feature":"128","num_nodes":"17","size_leaf_vector":"1"}},{"base_weights":[-9.454549E-3,4.0868846E-1,-2.72947E-2,-4.3077555E-1,6.641926E-1,-5.2767366E-1,1.3294784E0,1.0137998E0,-4.1691947E-1,-2.6905967E-2,-0E0,-1.3159345E-3,9.216017E-2,-1.2250919E-2,6.3790254E-2,6.9735214E-2,-2.6358977E-2],"categories":[],"categories_nodes":[],"categories_segments":[],"categories_sizes":[],"default_left":[0,0,0,0,0,0,0,0,0,0,0,0,0,0,0,0,0],"id":13,"left_children":[1,3,-1,5,7,9,11,13,15,-1,-1,-1,-1,-1,-1,-1,-1],"loss_changes":[2.9081648E4,1.5627407E4,0E0,2.8995908E3,2.1113271E4,8.8645996E1,6.194977E2,1.3922734E4,2.7263064E3,0E0,0E0,0E0,0E0,0E0,0E0,0E0,0E0],"parents":[2147483647,0,0,1,1,3,3,4,4,5,5,6,6,7,7,8,8],"right_children":[2,4,-1,6,8,10,12,14,16,-1,-1,-1,-1,-1,-1,-1,-1],"split_conditions":[6.741172E-4,-8.825368E-1,-2.72947E-2,6.0744077E-1,8.910543E-1,4.0865165E-1,-1.0608529E0,-7.550313E-1,-3.6337584E-1,-2.6905967E-2,-0E0,-1.3159345E-3,9.216017E-2,-1.2250919E-2,6.3790254E-2,6.9735214E-2,-2.6358977E-2],"split_indices":[47,7,0,10,7,10,7,10,10,0,0,0,0,0,0,0,0],"split_type":[0,0,0,0,0,0,0,0,0,0,0,0,0,0,0,0,0],"sum_hessian":[1.2964769E5,7.285621E4,5.679148E4,1.6999479E4,5.5856734E4,1.6113722E4,8.857566E2,4.2208457E4,1.3648275E4,1.5800303E4,3.134189E2,2.4312245E2,6.4263416E2,7.2709644E3,3.4937492E4,7.818241E2,1.2866451E4],"tree_param":{"num_deleted":"0","num_feature":"128","num_nodes":"17","size_leaf_vector":"1"}},{"base_weights":[8.318502E-3,5.5504113E-1,-2.9322973E-1,5.6809103E-1,-4.060756E-3,-8.735863E-1,3.8491914E-1,5.824495E-1,2.6214048E-1,4.3627498E-1,-1.2118498E0,-4.2579487E-2,-9.8752904E-1,-6.9001925E-1,5.2181065E-1,2.9233916E-2,2.3270039E-2,2.4171336E-2,-5.323353E-2,2.7835727E-2,-7.9944934E-4,-3.0756105E-2,-7.14565E-2,2.185517E-2,-5.8633365E-2,-5.573308E-2,-6.172394E-3,-5.8482505E-2,1.4370083E-2,-3.360361E-2,2.748003E-2],"categories":[],"categories_nodes":[],"categories_segments":[],"categories_sizes":[],"default_left":[0,0,0,0,0,0,0,0,0,0,0,0,0,0,0,0,0,0,0,0,0,0,0,0,0,0,0,0,0,0,0],"id":14,"left_children":[1,3,5,7,9,11,13,15,17,19,21,23,25,27,29,-1,-1,-1,-1,-1,-1,-1,-1,-1,-1,-1,-1,-1,-1,-1,-1],"loss_changes":[3.6916074E4,5.813496E2,5.679941E4,3.4071875E2,9.664822E2,7.3624375E3,9.793216E3,1.8060547E1,1.025167E3,7.29993E1,6.005664E1,5.0856E3,7.511297E3,3.5253928E3,1.9589072E3,0E0,0E0,0E0,0E0,0E0,0E0,0E0,0E0,0E0,0E0,0E0,0E0,0E0,0E0,0E0,0E0],"parents":[2147483647,0,0,1,1,2,2,3,3,4,4,5,5,6,6,7,7,8,8,9,9,10,10,11,11,12,12,13,13,14,14],"right_children":[2,4,6,8,10,12,14,16,18,20,22,24,26,28,30,-1,-1,-1,-1,-1,-1,-1,-1,-1,-1,-1,-1,-1,-1,-1,-1],"split_conditions":[-5.1457494E-1,6.036923E-2,3.2853135E-1,-3.5445723E-1,-5.395281E-1,-7.790774E-1,-1.1456903E-1,-4.2836162E-1,-4.0321136E-1,-6.263479E-1,-4.8978183E-1,2.779082E-1,8.095722E-1,9.5735425E-1,-6.275216E-2,2.9233916E-2,2.3270039E-2,2.4171336E-2,-5.323353E-2,2.7835727E-2,-7.9944934E-4,-3.0756105E-2,-7.14565E-2,2.185517E-2,-5.8633365E-2,-5.573308E-2,-6.172394E-3,-5.8482505E-2,1.4370083E-2,-3.360361E-2,2.748003E-2],"split_indices":[13,7,13,9,9,7,7,9,7,9,9,9,7,9,9,0,0,0,0,0,0,0,0,0,0,0,0,0,0,0,0],"split_type":[0,0,0,0,0,0,0,0,0,0,0,0,0,0,0,0,0,0,0,0,0,0,0,0,0,0,0,0,0,0,0],"sum_hessian":[2.2391578E5,7.959976E4,1.4431603E5,7.7785945E4,1.813815E3,7.77657E4,6.655033E4,7.429506E4,3.490881E3,1.3290725E3,4.8474243E2,9.378273E3,6.838743E4,7.516419E3,5.9033906E4,7.28945E4,1.4005641E3,2.9930825E3,4.977985E2,1.0511323E3,2.7794022E2,1.316416E2,3.5310083E2,6.583525E3,2.7947488E3,5.961483E4,8.7726E3,5.042726E3,2.4736929E3,1.3415261E3,5.769238E4],"tree_param":{"num_deleted":"0","num_feature":"128","num_nodes":"31","size_leaf_vector":"1"}},{"base_weights":[-7.7244635E-3,-2.6822373E-2,3.3012208E-1,1.1365871E0,-2.6837593E-2,-4.8740256E-1,1.3432184E0,-2.5946219E-2,-2.2642802E-2,5.5807855E-2,9.314228E-2],"categories":[],"categories_nodes":[],"categories_segments":[],"categories_sizes":[],"default_left":[0,0,0,0,0,0,0,0,0,0,0],"id":15,"left_children":[1,-1,3,5,-1,7,9,-1,-1,-1,-1],"loss_changes":[2.1415273E4,0E0,5.1137742E4,1.2717539E4,0E0,3.451233E0,3.9613906E3,0E0,0E0,0E0,0E0],"parents":[2147483647,0,0,2,2,3,3,5,5,6,6],"right_children":[2,-1,4,6,-1,8,10,-1,-1,-1,-1],"split_conditions":[-3.0329806E-1,-2.6822373E-2,3.065875E-1,-4.797043E-2,-2.6837593E-2,-5.3910296E-2,1.54894E0,-2.5946219E-2,-2.2642802E-2,5.5807855E-2,9.314228E-2],"split_indices":[8,0,8,48,0,46,48,0,0,0,0],"split_type":[0,0,0,0,0,0,0,0,0,0,0],"sum_hessian":[1.1988491E5,4.6740047E4,7.314485E4,3.7893156E4,3.52517E4,4.2764883E3,3.3616668E4,2.2136692E3,2.062819E3,2.3397668E4,1.0219001E4],"tree_param":{"num_deleted":"0","num_feature":"128","num_nodes":"11","size_leaf_vector":"1"}},{"base_weights":[-8.309239E-3,-2.6977127E-2,3.310682E-1,1.1462456E0,-2.69983E-2,1.3586037E0,-1.4312716E-1,9.449435E-2,5.813495E-2,-2.2373434E-2,5.430764E-2],"categories":[],"categories_nodes":[],"categories_segments":[],"categories_sizes":[],"default_left":[0,0,0,0,0,0,0,0,0,0,0],"id":16,"left_children":[1,-1,3,5,-1,7,9,-1,-1,-1,-1],"loss_changes":[2.318705E4,0E0,5.5721812E4,1.1101047E4,0E0,3.617414E3,2.1445544E3,0E0,0E0,0E0,0E0],"parents":[2147483647,0,0,2,2,3,3,5,5,6,6],"right_children":[2,-1,4,6,-1,8,10,-1,-1,-1,-1],"split_conditions":[-3.0329806E-1,-2.6977127E-2,3.065875E-1,1.54894E0,-2.69983E-2,-4.797043E-2,3.1458502E0,9.449435E-2,5.813495E-2,-2.2373434E-2,5.430764E-2],"split_indices":[8,0,8,48,0,48,48,0,0,0,0],"split_type":[0,0,0,0,0,0,0,0,0,0,0],"sum_hessian":[1.2860759E5,5.0134133E4,7.847346E4,4.05369E4,3.7936562E4,3.4805242E4,5.7316577E3,9.372845E3,2.5432396E4,4.5953936E3,1.1362644E3],"tree_param":{"num_deleted":"0","num_feature":"128","num_nodes":"11","size_leaf_vector":"1"}},{"base_weights":[7.355936E-3,5.4920393E-1,-2.8038526E-1,5.7409227E-1,2.4580558E-1,-8.092215E-1,3.8670442E-1,5.791666E-1,4.401841E-1,4.024615E-1,-4.877878E-1,-1.7457777E-1,-8.934893E-1,2.0342667E-2,5.4008377E-1,2.9039232E-2,2.7518485E-2,2.6937936E-2,-1.2850503E-2,2.3870703E-2,7.4261683E-3,1.8956384E-2,-3.9773673E-2,1.394147E-2,-2.5694216E-2,-5.099398E-2,-2.1491285E-2,-2.9428411E-2,2.382088E-2,2.7974775E-2,-4.6854788E-3],"categories":[],"categories_nodes":[],"categories_segments":[],"categories_sizes":[],"default_left":[0,0,0,0,0,0,0,0,0,0,0,0,0,0,0,0,0,0,0,0,0,0,0,0,0,0,0,0,0,0,0],"id":17,"left_children":[1,3,5,7,9,11,13,15,17,19,21,23,25,27,29,-1,-1,-1,-1,-1,-1,-1,-1,-1,-1,-1,-1,-1,-1,-1,-1],"loss_changes":[3.4483414E4,5.783086E2,5.096241E4,4.690039E1,6.690328E2,4.308168E3,3.5889023E3,1.7304688E0,1.7908884E2,9.062671E1,2.7374625E2,1.4538691E3,4.166668E3,5.2360767E3,5.544697E2,0E0,0E0,0E0,0E0,0E0,0E0,0E0,0E0,0E0,0E0,0E0,0E0,0E0,0E0,0E0,0E0],"parents":[2147483647,0,0,1,1,2,2,3,3,4,4,5,5,6,6,7,7,8,8,9,9,10,10,11,11,12,12,13,13,14,14],"right_children":[2,4,6,8,10,12,14,16,18,20,22,24,26,28,30,-1,-1,-1,-1,-1,-1,-1,-1,-1,-1,-1,-1,-1,-1,-1,-1],"split_conditions":[-5.1457494E-1,-4.5880383E-1,3.4152737E-1,-5.6932557E-1,1.9416685E-1,-4.014216E-1,6.69636E-1,-5.8796287E-1,1.292174E0,-6.271439E-1,-6.637206E-1,-1.1812962E-1,1.5538502E-1,-4.9803667E-3,1.0533099E0,2.9039232E-2,2.7518485E-2,2.6937936E-2,-1.2850503E-2,2.3870703E-2,7.4261683E-3,1.8956384E-2,-3.9773673E-2,1.394147E-2,-2.5694216E-2,-5.099398E-2,-2.1491285E-2,-2.9428411E-2,2.382088E-2,2.7974775E-2,-4.6854788E-3],"split_indices":[13,9,13,13,5,13,13,9,20,5,13,20,13,5,21,0,0,0,0,0,0,0,0,0,0,0,0,0,0,0,0],"split_type":[0,0,0,0,0,0,0,0,0,0,0,0,0,0,0,0,0,0,0,0,0,0,0,0,0,0,0,0,0,0,0],"sum_hessian":[2.2116861E5,7.6712734E4,1.4445588E5,7.089306E4,5.819673E3,8.057847E4,6.387741E4,6.829432E4,2.5987383E3,4.797089E3,1.0225844E3,9.44682E3,7.113165E4,1.885294E4,4.5024473E4,6.4610145E4,3.684178E3,2.2782795E3,3.2045883E2,3.700136E3,1.0969528E3,2.6695285E2,7.5563153E2,4.0423528E3,5.404468E3,5.589253E4,1.5239117E4,8.0726157E3,1.0780324E4,4.368809E4,1.3363796E3],"tree_param":{"num_deleted":"0","num_feature":"128","num_nodes":"31","size_leaf_vector":"1"}},{"base_weights":[-5.7784445E-3,-2.675054E-2,3.1733224E-1,1.0506727E0,-2.677087E-2,9.273681E-1,1.1823893E0,4.2857803E-2,4.98318E-2,5.9617914E-2,2.850613E-2],"categories":[],"categories_nodes":[],"categories_segments":[],"categories_sizes":[],"default_left":[0,0,0,0,0,0,0,0,0,0,0],"id":18,"left_children":[1,-1,3,5,-1,7,9,-1,-1,-1,-1],"loss_changes":[2.0332518E4,0E0,4.6169086E4,6.4146484E2,0E0,9.703906E1,1.146543E2,0E0,0E0,0E0,0E0],"parents":[2147483647,0,0,2,2,3,3,5,5,6,6],"right_children":[2,-1,4,6,-1,8,10,-1,-1,-1,-1],"split_conditions":[-3.0329806E-1,-2.675054E-2,3.065875E-1,8.728005E-3,-2.677087E-2,-5.411789E-1,2.936663E-1,4.2857803E-2,4.98318E-2,5.9617914E-2,2.850613E-2],"split_indices":[8,0,8,46,0,46,8,0,0,0,0],"split_type":[0,0,0,0,0,0,0,0,0,0,0],"sum_hessian":[1.18899914E5,4.5074125E4,7.382578E4,3.9692395E4,3.413339E4,2.0508906E4,1.9183486E4,1.0198848E4,1.031006E4,1.8873604E4,3.0988327E2],"tree_param":{"num_deleted":"0","num_feature":"128","num_nodes":"11","size_leaf_vector":"1"}},{"base_weights":[-6.3072597E-3,3.882765E-1,-5.442067E-1,-2.691721E-2,8.748232E-1,-2.687185E-2,-5.491981E-1,1.8249209E0,-2.6958799E-2,-2.8195355E-2,-2.687934E-2,9.190433E-2,5.1578075E-2],"categories":[],"categories_nodes":[],"categories_segments":[],"categories_sizes":[],"default_left":[0,0,0,0,0,0,0,0,0,0,0,0,0],"id":19,"left_children":[1,3,5,-1,7,-1,9,11,-1,-1,-1,-1,-1],"loss_changes":[2.7054762E4,3.3150637E4,4.3945312E-1,0E0,6.477473E4,0E0,3.8759766E0,2.964375E2,0E0,0E0,0E0,0E0,0E0],"parents":[2147483647,0,0,1,1,2,2,4,4,6,6,7,7],"right_children":[2,4,6,-1,8,-1,10,12,-1,-1,-1,-1,-1],"split_conditions":[6.741172E-4,-3.0329806E-1,-3.0329806E-1,-2.691721E-2,3.065875E-1,-2.687185E-2,3.065875E-1,2.936663E-1,-2.6958799E-2,-2.8195355E-2,-2.687934E-2,9.190433E-2,5.1578075E-2],"split_indices":[47,8,8,0,8,0,8,8,0,0,0,0,0],"split_type":[0,0,0,0,0,0,0,0,0,0,0,0,0],"sum_hessian":[1.27465945E5,7.352734E4,5.39386E4,2.5314365E4,4.8212977E4,2.3022709E4,3.0915895E4,2.88371E4,1.9375877E4,1.3579697E4,1.7336197E4,2.8363834E4,4.7326584E2],"tree_param":{"num_deleted":"0","num_feature":"128","num_nodes":"13","size_leaf_vector":"1"}},{"base_weights":[7.975329E-3,5.7870454E-1,-3.6718172E-1,2.8838202E-2,2.9434452E-2,-1.3086562E0,2.8987592E-2,-1.3222743E0,-5.5841655E-1,-4.774132E-2,-6.650886E-2,-2.8286522E-2,3.909382E-3],"categories":[],"categories_nodes":[],"categories_segments":[],"categories_sizes":[],"default_left":[0,0,0,0,0,0,0,0,0,0,0,0,0],"id":20,"left_children":[1,3,5,-1,-1,7,-1,9,11,-1,-1,-1,-1],"loss_changes":[4.668382E4,1.6796875E-1,1.17285E5,0E0,0E0,6.71375E2,0E0,1.8459375E2,6.021942E0,0E0,0E0,0E0,0E0],"parents":[2147483647,0,0,1,1,2,2,5,5,7,7,8,8],"right_children":[2,4,6,-1,-1,8,-1,10,12,-1,-1,-1,-1],"split_conditions":[-3.0329806E-1,-5.1457494E-1,3.065875E-1,2.8838202E-2,2.9434452E-2,2.936663E-1,2.8987592E-2,-2.9027468E-1,3.6262631E0,-4.774132E-2,-6.650886E-2,-2.8286522E-2,3.909382E-3],"split_indices":[8,13,8,0,0,8,0,8,46,0,0,0,0],"split_type":[0,0,0,0,0,0,0,0,0,0,0,0,0],"sum_hessian":[2.1803047E5,8.6476E4,1.3155447E5,7.253713E4,1.3938873E4,6.596773E4,6.558675E4,6.478959E4,1.178135E3,1.369362E3,6.3420227E4,1.1664163E3,1.1718741E1],"tree_param":{"num_deleted":"0","num_feature":"128","num_nodes":"13","size_leaf_vector":"1"}},{"base_weights":[-6.432922E-3,-5.3911996E-1,4.2849126E-1,-5.39707E-1,-4.673597E-1,-2.6682029E-2,8.8733757E-1,-2.6640514E-2,-5.446693E-1,-0E0,-4.7133103E-1,1.6948678E0,-2.67136E-2,-2.793963E-2,-2.6645979E-2,1.1097872E-2,-2.0626944E-4,-1.070268E-2,-2.4186002E-2,8.5241824E-2,5.2102048E-2],"categories":[],"categories_nodes":[],"categories_segments":[],"categories_sizes":[],"default_left":[0,0,0,0,0,0,0,0,0,0,0,0,0,0,0,0,0,0,0,0,0],"id":21,"left_children":[1,3,5,7,9,-1,11,-1,13,15,17,19,-1,-1,-1,-1,-1,-1,-1,-1,-1],"loss_changes":[2.7187387E4,9.6191406E-1,2.8520605E4,4.2285156E-1,1.0375595E0,0E0,5.0217992E4,0E0,3.6357422E0,9.859318E-2,6.2155914E-1,1.7701562E2,0E0,0E0,0E0,0E0,0E0,0E0,0E0,0E0,0E0],"parents":[2147483647,0,0,1,1,2,2,3,3,4,4,6,6,8,8,9,9,10,10,11,11],"right_children":[2,4,6,8,10,-1,12,-1,14,16,18,20,-1,-1,-1,-1,-1,-1,-1,-1,-1],"split_conditions":[6.741172E-4,-1.1724107E-2,-3.0329806E-1,-3.0329806E-1,-3.550899E0,-2.6682029E-2,3.065875E-1,-2.6640514E-2,3.065875E-1,-1.4030672E0,-8.378156E-1,2.936663E-1,-2.67136E-2,-2.793963E-2,-2.6645979E-2,1.1097872E-2,-2.0626944E-4,-1.070268E-2,-2.4186002E-2,8.5241824E-2,5.2102048E-2],"split_indices":[47,47,8,8,37,0,8,0,8,39,33,8,0,0,0,0,0,0,0,0,0],"split_type":[0,0,0,0,0,0,0,0,0,0,0,0,0,0,0,0,0,0,0,0,0],"sum_hessian":[1.17347164E5,5.2746406E4,6.4600758E4,5.2298133E4,4.4827536E2,2.0859395E4,4.3741363E4,2.2013186E4,3.0284947E4,2.8686516E0,4.454067E2,2.7895902E4,1.584546E4,1.3693438E4,1.659151E4,1.0002875E0,1.868364E0,2.5010828E1,4.2039587E2,2.7473246E4,4.2265622E2],"tree_param":{"num_deleted":"0","num_feature":"128","num_nodes":"21","size_leaf_vector":"1"}},{"base_weights":[-7.111015E-3,-2.6800994E-2,3.0134222E-1,9.6689725E-1,-2.6825828E-2,1.0615048E0,8.3532166E-1,5.3534567E-2,2.6110938E-2,4.220541E-2,1.58928E-2],"categories":[],"categories_nodes":[],"categories_segments":[],"categories_sizes":[],"default_left":[0,0,0,0,0,0,0,0,0,0,0],"id":22,"left_children":[1,-1,3,5,-1,7,9,-1,-1,-1,-1],"loss_changes":[2.0458037E4,0E0,4.416865E4,5.466953E2,0E0,1.2502539E2,8.255957E1,0E0,0E0,0E0,0E0],"parents":[2147483647,0,0,2,2,3,3,5,5,6,6],"right_children":[2,-1,4,6,-1,8,10,-1,-1,-1,-1],"split_conditions":[-3.0329806E-1,-2.6800994E-2,3.065875E-1,2.6026238E-2,-2.6825828E-2,2.936663E-1,2.936663E-1,5.3534567E-2,2.6110938E-2,4.220541E-2,1.58928E-2],"split_indices":[8,0,8,46,0,8,8,0,0,0,0],"split_type":[0,0,0,0,0,0,0,0,0,0,0],"sum_hessian":[1.2539551E5,4.6191992E4,7.9203516E4,4.4141023E4,3.506249E4,2.5669252E4,1.8471773E4,2.5236518E4,4.327337E2,1.8160842E4,3.109322E2],"tree_param":{"num_deleted":"0","num_feature":"128","num_nodes":"11","size_leaf_vector":"1"}},{"base_weights":[6.772576E-3,5.449152E-1,-2.5582454E-1,5.6650734E-1,2.73206E-1,-6.904979E-1,4.0062755E-1,5.704675E-1,4.380499E-1,4.0721816E-1,-3.6572072E-1,-9.796265E-2,-7.6034844E-1,4.5633343E-1,-4.3125966E-1,2.859045E-2,2.6453996E-2,2.6991699E-2,-7.4274424E-3,2.3935368E-2,8.142743E-3,1.7815715E-2,-3.2593414E-2,1.2979421E-2,-2.3135137E-2,-4.3854546E-2,-1.707924E-2,6.607109E-3,2.7051613E-2,-4.212942E-2,2.002204E-2],"categories":[],"categories_nodes":[],"categories_segments":[],"categories_sizes":[],"default_left":[0,0,0,0,0,0,0,0,0,0,0,0,0,0,0,0,0,0,0,0,0,0,0,0,0,0,0,0,0,0,0],"id":23,"left_children":[1,3,5,7,9,11,13,15,17,19,21,23,25,27,29,-1,-1,-1,-1,-1,-1,-1,-1,-1,-1,-1,-1,-1,-1,-1,-1],"loss_changes":[3.0259338E4,4.1098242E2,4.1062207E4,3.1832031E1,4.4328827E2,3.582414E3,2.6567969E3,2.0996094E0,1.1733038E2,7.403992E1,1.8574466E2,1.1913237E3,3.784621E3,1.4746162E3,1.231404E3,0E0,0E0,0E0,0E0,0E0,0E0,0E0,0E0,0E0,0E0,0E0,0E0,0E0,0E0,0E0,0E0],"parents":[2147483647,0,0,1,1,2,2,3,3,4,4,5,5,6,6,7,7,8,8,9,9,10,10,11,11,12,12,13,13,14,14],"right_children":[2,4,6,8,10,12,14,16,18,20,22,24,26,28,30,-1,-1,-1,-1,-1,-1,-1,-1,-1,-1,-1,-1,-1,-1,-1,-1],"split_conditions":[-5.2578664E-1,-4.5880383E-1,3.8121614E-1,-5.6932557E-1,1.9416685E-1,-4.131225E-1,7.926994E-1,-6.119287E-1,1.2169842E0,-6.1427885E-1,-6.637206E-1,8.2158536E-2,1.67537E-1,6.010536E-1,8.748377E-1,2.859045E-2,2.6453996E-2,2.6991699E-2,-7.4274424E-3,2.3935368E-2,8.142743E-3,1.7815715E-2,-3.2593414E-2,1.2979421E-2,-2.3135137E-2,-4.3854546E-2,-1.707924E-2,6.607109E-3,2.7051613E-2,-4.212942E-2,2.002204E-2],"split_indices":[13,9,13,13,5,13,21,13,20,5,13,21,13,13,13,0,0,0,0,0,0,0,0,0,0,0,0,0,0,0,0],"split_type":[0,0,0,0,0,0,0,0,0,0,0,0,0,0,0,0,0,0,0,0,0,0,0,0,0,0,0,0,0,0,0],"sum_hessian":[2.141233E5,7.0221164E4,1.4390214E5,6.5047234E4,5.173929E3,8.65765E4,5.7325633E4,6.309101E4,1.956226E3,4.278467E3,8.954624E2,9.131516E3,7.7444984E4,5.372939E4,3.596242E3,6.1074438E4,2.0165726E3,1.6684996E3,2.877263E2,3.3061821E3,9.722845E2,2.5309328E2,6.4236914E2,4.6099624E3,4.5215537E3,6.0558953E4,1.6886033E4,1.1132657E4,4.2596734E4,2.4070115E3,1.1892306E3],"tree_param":{"num_deleted":"0","num_feature":"128","num_nodes":"31","size_leaf_vector":"1"}},{"base_weights":[-6.0652657E-3,-5.377931E-1,4.147541E-1,-5.385731E-1,-4.42937E-1,-4.7851247E-1,7.2450167E-1,-2.6549673E-2,-5.426754E-1,-1.5115534E-1,-4.587287E-1,-5.236375E-1,-2.3990609E-2,1.093935E0,-3.1203994E-1,-2.7531898E-2,-2.666117E-2,2.4730922E-3,-1.870082E-2,-0E0,-2.3146745E-2,-2.6438823E-2,1.1296974E-2,-2.027316E-2,5.6024086E-2,5.9720106E-2,3.5401464E-3,3.5863947E-2,-2.3900675E-2],"categories":[],"categories_nodes":[],"categories_segments":[],"categories_sizes":[],"default_left":[0,0,0,0,0,0,0,0,0,0,0,0,0,0,0,0,0,0,0,0,0,0,0,0,0,0,0,0,0],"id":24,"left_children":[1,3,5,7,9,11,13,-1,15,17,19,21,23,25,27,-1,-1,-1,-1,-1,-1,-1,-1,-1,-1,-1,-1,-1,-1],"loss_changes":[2.5887227E4,2.5625E0,1.7868895E4,2.1386719E-1,1.315628E0,3.404734E2,1.8363902E4,0E0,1.0878906E0,1.5489118E0,8.544998E-1,5.8679688E1,6.566843E2,3.632707E3,2.1527139E3,0E0,0E0,0E0,0E0,0E0,0E0,0E0,0E0,0E0,0E0,0E0,0E0,0E0,0E0],"parents":[2147483647,0,0,1,1,2,2,3,3,4,4,5,5,6,6,8,8,9,9,10,10,11,11,12,12,13,13,14,14],"right_children":[2,4,6,8,10,12,14,-1,16,18,20,22,24,26,28,-1,-1,-1,-1,-1,-1,-1,-1,-1,-1,-1,-1,-1,-1],"split_conditions":[6.741172E-4,-1.1724107E-2,-5.367497E-1,-5.1457494E-1,-8.378156E-1,-4.8978183E-1,4.9249908E-1,-2.6549673E-2,3.2853135E-1,-5.82587E-3,-3.550899E0,1.8617931E-1,-3.4536448E-1,8.6434346E-1,-4.9131464E-2,-2.7531898E-2,-2.666117E-2,2.4730922E-3,-1.870082E-2,-0E0,-2.3146745E-2,-2.6438823E-2,1.1296974E-2,-2.027316E-2,5.6024086E-2,5.9720106E-2,3.5401464E-3,3.5863947E-2,-2.3900675E-2],"split_indices":[47,47,13,13,33,9,13,0,13,39,37,7,7,7,7,0,0,0,0,0,0,0,0,0,0,0,0,0,0],"split_type":[0,0,0,0,0,0,0,0,0,0,0,0,0,0,0,0,0,0,0,0,0,0,0,0,0,0,0,0,0],"sum_hessian":[1.1568868E5,5.1110242E4,6.4578438E4,5.0678305E4,4.3193445E2,1.6626441E4,4.7951992E4,1.7927818E4,3.2750488E4,2.5970802E1,4.0596362E2,1.5122706E4,1.5037363E3,3.535282E4,1.2599173E4,1.7687205E4,1.5063283E4,1.1715548E1,1.4255256E1,3.3744106E0,4.0258923E2,1.5021351E4,1.0135537E2,1.1289553E3,3.74781E2,3.2190691E4,3.1621296E3,1.7481733E3,1.0851E4],"tree_param":{"num_deleted":"0","num_feature":"128","num_nodes":"29","size_leaf_vector":"1"}},{"base_weights":[-6.658558E-3,3.708291E-1,-5.431776E-1,-4.6067846E-1,6.0377246E-1,-2.6702566E-2,-5.467622E-1,-5.2324027E-1,1.279527E0,8.6056834E-1,-4.296904E-1,-2.758183E-2,-2.6755963E-2,-2.6541963E-2,3.0956017E-3,1.2186606E-2,7.430705E-2,-1.9476159E-2,4.9100067E-2,5.767962E-2,-2.6404751E-2],"categories":[],"categories_nodes":[],"categories_segments":[],"categories_sizes":[],"default_left":[0,0,0,0,0,0,0,0,0,0,0,0,0,0,0,0,0,0,0,0,0],"id":25,"left_children":[1,3,5,7,9,-1,11,13,15,17,19,-1,-1,-1,-1,-1,-1,-1,-1,-1,-1],"loss_changes":[2.511928E4,1.4101816E4,3.0371094E-1,1.7343958E3,1.5093943E4,0E0,6.972656E-1,6.8890625E1,1.1617273E2,6.91616E3,1.7634932E3,0E0,0E0,0E0,0E0,0E0,0E0,0E0,0E0,0E0,0E0],"parents":[2147483647,0,0,1,1,2,2,3,3,4,4,6,6,7,7,8,8,9,9,10,10],"right_children":[2,4,6,8,10,-1,12,14,16,18,20,-1,-1,-1,-1,-1,-1,-1,-1,-1,-1],"split_conditions":[6.741172E-4,-7.0995414E-1,-7.016995E-1,3.276072E-1,9.1762584E-1,-2.6702566E-2,8.6434346E-1,2.1736312E-1,-8.190794E-1,-9.830757E-1,-2.692029E-1,-2.758183E-2,-2.6755963E-2,-2.6541963E-2,3.0956017E-3,1.2186606E-2,7.430705E-2,-1.9476159E-2,4.9100067E-2,5.767962E-2,-2.6404751E-2],"split_indices":[47,12,12,7,7,0,7,7,12,7,12,0,0,0,0,0,0,0,0,0,0],"split_type":[0,0,0,0,0,0,0,0,0,0,0,0,0,0,0,0,0,0,0,0,0],"sum_hessian":[1.2402502E5,7.280138E4,5.122364E4,1.5930625E4,5.6870758E4,1.4566712E4,3.665693E4,1.5379011E4,5.5161414E2,4.5552867E4,1.1317889E4,2.5746121E4,1.0910811E4,1.5183632E4,1.953783E2,9.290142E1,4.587127E2,4.032268E3,4.15206E4,6.6104877E2,1.065684E4],"tree_param":{"num_deleted":"0","num_feature":"128","num_nodes":"21","size_leaf_vector":"1"}},{"base_weights":[6.2556616E-3,5.402603E-1,-2.4539974E-1,5.6321245E-1,2.7071187E-1,-6.460254E-1,4.0150613E-1,5.674123E-1,1.1206715E-1,4.9154383E-1,-6.984328E-1,-7.3297846E-1,7.9280004E-2,-4.9904758E-1,5.1761436E-1,2.8412098E-2,2.192349E-2,2.3633016E-2,-4.0855315E-2,2.6864871E-2,7.1321666E-4,-1.7560985E-2,-5.0030988E-2,4.597247E-3,-4.1052252E-2,-4.4129107E-2,2.667207E-2,-4.3919213E-2,1.5994743E-2,-2.227959E-2,2.7187055E-2],"categories":[],"categories_nodes":[],"categories_segments":[],"categories_sizes":[],"default_left":[0,0,0,0,0,0,0,0,0,0,0,0,0,0,0,0,0,0,0,0,0,0,0,0,0,0,0,0,0,0,0],"id":26,"left_children":[1,3,5,7,9,11,13,15,17,19,21,23,25,27,29,-1,-1,-1,-1,-1,-1,-1,-1,-1,-1,-1,-1,-1,-1,-1,-1],"loss_changes":[2.8246607E4,4.1554492E2,3.7025652E4,1.1680859E2,1.1319528E3,5.564918E3,5.713204E3,5.3183594E0,1.9292032E2,9.352515E1,1.0122424E2,5.7242305E3,4.1258047E3,1.9391246E3,1.2183096E3,0E0,0E0,0E0,0E0,0E0,0E0,0E0,0E0,0E0,0E0,0E0,0E0,0E0,0E0,0E0,0E0],"parents":[2147483647,0,0,1,1,2,2,3,3,4,4,5,5,6,6,7,7,8,8,9,9,10,10,11,11,12,12,13,13,14,14],"right_children":[2,4,6,8,10,12,14,16,18,20,22,24,26,28,30,-1,-1,-1,-1,-1,-1,-1,-1,-1,-1,-1,-1,-1,-1,-1,-1],"split_conditions":[-5.2578664E-1,-4.6891925E-1,3.9454183E-1,1.5532956E-1,-3.1353107E-1,8.36647E-1,-1.2959099E-1,9.175306E-2,-5.978338E-1,8.182532E-2,-6.4846836E-2,-8.6049E-1,-1.1821385E-1,9.8074615E-1,-7.035587E-3,2.8412098E-2,2.192349E-2,2.3633016E-2,-4.0855315E-2,2.6864871E-2,7.1321666E-4,-1.7560985E-2,-5.0030988E-2,4.597247E-3,-4.1052252E-2,-4.4129107E-2,2.667207E-2,-4.3919213E-2,1.5994743E-2,-2.227959E-2,2.7187055E-2],"split_indices":[13,9,13,7,7,7,7,7,9,9,7,7,9,9,9,0,0,0,0,0,0,0,0,0,0,0,0,0,0,0,0],"split_type":[0,0,0,0,0,0,0,0,0,0,0,0,0,0,0,0,0,0,0,0,0,0,0,0,0,0,0,0,0,0,0],"sum_hessian":[2.1018722E5,6.732614E4,1.4286108E5,6.203873E4,5.287413E3,8.822519E4,5.4635887E4,6.1464066E4,5.7466473E2,4.307434E3,9.799791E2,7.878182E4,9.443365E3,6.2383516E3,4.8397535E4,6.1060035E4,4.0402863E2,4.1512915E2,1.5953558E2,3.928604E3,3.7883005E2,4.585622E2,5.2141693E2,7.5981616E3,7.1183664E4,3.0277632E3,6.4156025E3,4.264275E3,1.9740769E3,1.2766674E3,4.7120867E4],"tree_param":{"num_deleted":"0","num_feature":"128","num_nodes":"31","size_leaf_vector":"1"}},{"base_weights":[-6.0180263E-3,-5.368313E-1,3.9932388E-1,-5.374149E-1,-4.6519136E-1,-2.660426E-2,8.0535454E-1,-2.6505832E-2,-5.4239136E-1,-0E0,-4.6732956E-1,1.47726E0,-2.6636679E-2,-2.7793815E-2,-2.6517902E-2,-0E0,-2.356636E-2,7.4324E-2,4.473501E-2],"categories":[],"categories_nodes":[],"categories_segments":[],"categories_sizes":[],"default_left":[0,0,0,0,0,0,0,0,0,0,0,0,0,0,0,0,0,0,0],"id":27,"left_children":[1,3,5,7,9,-1,11,-1,13,-1,15,17,-1,-1,-1,-1,-1,-1,-1],"loss_changes":[2.4595979E4,8.1640625E-1,2.4513031E4,4.2285156E-1,5.651779E-1,0E0,4.0585773E4,0E0,3.3330078E0,0E0,5.548248E-1,1.5770312E2,0E0,0E0,0E0,0E0,0E0,0E0,0E0],"parents":[2147483647,0,0,1,1,2,2,3,3,4,4,6,6,8,8,10,10,11,11],"right_children":[2,4,6,8,10,-1,12,-1,14,-1,16,18,-1,-1,-1,-1,-1,-1,-1],"split_conditions":[6.741172E-4,-1.1724107E-2,-3.0329806E-1,-3.273232E-1,-9.628522E-1,-2.660426E-2,3.065875E-1,-2.6505832E-2,3.065875E-1,-0E0,-6.7462945E-1,2.936663E-1,-2.6636679E-2,-2.7793815E-2,-2.6517902E-2,-0E0,-2.356636E-2,7.4324E-2,4.473501E-2],"split_indices":[47,47,8,8,26,0,8,0,8,0,35,8,0,0,0,0,0,0,0],"split_type":[0,0,0,0,0,0,0,0,0,0,0,0,0,0,0,0,0,0,0],"sum_hessian":[1.1431173E5,4.949628E4,6.4815445E4,4.9076035E4,4.202439E2,1.9676352E4,4.5139094E4,2.0021516E4,2.9054521E4,1.2579982E0,4.189859E2,3.005032E4,1.5088775E4,1.3640417E4,1.54141045E4,4.5966206E0,4.1438928E2,2.9578916E4,4.7140338E2],"tree_param":{"num_deleted":"0","num_feature":"128","num_nodes":"19","size_leaf_vector":"1"}},{"base_weights":[-6.091314E-3,3.5711223E-1,-5.418586E-1,-2.671769E-2,7.616107E-1,-2.6634494E-2,-5.48209E-1,1.4693565E0,-2.6789043E-2,-2.8255094E-2,-2.6645044E-2,7.396353E-2,4.310186E-2],"categories":[],"categories_nodes":[],"categories_segments":[],"categories_sizes":[],"default_left":[0,0,0,0,0,0,0,0,0,0,0,0,0],"id":28,"left_children":[1,3,5,-1,7,-1,9,11,-1,-1,-1,-1,-1],"loss_changes":[2.3835988E4,2.6324475E4,1.5097656E0,0E0,4.6112023E4,0E0,6.135742E0,1.9201562E2,0E0,0E0,0E0,0E0,0E0],"parents":[2147483647,0,0,1,1,2,2,4,4,6,6,7,7],"right_children":[2,4,6,-1,8,-1,10,12,-1,-1,-1,-1,-1],"split_conditions":[6.741172E-4,-3.0329806E-1,-3.0329806E-1,-2.671769E-2,3.065875E-1,-2.6634494E-2,3.065875E-1,2.936663E-1,-2.6789043E-2,-2.8255094E-2,-2.6645044E-2,7.396353E-2,4.310186E-2],"split_indices":[47,8,8,0,8,0,8,8,0,0,0,0,0],"split_type":[0,0,0,0,0,0,0,0,0,0,0,0,0],"sum_hessian":[1.2248883E5,7.29998E4,4.9489035E4,2.278394E4,5.0215855E4,2.0349951E4,2.9139082E4,3.2491766E4,1.772409E4,1.3804374E4,1.5334709E4,3.196685E4,5.249163E2],"tree_param":{"num_deleted":"0","num_feature":"128","num_nodes":"13","size_leaf_vector":"1"}},{"base_weights":[5.8350023E-3,5.2122295E-1,-2.4214497E-1,5.437797E-1,-3.864272E-2,-6.334751E-1,3.969297E-1,5.6004584E-1,1.6059193E-1,4.0258142E-1,-8.8314617E-1,-7.1623164E-1,1.07443586E-1,-4.660971E-1,5.13069E-1,2.8226435E-2,2.0944577E-2,2.3382707E-2,-3.9604373E-2,2.54686E-2,-7.4656266E-3,-2.0796863E-2,-5.237114E-2,3.5273216E-3,-3.953252E-2,-4.3821152E-2,2.5691215E-2,-4.1635398E-2,1.6065836E-2,-1.6581265E-2,2.7125185E-2],"categories":[],"categories_nodes":[],"categories_segments":[],"categories_sizes":[],"default_left":[0,0,0,0,0,0,0,0,0,0,0,0,0,0,0,0,0,0,0,0,0,0,0,0,0,0,0,0,0,0,0],"id":29,"left_children":[1,3,5,7,9,11,13,15,17,19,21,23,25,27,29,-1,-1,-1,-1,-1,-1,-1,-1,-1,-1,-1,-1,-1,-1,-1,-1],"loss_changes":[2.6472361E4,8.502715E2,3.4973137E4,4.0235547E2,9.7156195E2,5.318789E3,5.3234453E3,3.8041016E1,7.716977E2,1.01281006E2,6.680182E1,4.568926E3,3.4841218E3,1.8190671E3,1.1642686E3,0E0,0E0,0E0,0E0,0E0,0E0,0E0,0E0,0E0,0E0,0E0,0E0,0E0,0E0,0E0,0E0],"parents":[2147483647,0,0,1,1,2,2,3,3,4,4,5,5,6,6,7,7,8,8,9,9,10,10,11,11,12,12,13,13,14,14],"right_children":[2,4,6,8,10,12,14,16,18,20,22,24,26,28,30,-1,-1,-1,-1,-1,-1,-1,-1,-1,-1,-1,-1,-1,-1,-1,-1],"split_conditions":[-4.9290794E-1,2.8707473E-2,3.9454183E-1,-2.9207695E-1,-5.395281E-1,8.5063493E-1,-1.2959099E-1,-4.1770527E-1,-6.007025E-1,2.651642E-1,-4.8978183E-1,-8.7131137E-1,-1.4024481E-1,9.8074615E-1,3.7137315E-2,2.8226435E-2,2.0944577E-2,2.3382707E-2,-3.9604373E-2,2.54686E-2,-7.4656266E-3,-2.0796863E-2,-5.237114E-2,3.5273216E-3,-3.953252E-2,-4.3821152E-2,2.5691215E-2,-4.1635398E-2,1.6065836E-2,-1.6581265E-2,2.7125185E-2],"split_indices":[13,7,13,9,9,7,7,9,7,7,9,7,9,9,9,0,0,0,0,0,0,0,0,0,0,0,0,0,0,0,0],"split_type":[0,0,0,0,0,0,0,0,0,0,0,0,0,0,0,0,0,0,0,0,0,0,0,0,0,0,0,0,0,0,0],"sum_hessian":[2.0712527E5,6.728557E4,1.3983969E5,6.46814E4,2.6041687E3,8.673194E4,5.310775E4,6.2044562E4,2.6368381E3,1.71006E3,8.941087E2,7.801903E4,8.712909E3,6.297751E3,4.681E4,6.012498E4,1.91958E3,1.9952874E3,6.415509E2,1.4343959E3,2.7566428E2,2.3509866E2,6.590101E2,6.740714E3,7.127832E4,2.5457976E3,6.167112E3,4.297907E3,1.9998438E3,1.5747539E3,4.5235246E4],"tree_param":{"num_deleted":"0","num_feature":"128","num_nodes":"31","size_leaf_vector":"1"}},{"base_weights":[-4.6345536E-3,-5.353999E-1,3.8758975E-1,-5.3610754E-1,-4.4881418E-1,-2.65491E-2,7.688009E-1,-2.6431356E-2,-5.408445E-1,-0E0,-4.5294464E-1,1.3739564E0,-2.6579306E-2,-2.7652128E-2,-2.6458493E-2,1.083157E-2,-5.9226938E-3,-2.2755358E-2,-0E0,6.9152854E-2,4.044529E-2],"categories":[],"categories_nodes":[],"categories_segments":[],"categories_sizes":[],"default_left":[0,0,0,0,0,0,0,0,0,0,0,0,0,0,0,0,0,0,0,0,0],"id":30,"left_children":[1,3,5,7,9,-1,11,-1,13,15,17,19,-1,-1,-1,-1,-1,-1,-1,-1,-1],"loss_changes":[2.3416104E4,1.703125E0,2.26498E4,3.2421875E-1,7.50885E-1,0E0,3.5973723E4,0E0,2.7402344E0,1.4610656E-1,4.4062042E-1,1.5710547E2,0E0,0E0,0E0,0E0,0E0,0E0,0E0,0E0,0E0],"parents":[2147483647,0,0,1,1,2,2,3,3,4,4,6,6,8,8,9,9,10,10,11,11],"right_children":[2,4,6,8,10,-1,12,-1,14,16,18,20,-1,-1,-1,-1,-1,-1,-1,-1,-1],"split_conditions":[6.741172E-4,-1.1724107E-2,-3.0329806E-1,-3.7910217E-1,-6.7462945E-1,-2.65491E-2,3.065875E-1,-2.6431356E-2,3.065875E-1,-3.9257246E-1,3.6361885E0,2.936663E-1,-2.6579306E-2,-2.7652128E-2,-2.6458493E-2,1.083157E-2,-5.9226938E-3,-2.2755358E-2,-0E0,6.9152854E-2,4.044529E-2],"split_indices":[47,47,8,8,35,0,8,0,8,36,19,8,0,0,0,0,0,0,0,0,0],"split_type":[0,0,0,0,0,0,0,0,0,0,0,0,0,0,0,0,0,0,0,0,0],"sum_hessian":[1.12477875E5,4.7798387E4,6.4679492E4,4.73943E4,4.0408673E2,1.8968855E4,4.5710637E4,1.8501342E4,2.8892957E4,3.6943989E0,4.0039233E2,3.11945E4,1.4516137E4,1.4065189E4,1.4827769E4,1.0124917E0,2.6819072E0,3.987142E2,1.6781267E0,3.0696887E4,4.976134E2],"tree_param":{"num_deleted":"0","num_feature":"128","num_nodes":"21","size_leaf_vector":"1"}},{"base_weights":[-5.336803E-3,3.4660068E-1,-5.403921E-1,-4.7569507E-1,6.211963E-1,-2.651882E-2,-5.4548854E-1,-4.9832287E-1,3.0961293E-1,9.458831E-1,-3.3408457E-1,-2.771735E-2,-2.6657378E-2,-2.6371492E-2,-1.404454E-2,-1.7100539E-2,5.6772303E-2,5.0942846E-2,-5.340084E-3,3.14407E-2,-2.3785552E-2],"categories":[],"categories_nodes":[],"categories_segments":[],"categories_sizes":[],"default_left":[0,0,0,0,0,0,0,0,0,0,0,0,0,0,0,0,0,0,0,0,0],"id":31,"left_children":[1,3,5,7,9,-1,11,13,15,17,19,-1,-1,-1,-1,-1,-1,-1,-1,-1,-1],"loss_changes":[2.2709447E4,1.6426465E4,1.078125E0,3.2394678E2,1.6916295E4,0E0,2.0722656E0,1.1107959E2,2.7531247E2,3.1277695E3,1.8867242E3,0E0,0E0,0E0,0E0,0E0,0E0,0E0,0E0,0E0,0E0],"parents":[2147483647,0,0,1,1,2,2,3,3,4,4,6,6,7,7,8,8,9,9,10,10],"right_children":[2,4,6,8,10,-1,12,14,16,18,20,-1,-1,-1,-1,-1,-1,-1,-1,-1,-1],"split_conditions":[6.741172E-4,-5.2578664E-1,-5.2578664E-1,6.036923E-2,5.0701886E-1,-2.651882E-2,3.6798665E-1,-4.103619E-1,-6.6936946E-1,9.1762584E-1,-1.1456903E-1,-2.771735E-2,-2.6657378E-2,-2.6371492E-2,-1.404454E-2,-1.7100539E-2,5.6772303E-2,5.0942846E-2,-5.340084E-3,3.14407E-2,-2.3785552E-2],"split_indices":[47,13,13,7,13,0,13,10,11,7,7,0,0,0,0,0,0,0,0,0,0],"split_type":[0,0,0,0,0,0,0,0,0,0,0,0,0,0,0,0,0,0,0,0,0],"sum_hessian":[1.20595625E5,7.274525E4,4.785037E4,1.8209943E4,5.453531E4,1.6238797E4,3.1611572E4,1.7701533E4,5.0841125E2,4.070224E4,1.383307E4,1.8329557E4,1.3282018E4,1.5606338E4,2.095195E3,2.8383008E2,2.2458119E2,3.806453E4,2.6377092E3,1.7723829E3,1.20606875E4],"tree_param":{"num_deleted":"0","num_feature":"128","num_nodes":"21","size_leaf_vector":"1"}},{"base_weights":[5.7799052E-3,5.31848E-1,-2.2662123E-1,5.56935E-1,2.720798E-1,-5.678657E-1,4.163377E-1,5.6044525E-1,6.581951E-2,4.812951E-1,-5.9526545E-1,-6.486179E-1,1.7605944E-1,-4.245811E-1,5.128068E-1,2.80558E-2,1.8599816E-2,2.3649294E-2,-4.1167807E-2,2.6949966E-2,3.782525E-3,-1.3868828E-2,-4.4810258E-2,6.799288E-3,-3.5830356E-2,-3.9088596E-2,2.6349915E-2,-3.9541017E-2,1.5492995E-2,-7.539836E-3,2.7293345E-2],"categories":[],"categories_nodes":[],"categories_segments":[],"categories_sizes":[],"default_left":[0,0,0,0,0,0,0,0,0,0,0,0,0,0,0,0,0,0,0,0,0,0,0,0,0,0,0,0,0,0,0],"id":32,"left_children":[1,3,5,7,9,11,13,15,17,19,21,23,25,27,29,-1,-1,-1,-1,-1,-1,-1,-1,-1,-1,-1,-1,-1,-1,-1,-1],"loss_changes":[2.4821053E4,4.0441602E2,3.0895059E4,9.7125E1,9.9532043E2,5.526744E3,3.9608389E3,5.9785156E0,1.4692358E2,1.0280023E2,1.0048755E2,4.4274062E3,3.0278374E3,1.3520422E3,9.613701E2,0E0,0E0,0E0,0E0,0E0,0E0,0E0,0E0,0E0,0E0,0E0,0E0,0E0,0E0,0E0,0E0],"parents":[2147483647,0,0,1,1,2,2,3,3,4,4,5,5,6,6,7,7,8,8,9,9,10,10,11,11,12,12,13,13,14,14],"right_children":[2,4,6,8,10,12,14,16,18,20,22,24,26,28,30,-1,-1,-1,-1,-1,-1,-1,-1,-1,-1,-1,-1,-1,-1,-1,-1],"split_conditions":[-5.2578664E-1,-4.8978183E-1,4.3573037E-1,1.8617931E-1,-2.9824126E-1,8.6434346E-1,-1.7699547E-1,1.3964221E-1,-6.0716784E-1,-7.035587E-3,-3.760293E-1,-8.930106E-1,-1.4024481E-1,9.8074615E-1,1.3950242E-1,2.80558E-2,1.8599816E-2,2.3649294E-2,-4.1167807E-2,2.6949966E-2,3.782525E-3,-1.3868828E-2,-4.4810258E-2,6.799288E-3,-3.5830356E-2,-3.9088596E-2,2.6349915E-2,-3.9541017E-2,1.5492995E-2,-7.539836E-3,2.7293345E-2],"split_indices":[13,9,13,7,7,7,7,7,9,9,9,7,9,9,9,0,0,0,0,0,0,0,0,0,0,0,0,0,0,0,0],"split_type":[0,0,0,0,0,0,0,0,0,0,0,0,0,0,0,0,0,0,0,0,0,0,0,0,0,0,0,0,0,0,0],"sum_hessian":[2.030161E5,6.2206703E4,1.4080939E5,5.672364E4,5.48306E3,9.1988836E4,4.882055E4,5.631893E4,4.0471082E2,4.418787E3,1.0642727E3,8.298264E4,9.006194E3,5.022834E3,4.379772E4,5.6111918E4,2.0701112E2,2.7868817E2,1.2602265E2,3.8660374E3,5.5274976E2,5.201121E2,5.441606E2,6.616119E3,7.636652E4,2.4138635E3,6.592331E3,3.3523987E3,1.6704353E3,2.0768135E3,4.1720902E4],"tree_param":{"num_deleted":"0","num_feature":"128","num_nodes":"31","size_leaf_vector":"1"}},{"base_weights":[-5.188345E-3,-4.9804518E-1,1.7947306E-1,-5.215257E-1,-2.3081546E-1,4.124287E-1,-4.0051177E-1,-5.2492136E-1,-8.278422E-2,-4.7328067E-1,4.3173954E-1,4.7398376E-1,-1.918033E-1,1.8112826E-1,-5.0002116E-1,-2.6298791E-2,-1.8798975E-2,-2.3558958E-2,2.9846812E-2,-2.5694966E-2,-2.3798544E-3,4.476115E-3,3.3991434E-2,-1.6314954E-2,2.5527595E-2,2.8034007E-2,-2.5268752E-2,2.6309183E-2,-1.5279164E-2,1.9883135E-2,-2.5748938E-2],"categories":[],"categories_nodes":[],"categories_segments":[],"categories_sizes":[],"default_left":[0,0,0,0,0,0,0,0,0,0,0,0,0,0,0,0,0,0,0,0,0,0,0,0,0,0,0,0,0,0,0],"id":33,"left_children":[1,3,5,7,9,11,13,15,17,19,21,23,25,27,29,-1,-1,-1,-1,-1,-1,-1,-1,-1,-1,-1,-1,-1,-1,-1,-1],"loss_changes":[1.0048749E4,1.8795703E2,1.0851512E4,4.0556152E1,3.915646E2,2.1316094E3,1.3324346E3,3.2104492E0,5.714652E1,3.0275757E1,5.452678E1,1.5222773E3,1.2500886E3,5.6490393E2,2.642168E2,0E0,0E0,0E0,0E0,0E0,0E0,0E0,0E0,0E0,0E0,0E0,0E0,0E0,0E0,0E0,0E0],"parents":[2147483647,0,0,1,1,2,2,3,3,4,4,5,5,6,6,7,7,8,8,9,9,10,10,11,11,12,12,13,13,14,14],"right_children":[2,4,6,8,10,12,14,16,18,20,22,24,26,28,30,-1,-1,-1,-1,-1,-1,-1,-1,-1,-1,-1,-1,-1,-1,-1,-1],"split_conditions":[-5.367497E-1,-4.6891925E-1,4.7792298E-1,1.7097913E-1,-4.6154612E-1,8.6434346E-1,-3.1682684E-3,9.175306E-2,-6.168377E-1,9.3013175E-2,-1.4516208E-1,-9.921674E-1,-1.2900664E-1,8.880731E-1,-4.0463883E-2,-2.6298791E-2,-1.8798975E-2,-2.3558958E-2,2.9846812E-2,-2.5694966E-2,-2.3798544E-3,4.476115E-3,3.3991434E-2,-1.6314954E-2,2.5527595E-2,2.8034007E-2,-2.5268752E-2,2.6309183E-2,-1.5279164E-2,1.9883135E-2,-2.5748938E-2],"split_indices":[13,9,13,7,7,7,7,7,9,9,7,7,9,9,9,0,0,0,0,0,0,0,0,0,0,0,0,0,0,0,0],"split_type":[0,0,0,0,0,0,0,0,0,0,0,0,0,0,0,0,0,0,0,0,0,0,0,0,0,0,0,0,0,0,0],"sum_hessian":[1.1040622E5,3.009285E4,8.031337E4,2.7657951E4,2.4348987E3,5.730026E4,2.3013105E4,2.7443076E4,2.1487509E2,1.7838756E3,6.5102295E2,5.200429E4,5.295972E3,3.3604045E3,1.9652701E4,2.7240973E4,2.0210175E2,1.3787231E2,7.7002785E1,1.6261521E3,1.5772357E2,2.7587256E2,3.7515042E2,2.2709045E3,4.9733387E4,1.5565986E3,3.7393735E3,1.967508E3,1.3928966E3,3.2058044E2,1.9332121E4],"tree_param":{"num_deleted":"0","num_feature":"128","num_nodes":"31","size_leaf_vector":"1"}},{"base_weights":[-5.061165E-3,-2.6581421E-2,2.656545E-1,7.8719944E-1,-2.6624097E-2,9.17919E-1,-1.6447964E-1,6.145757E-2,3.9810136E-2,-2.2167996E-2,3.7913155E-2],"categories":[],"categories_nodes":[],"categories_segments":[],"categories_sizes":[],"default_left":[0,0,0,0,0,0,0,0,0,0,0],"id":34,"left_children":[1,-1,3,5,-1,7,9,-1,-1,-1,-1],"loss_changes":[1.6930078E4,0E0,3.2651055E4,5.902494E3,0E0,1.5770977E3,1.474315E3,0E0,0E0,0E0,0E0],"parents":[2147483647,0,0,2,2,3,3,5,5,6,6],"right_children":[2,-1,4,6,-1,8,10,-1,-1,-1,-1],"split_conditions":[-3.0329806E-1,-2.6581421E-2,3.065875E-1,1.54894E0,-2.6624097E-2,-4.797043E-2,3.1458502E0,6.145757E-2,3.9810136E-2,-2.2167996E-2,3.7913155E-2],"split_indices":[8,0,8,48,0,48,48,0,0,0,0],"split_type":[0,0,0,0,0,0,0,0,0,0,0],"sum_hessian":[1.1876203E5,4.0326312E4,7.843572E4,4.7438277E4,3.099744E4,4.171019E4,5.72809E3,1.1721255E4,2.9988936E4,4.3999097E3,1.3281802E3],"tree_param":{"num_deleted":"0","num_feature":"128","num_nodes":"11","size_leaf_vector":"1"}},{"base_weights":[6.1506405E-3,5.643396E-1,-3.1639698E-1,2.7939437E-2,2.9405316E-2,-1.0149769E0,5.656473E-1,-1.0272546E0,-3.8187024E-1,2.9265586E-2,2.8078852E-2,-3.3572275E-2,-5.175515E-2,-1.9434124E-2,4.0978356E-3],"categories":[],"categories_nodes":[],"categories_segments":[],"categories_sizes":[],"default_left":[0,0,0,0,0,0,0,0,0,0,0,0,0,0,0],"id":35,"left_children":[1,3,5,-1,-1,7,9,11,13,-1,-1,-1,-1,-1,-1],"loss_changes":[3.5828133E4,8.138672E0,7.771228E4,0E0,0E0,5.452578E2,2.9863281E0,1.9039062E2,4.5789948E0,0E0,0E0,0E0,0E0,0E0,0E0],"parents":[2147483647,0,0,1,1,2,2,5,5,6,6,7,7,8,8],"right_children":[2,4,6,-1,-1,8,10,12,14,-1,-1,-1,-1,-1,-1],"split_conditions":[-3.0329806E-1,-5.1457494E-1,3.065875E-1,2.7939437E-2,2.9405316E-2,2.936663E-1,3.4152737E-1,-2.9027468E-1,-1.4722492E0,2.9265586E-2,2.8078852E-2,-3.3572275E-2,-5.175515E-2,-1.9434124E-2,4.0978356E-3],"split_indices":[8,13,8,0,0,8,13,8,0,0,0,0,0,0,0],"split_type":[0,0,0,0,0,0,0,0,0,0,0,0,0,0,0],"sum_hessian":[1.9899481E5,7.287771E4,1.2611711E5,5.9133457E4,1.3744257E4,7.037836E4,5.5738746E4,6.903733E4,1.3410308E3,9.492055E3,4.624669E4,1.4945688E3,6.754276E4,1.3239045E3,1.712623E1],"tree_param":{"num_deleted":"0","num_feature":"128","num_nodes":"15","size_leaf_vector":"1"}},{"base_weights":[-4.575741E-3,-5.3434926E-1,3.737501E-1,-5.350934E-1,-4.4496593E-1,-4.7372583E-1,6.090252E-1,-2.626797E-2,-5.398293E-1,-0E0,-4.4930196E-1,-5.0012225E-1,9.663893E-2,8.4668165E-1,-3.535823E-1,-2.7404174E-2,-2.6406357E-2,1.0574596E-2,-2.3216184E-3,-7.627984E-3,-2.3160761E-2,-2.603873E-2,-8.172366E-3,-1.8056175E-2,5.100417E-2,4.5896016E-2,-4.7156326E-3,2.1350214E-2,-2.4446951E-2],"categories":[],"categories_nodes":[],"categories_segments":[],"categories_sizes":[],"default_left":[0,0,0,0,0,0,0,0,0,0,0,0,0,0,0,0,0,0,0,0,0,0,0,0,0,0,0,0,0],"id":36,"left_children":[1,3,5,7,9,11,13,-1,15,17,19,21,23,25,27,-1,-1,-1,-1,-1,-1,-1,-1,-1,-1,-1,-1,-1,-1],"loss_changes":[2.1767977E4,1.7910156E0,1.2633566E4,7.1972656E-1,8.821564E-1,2.0772437E2,1.1346133E4,0E0,1.5390625E0,9.760276E-2,9.134369E-1,9.0734375E1,2.5809155E2,2.6671934E3,1.0377677E3,0E0,0E0,0E0,0E0,0E0,0E0,0E0,0E0,0E0,0E0,0E0,0E0,0E0,0E0],"parents":[2147483647,0,0,1,1,2,2,3,3,4,4,5,5,6,6,8,8,9,9,10,10,11,11,12,12,13,13,14,14],"right_children":[2,4,6,8,10,12,14,-1,16,18,20,22,24,26,28,-1,-1,-1,-1,-1,-1,-1,-1,-1,-1,-1,-1,-1,-1],"split_conditions":[6.741172E-4,-1.1724107E-2,-5.4787815E-1,-5.2578664E-1,-3.550899E0,-4.9131464E-2,5.689611E-1,-2.626797E-2,3.5471535E-1,-1.2959099E-1,-8.378156E-1,-3.1053683E-1,-5.79388E-1,9.041321E-1,-1.9271024E-2,-2.7404174E-2,-2.6406357E-2,1.0574596E-2,-2.3216184E-3,-7.627984E-3,-2.3160761E-2,-2.603873E-2,-8.172366E-3,-1.8056175E-2,5.100417E-2,4.5896016E-2,-4.7156326E-3,2.1350214E-2,-2.4446951E-2],"split_indices":[47,47,13,13,37,7,13,0,13,7,33,12,12,7,7,0,0,0,0,0,0,0,0,0,0,0,0,0,0],"split_type":[0,0,0,0,0,0,0,0,0,0,0,0,0,0,0,0,0,0,0,0,0,0,0,0,0,0,0,0,0],"sum_hessian":[1.086052E5,4.524725E4,6.3357957E4,4.485761E4,3.8964197E2,1.3766149E4,4.959181E4,1.4787153E4,3.0070455E4,3.1336045E0,3.8650836E2,1.3159027E4,6.0712195E2,3.9773387E4,9.818422E3,1.755595E4,1.2514505E4,1.0326302E0,2.1009743E0,2.1065367E1,3.6544302E2,1.2395163E4,7.638639E2,4.0559146E2,2.0153047E2,3.697524E4,2.798148E3,1.4495414E3,8.36888E3],"tree_param":{"num_deleted":"0","num_feature":"128","num_nodes":"29","size_leaf_vector":"1"}},{"base_weights":[-4.5528007E-3,-2.6500458E-2,2.545925E-1,7.354102E-1,-2.6540244E-2,8.5788864E-1,-1.711803E-1,5.7822198E-2,3.7084084E-2,-2.2149721E-2,3.4958344E-2],"categories":[],"categories_nodes":[],"categories_segments":[],"categories_sizes":[],"default_left":[0,0,0,0,0,0,0,0,0,0,0],"id":37,"left_children":[1,-1,3,5,-1,7,9,-1,-1,-1,-1],"loss_changes":[1.5874629E4,0E0,2.948323E4,5.378082E3,0E0,1.477457E3,1.3635646E3,0E0,0E0,0E0,0E0],"parents":[2147483647,0,0,2,2,3,3,5,5,6,6],"right_children":[2,-1,4,6,-1,8,10,-1,-1,-1,-1],"split_conditions":[-3.0329806E-1,-2.6500458E-2,3.065875E-1,1.54894E0,-2.6540244E-2,-4.797043E-2,3.1458502E0,5.7822198E-2,3.7084084E-2,-2.2149721E-2,3.4958344E-2],"split_indices":[8,0,8,48,0,48,48,0,0,0,0],"split_type":[0,0,0,0,0,0,0,0,0,0,0],"sum_hessian":[1.1657585E5,3.8504652E4,7.80712E4,4.8426188E4,2.9645016E4,4.2663582E4,5.7626035E3,1.1948454E4,3.0715129E4,4.3924556E3,1.3701477E3],"tree_param":{"num_deleted":"0","num_feature":"128","num_nodes":"11","size_leaf_vector":"1"}},{"base_weights":[4.5814863E-3,5.141429E-1,-2.1689509E-1,5.3709793E-1,5.426498E-2,-5.2219355E-1,4.2166424E-1,5.5156744E-1,1.6124175E-1,4.0896663E-1,-7.744609E-1,-6.0686946E-1,1.4191687E-1,-2.5008312E-1,5.219201E-1,2.7732864E-2,2.1237796E-2,2.4455516E-2,-3.1098744E-2,2.491394E-2,-5.813509E-3,-1.2147628E-2,-4.3447845E-2,9.5908055E-3,-3.3017594E-2,-3.431005E-2,2.6909987E-2,-3.194343E-2,1.5679674E-2,-1.460426E-2,2.7165597E-2],"categories":[],"categories_nodes":[],"categories_segments":[],"categories_sizes":[],"default_left":[0,0,0,0,0,0,0,0,0,0,0,0,0,0,0,0,0,0,0,0,0,0,0,0,0,0,0,0,0,0,0],"id":38,"left_children":[1,3,5,7,9,11,13,15,17,19,21,23,25,27,29,-1,-1,-1,-1,-1,-1,-1,-1,-1,-1,-1,-1,-1,-1,-1,-1],"loss_changes":[2.1924607E4,6.20708E2,2.6398854E4,3.0406152E2,8.2342395E2,5.1523145E3,2.9501343E3,1.9935547E1,5.3481903E2,9.2536224E1,4.0823486E1,3.47142E3,3.3998628E3,1.2469049E3,6.6407324E2,0E0,0E0,0E0,0E0,0E0,0E0,0E0,0E0,0E0,0E0,0E0,0E0,0E0,0E0,0E0,0E0],"parents":[2147483647,0,0,1,1,2,2,3,3,4,4,5,5,6,6,7,7,8,8,9,9,10,10,11,11,12,12,13,13,14,14],"right_children":[2,4,6,8,10,12,14,16,18,20,22,24,26,28,30,-1,-1,-1,-1,-1,-1,-1,-1,-1,-1,-1,-1,-1,-1,-1,-1],"split_conditions":[-5.036976E-1,-1.9271024E-2,4.6355045E-1,-2.704042E-1,-5.197742E-1,8.36647E-1,-4.9131464E-2,-3.8651508E-1,-6.927472E-1,2.493984E-1,-4.8978183E-1,-9.345707E-1,-1.0675263E-1,9.104044E-1,3.7137315E-2,2.7732864E-2,2.1237796E-2,2.4455516E-2,-3.1098744E-2,2.491394E-2,-5.813509E-3,-1.2147628E-2,-4.3447845E-2,9.5908055E-3,-3.3017594E-2,-3.431005E-2,2.6909987E-2,-3.194343E-2,1.5679674E-2,-1.460426E-2,2.7165597E-2],"split_indices":[13,7,13,9,9,7,7,9,7,7,9,7,9,9,9,0,0,0,0,0,0,0,0,0,0,0,0,0,0,0,0],"split_type":[0,0,0,0,0,0,0,0,0,0,0,0,0,0,0,0,0,0,0,0,0,0,0,0,0,0,0,0,0,0,0],"sum_hessian":[1.9426619E5,5.8856207E4,1.3540998E5,5.6055805E4,2.8004E3,9.161171E4,4.3798273E4,5.397478E4,2.0810254E3,1.9622524E3,8.381474E2,8.125328E4,1.0358426E4,5.686353E3,3.811192E4,5.267994E4,1.294837E3,1.4681033E3,6.1292206E2,1.6787501E3,2.835023E2,1.2865562E2,7.0949176E2,5.098151E3,7.615513E4,3.351498E3,7.0069277E3,3.366212E3,2.3201414E3,9.744042E2,3.713752E4],"tree_param":{"num_deleted":"0","num_feature":"128","num_nodes":"31","size_leaf_vector":"1"}},{"base_weights":[-3.1537306E-3,-4.9374685E-1,1.665582E-1,-5.1022196E-1,-1.3791217E-1,3.692508E-1,-4.0014094E-1,-5.2160585E-1,-3.3821663E-1,-4.1605625E-1,5.924981E-1,4.2045236E-1,-2.2996695E-1,1.6506098E-1,-4.932372E-1,-2.617043E-2,-2.2272788E-2,-2.3705078E-2,2.5766054E-2,-2.4386257E-2,-5.3095804E-3,3.185913E-3,3.2643653E-2,-1.7168654E-2,2.255713E-2,2.7062213E-2,-2.4520354E-2,1.9363213E-2,-1.9687224E-2,5.1468825E-3,-2.551499E-2],"categories":[],"categories_nodes":[],"categories_segments":[],"categories_sizes":[],"default_left":[0,0,0,0,0,0,0,0,0,0,0,0,0,0,0,0,0,0,0,0,0,0,0,0,0,0,0,0,0,0,0],"id":39,"left_children":[1,3,5,7,9,11,13,15,17,19,21,23,25,27,29,-1,-1,-1,-1,-1,-1,-1,-1,-1,-1,-1,-1,-1,-1,-1,-1],"loss_changes":[8.907178E3,1.6047949E2,9.129668E3,5.0416016E1,2.4809065E2,1.7964478E3,1.1021226E3,2.1796875E0,1.9035059E2,1.9023926E1,9.97197E0,1.2646465E3,9.256886E2,3.67716E2,1.8334277E2,0E0,0E0,0E0,0E0,0E0,0E0,0E0,0E0,0E0,0E0,0E0,0E0,0E0,0E0,0E0,0E0],"parents":[2147483647,0,0,1,1,2,2,3,3,4,4,5,5,6,6,7,7,8,8,9,9,10,10,11,11,12,12,13,13,14,14],"right_children":[2,4,6,8,10,12,14,16,18,20,22,24,26,28,30,-1,-1,-1,-1,-1,-1,-1,-1,-1,-1,-1,-1,-1,-1,-1,-1],"split_conditions":[-5.367497E-1,-4.9131464E-2,4.9249908E-1,-3.3081427E-1,-5.7046646E-1,8.910543E-1,-4.9131464E-2,-1.4516208E-1,-5.4666656E-1,1.8617931E-1,4.5143276E-1,-1.0013502E0,-2.7948242E-1,1.275366E0,-2.003043E-1,-2.617043E-2,-2.2272788E-2,-2.3705078E-2,2.5766054E-2,-2.4386257E-2,-5.3095804E-3,3.185913E-3,3.2643653E-2,-1.7168654E-2,2.255713E-2,2.7062213E-2,-2.4520354E-2,1.9363213E-2,-1.9687224E-2,5.1468825E-3,-2.551499E-2],"split_indices":[13,7,13,12,12,7,7,7,7,7,19,7,12,12,10,0,0,0,0,0,0,0,0,0,0,0,0,0,0,0,0],"split_type":[0,0,0,0,0,0,0,0,0,0,0,0,0,0,0,0,0,0,0,0,0,0,0,0,0,0,0,0,0,0,0],"sum_hessian":[1.0697499E5,2.749579E4,7.94792E4,2.627597E4,1.2198184E3,5.854234E4,2.0936863E4,2.4637527E4,1.638444E3,8.8471405E2,3.3510428E2,5.3935652E4,4.6066875E3,2.9592542E3,1.7977607E4,2.4049193E4,5.8833435E2,1.4148182E3,2.2362578E2,7.154384E2,1.6927562E2,3.6248524E1,2.9885574E2,2.0817554E3,5.1853895E4,1.1617156E3,3.4449722E3,2.1188225E3,8.404316E2,4.984346E2,1.7479174E4],"tree_param":{"num_deleted":"0","num_feature":"128","num_nodes":"31","size_leaf_vector":"1"}},{"base_weights":[-3.8450884E-3,3.29325E-1,-5.391488E-1,-2.6504403E-2,6.617346E-1,-2.6370758E-2,-5.465811E-1,1.1792345E0,-2.6567072E-2,-2.8222835E-2,-2.6383612E-2,5.9462395E-2,3.0315114E-2],"categories":[],"categories_nodes":[],"categories_segments":[],"categories_sizes":[],"default_left":[0,0,0,0,0,0,0,0,0,0,0,0,0],"id":40,"left_children":[1,3,5,-1,7,-1,9,11,-1,-1,-1,-1,-1],"loss_changes":[2.0464943E4,2.0205156E4,2.4765625E0,0E0,3.1490064E4,0E0,7.6918945E0,2.015586E2,0E0,0E0,0E0,0E0,0E0],"parents":[2147483647,0,0,1,1,2,2,4,4,6,6,7,7],"right_children":[2,4,6,-1,8,-1,10,12,-1,-1,-1,-1,-1],"split_conditions":[6.741172E-4,-3.0329806E-1,-3.1468365E-1,-2.6504403E-2,3.065875E-1,-2.6370758E-2,3.065875E-1,2.936663E-1,-2.6567072E-2,-2.8222835E-2,-2.6383612E-2,5.9462395E-2,3.0315114E-2],"split_indices":[47,8,8,0,8,0,8,8,0,0,0,0,0],"split_type":[0,0,0,0,0,0,0,0,0,0,0,0,0],"sum_hessian":[1.1474462E5,7.0724555E4,4.402006E4,1.9724682E4,5.0999875E4,1.7150496E4,2.6869562E4,3.5571496E4,1.5428381E4,1.3770137E4,1.3099427E4,3.4957707E4,6.13789E2],"tree_param":{"num_deleted":"0","num_feature":"128","num_nodes":"13","size_leaf_vector":"1"}},{"base_weights":[5.1280037E-3,5.5958486E-1,-3.0250132E-1,2.7702698E-2,2.898032E-2,-9.4022256E-1,5.607093E-1,-9.532169E-1,-2.9980877E-1,2.8970977E-2,2.7772201E-2,-3.0288065E-2,-4.8046358E-2,-1.7163405E-2,-1.0620109E-2],"categories":[],"categories_nodes":[],"categories_segments":[],"categories_sizes":[],"default_left":[0,0,0,0,0,0,0,0,0,0,0,0,0,0,0],"id":41,"left_children":[1,3,5,-1,-1,7,9,11,13,-1,-1,-1,-1,-1,-1],"loss_changes":[3.241871E4,6.0566406E0,6.7291984E4,0E0,0E0,5.835E2,3.6601562E0,1.824336E2,4.693695E0,0E0,0E0,0E0,0E0,0E0,0E0],"parents":[2147483647,0,0,1,1,2,2,5,5,6,6,7,7,8,8],"right_children":[2,4,6,-1,-1,8,10,12,14,-1,-1,-1,-1,-1,-1],"split_conditions":[-3.0329806E-1,-5.6467944E-1,3.065875E-1,2.7702698E-2,2.898032E-2,2.936663E-1,5.1437443E-1,-2.9027468E-1,3.4520844E-1,2.8970977E-2,2.7772201E-2,-3.0288065E-2,-4.8046358E-2,-1.7163405E-2,-1.0620109E-2],"split_indices":[8,8,8,0,0,8,8,8,39,0,0,0,0,0,0],"split_type":[0,0,0,0,0,0,0,0,0,0,0,0,0,0,0],"sum_hessian":[1.9006067E5,6.782267E4,1.2223801E5,5.3203895E4,1.4618774E4,7.03017E4,5.19363E4,6.89016E4,1.4001007E3,1.1340171E4,4.059613E4,1.5003163E3,6.740129E4,9.25544E2,4.745567E2],"tree_param":{"num_deleted":"0","num_feature":"128","num_nodes":"15","size_leaf_vector":"1"}},{"base_weights":[-3.2830713E-3,-5.332304E-1,3.5923493E-1,-5.339933E-1,-4.4159186E-1,-4.4489932E-1,5.262911E-1,-2.6184494E-2,-5.3740305E-1,-0E0,-4.4613016E-1,-5.143082E-1,8.171424E-1,6.847784E-1,-4.4267976E-1,-2.7093703E-2,-2.6230862E-2,1.0730569E-2,-4.312031E-3,-7.907498E-3,-2.3032036E-2,-2.6012002E-2,-2.4352183E-3,7.169971E-3,5.0489128E-2,-1.9256223E-2,3.7923012E-2,4.462055E-2,-2.6044944E-2],"categories":[],"categories_nodes":[],"categories_segments":[],"categories_sizes":[],"default_left":[0,0,0,0,0,0,0,0,0,0,0,0,0,0,0,0,0,0,0,0,0,0,0,0,0,0,0,0,0],"id":42,"left_children":[1,3,5,7,9,11,13,-1,15,17,19,21,23,25,27,-1,-1,-1,-1,-1,-1,-1,-1,-1,-1,-1,-1,-1,-1],"loss_changes":[2.0215264E4,1.7773438E0,8.393719E3,1.4648438E-1,8.022766E-1,9.415178E2,7.945455E3,0E0,4.6289062E-1,1.1861535E-1,8.3799744E-1,2.7543457E1,7.136841E1,3.5058516E3,7.595178E2,0E0,0E0,0E0,0E0,0E0,0E0,0E0,0E0,0E0,0E0,0E0,0E0,0E0,0E0],"parents":[2147483647,0,0,1,1,2,2,3,3,4,4,5,5,6,6,8,8,9,9,10,10,11,11,12,12,13,13,14,14],"right_children":[2,4,6,8,10,12,14,-1,16,18,20,22,24,26,28,-1,-1,-1,-1,-1,-1,-1,-1,-1,-1,-1,-1,-1,-1],"split_conditions":[6.741172E-4,-1.1724107E-2,-7.1819407E-1,-7.3463774E-1,-6.7462945E-1,3.276072E-1,9.5823306E-1,-2.6184494E-2,8.773381E-1,-4.711806E-1,-8.378156E-1,2.493984E-1,-8.1185037E-1,-1.0013502E0,-2.993979E-1,-2.7093703E-2,-2.6230862E-2,1.0730569E-2,-4.312031E-3,-7.907498E-3,-2.3032036E-2,-2.6012002E-2,-2.4352183E-3,7.169971E-3,5.0489128E-2,-1.9256223E-2,3.7923012E-2,4.462055E-2,-2.6044944E-2],"split_indices":[47,47,12,12,35,7,7,0,7,46,33,7,12,7,12,0,0,0,0,0,0,0,0,0,0,0,0,0,0],"split_type":[0,0,0,0,0,0,0,0,0,0,0,0,0,0,0,0,0,0,0,0,0,0,0,0,0,0,0,0,0],"sum_hessian":[1.05221664E5,4.27418E4,6.2479867E4,4.23733E4,3.6849918E2,1.0745954E4,5.173391E4,1.0647283E4,3.172602E4,3.4483736E0,3.650508E2,1.0187077E4,5.58877E2,4.446279E4,7.271121E3,2.341765E4,8.308369E3,1.0220652E0,2.4263084E0,2.1388266E1,3.4366254E2,1.005669E4,1.3038667E2,1.2580828E2,4.3306876E2,2.8636177E3,4.159917E4,4.0113373E2,6.8699873E3],"tree_param":{"num_deleted":"0","num_feature":"128","num_nodes":"29","size_leaf_vector":"1"}},{"base_weights":[-4.0314617E-3,-2.637246E-2,2.3760147E-1,6.591007E-1,-2.6409367E-2,6.671794E-1,2.1604204E-1,2.0907685E-2,3.3624288E-2,1.35377245E-2,5.5735814E-3],"categories":[],"categories_nodes":[],"categories_segments":[],"categories_sizes":[],"default_left":[0,0,0,0,0,0,0,0,0,0,0],"id":43,"left_children":[1,-1,3,5,-1,7,9,-1,-1,-1,-1],"loss_changes":[1.4154809E4,0E0,2.471472E4,1.7574219E2,0E0,6.2716797E1,4.668541E0,0E0,0E0,0E0,0E0],"parents":[2147483647,0,0,2,2,3,3,5,5,6,6],"right_children":[2,-1,4,6,-1,8,10,-1,-1,-1,-1],"split_conditions":[-3.0329806E-1,-2.637246E-2,3.065875E-1,2.936663E-1,-2.6409367E-2,-2.9027468E-1,2.0905787E-1,2.0907685E-2,3.3624288E-2,1.35377245E-2,5.5735814E-3],"split_indices":[8,0,8,8,0,8,36,0,0,0,0],"split_type":[0,0,0,0,0,0,0,0,0,0,0],"sum_hessian":[1.1191359E5,3.5347625E4,7.656597E4,4.9385207E4,2.718076E4,4.8498133E4,8.8707513E2,1.017454E3,4.748068E4,5.750501E2,3.1202502E2],"tree_param":{"num_deleted":"0","num_feature":"128","num_nodes":"11","size_leaf_vector":"1"}},{"base_weights":[3.8541264E-3,5.569079E-1,-2.9636404E-1,2.7506841E-2,2.9179374E-2,-9.0520734E-1,5.579778E-1,-9.175186E-1,-2.9858682E-1,5.79613E-1,2.7663557E-2,-2.8482547E-2,-4.6267744E-2,-1.44795E-2,-4.858942E-2,2.9661795E-2,2.8185412E-2],"categories":[],"categories_nodes":[],"categories_segments":[],"categories_sizes":[],"default_left":[0,0,0,0,0,0,0,0,0,0,0,0,0,0,0,0,0],"id":44,"left_children":[1,3,5,-1,-1,7,9,11,13,15,-1,-1,-1,-1,-1,-1,-1],"loss_changes":[3.0736398E4,1.0310547E1,6.2411375E4,0E0,0E0,5.2171875E2,3.631836E0,1.8516016E2,6.9161835E0,4.284668E-1,0E0,0E0,0E0,0E0,0E0,0E0,0E0],"parents":[2147483647,0,0,1,1,2,2,5,5,6,6,7,7,8,8,9,9],"right_children":[2,4,6,-1,-1,8,10,12,14,16,-1,-1,-1,-1,-1,-1,-1],"split_conditions":[-3.0329806E-1,-5.1457494E-1,3.065875E-1,2.7506841E-2,2.9179374E-2,2.936663E-1,3.4152737E-1,-2.9027468E-1,1.9697604E0,8.5063493E-1,2.7663557E-2,-2.8482547E-2,-4.6267744E-2,-1.44795E-2,-4.858942E-2,2.9661795E-2,2.8185412E-2],"split_indices":[8,13,8,0,0,8,13,8,14,7,0,0,0,0,0,0,0],"split_type":[0,0,0,0,0,0,0,0,0,0,0,0,0,0,0,0,0],"sum_hessian":[1.8511444E5,6.513218E4,1.1998226E5,5.1995188E4,1.3136992E4,7.0057305E4,4.992495E4,6.866167E4,1.3956389E3,8.860639E3,4.106431E4,1.5170801E3,6.7144586E4,1.3801104E3,1.5528497E1,4.7192656E3,4.141373E3],"tree_param":{"num_deleted":"0","num_feature":"128","num_nodes":"17","size_leaf_vector":"1"}},{"base_weights":[-8.216841E-4,-5.3222543E-1,3.5210326E-1,-5.3296834E-1,-4.4267198E-1,-5.277004E-1,6.604512E-1,-2.6135424E-2,-5.385321E-1,-0E0,-4.4754514E-1,-2.6092244E-2,-2.7230576E-2,1.1044278E0,-2.6416605E-2,-2.7551873E-2,-2.6187757E-2,1.1164482E-2,-0E0,-7.5586624E-3,-2.314315E-2,5.5650264E-2,2.9999573E-2],"categories":[],"categories_nodes":[],"categories_segments":[],"categories_sizes":[],"default_left":[0,0,0,0,0,0,0,0,0,0,0,0,0,0,0,0,0,0,0,0,0,0,0],"id":45,"left_children":[1,3,5,7,9,11,13,-1,15,17,19,-1,-1,21,-1,-1,-1,-1,-1,-1,-1,-1,-1],"loss_changes":[1.9356166E4,1.5292969E0,1.6824824E4,9.8828125E-1,1.004158E0,2.4316406E-1,2.423935E4,0E0,3.512207E0,9.976086E-2,9.192352E-1,0E0,0E0,1.4229688E2,0E0,0E0,0E0,0E0,0E0,0E0,0E0,0E0,0E0],"parents":[2147483647,0,0,1,1,2,2,3,3,4,4,5,5,6,6,8,8,9,9,10,10,13,13],"right_children":[2,4,6,8,10,12,14,-1,16,18,20,-1,-1,22,-1,-1,-1,-1,-1,-1,-1,-1,-1],"split_conditions":[6.741172E-4,-1.1724107E-2,-3.0329806E-1,-4.1736358E-1,-3.550899E0,-5.2578664E-1,3.065875E-1,-2.6135424E-2,3.065875E-1,-2.4730086E-1,-8.378156E-1,-2.6092244E-2,-2.7230576E-2,2.936663E-1,-2.6416605E-2,-2.7551873E-2,-2.6187757E-2,1.1164482E-2,-0E0,-7.5586624E-3,-2.314315E-2,5.5650264E-2,2.9999573E-2],"split_indices":[47,47,8,8,37,13,8,0,8,4,33,0,0,8,0,0,0,0,0,0,0,0,0],"split_type":[0,0,0,0,0,0,0,0,0,0,0,0,0,0,0,0,0,0,0,0,0,0,0],"sum_hessian":[1.03204805E5,4.1188723E4,6.201608E4,4.0833875E4,3.548474E2,1.6093325E4,4.5922754E4,1.4454206E4,2.637967E4,2.693852E0,3.5215356E2,1.2021744E4,4.071581E3,3.34362E4,1.2486554E4,1.42317295E4,1.2147939E4,1.0008895E0,1.6929624E0,2.1048916E1,3.3110464E2,3.2874016E4,5.621859E2],"tree_param":{"num_deleted":"0","num_feature":"128","num_nodes":"23","size_leaf_vector":"1"}},{"base_weights":[-3.751953E-3,3.2134908E-1,-5.387187E-1,-2.6356405E-2,6.2430245E-1,-2.6237095E-2,-5.472206E-1,1.0704657E0,-2.6411286E-2,-2.8318731E-2,-2.6243756E-2,5.398906E-2,2.7074054E-2],"categories":[],"categories_nodes":[],"categories_segments":[],"categories_sizes":[],"default_left":[0,0,0,0,0,0,0,0,0,0,0,0,0],"id":46,"left_children":[1,3,5,-1,7,-1,9,11,-1,-1,-1,-1,-1],"loss_changes":[1.9103424E4,1.7562016E4,3.5751953E0,0E0,2.5889625E4,0E0,9.631836E0,1.7665234E2,0E0,0E0,0E0,0E0,0E0],"parents":[2147483647,0,0,1,1,2,2,4,4,6,6,7,7],"right_children":[2,4,6,-1,8,-1,10,12,-1,-1,-1,-1,-1],"split_conditions":[6.741172E-4,-3.0329806E-1,-3.0329806E-1,-2.6356405E-2,3.065875E-1,-2.6237095E-2,3.065875E-1,2.936663E-1,-2.6411286E-2,-2.8318731E-2,-2.6243756E-2,5.398906E-2,2.7074054E-2],"split_indices":[47,8,8,0,8,0,8,8,0,0,0,0,0],"split_type":[0,0,0,0,0,0,0,0,0,0,0,0,0],"sum_hessian":[1.09838164E5,6.831901E4,4.1519156E4,1.797438E4,5.0344633E4,1.5771596E4,2.5747559E4,3.6295113E4,1.4049517E4,1.3826622E4,1.19209375E4,3.5664125E4,6.30988E2],"tree_param":{"num_deleted":"0","num_feature":"128","num_nodes":"13","size_leaf_vector":"1"}},{"base_weights":[2.904777E-3,5.5427355E-1,-2.9066893E-1,2.7380282E-2,2.9008547E-2,-8.744741E-1,5.554361E-1,-8.8659614E-1,-2.802162E-1,5.765078E-1,2.7540898E-2,-2.7009306E-2,-4.472194E-2,-4.985835E-3,-1.5257117E-2,2.9492546E-2,2.8039834E-2],"categories":[],"categories_nodes":[],"categories_segments":[],"categories_sizes":[],"default_left":[0,0,0,0,0,0,0,0,0,0,0,0,0,0,0,0,0],"id":47,"left_children":[1,3,5,-1,-1,7,9,11,13,15,-1,-1,-1,-1,-1,-1,-1],"loss_changes":[2.918038E4,9.369141E0,5.8108094E4,0E0,0E0,5.0001953E2,3.2294922E0,1.8339844E2,5.8393936E0,3.1567383E-1,0E0,0E0,0E0,0E0,0E0,0E0,0E0],"parents":[2147483647,0,0,1,1,2,2,5,5,6,6,7,7,8,8,9,9],"right_children":[2,4,6,-1,-1,8,10,12,14,16,-1,-1,-1,-1,-1,-1,-1],"split_conditions":[-3.0329806E-1,-5.1457494E-1,3.065875E-1,2.7380282E-2,2.9008547E-2,2.936663E-1,3.4152737E-1,-2.9027468E-1,-8.6488897E-1,8.5063493E-1,2.7540898E-2,-2.7009306E-2,-4.472194E-2,-4.985835E-3,-1.5257117E-2,2.9492546E-2,2.8039834E-2],"split_indices":[8,13,8,0,0,8,13,8,31,7,0,0,0,0,0,0,0],"split_type":[0,0,0,0,0,0,0,0,0,0,0,0,0,0,0,0,0],"sum_hessian":[1.8026977E5,6.2635273E4,1.1763449E5,4.9858668E4,1.2776605E4,6.960724E4,4.802725E4,6.82136E4,1.3936359E3,8.572415E3,3.9454836E4,1.5145065E3,6.66991E4,1.7457716E2,1.2190587E3,4.581376E3,3.9910396E3],"tree_param":{"num_deleted":"0","num_feature":"128","num_nodes":"17","size_leaf_vector":"1"}},{"base_weights":[-1.0170664E-3,-5.307416E-1,3.42428E-1,-5.3169125E-1,-4.193192E-1,-5.26305E-1,6.3500834E-1,-2.6078269E-2,-5.371357E-1,-2.564562E-2,-3.5435873E-1,-2.6037702E-2,-2.711652E-2,1.0481161E0,-2.6346186E-2,-2.7464623E-2,-2.6128313E-2,-1.0070165E-2,-2.5492534E-2,5.2823145E-2,2.8476277E-2],"categories":[],"categories_nodes":[],"categories_segments":[],"categories_sizes":[],"default_left":[0,0,0,0,0,0,0,0,0,0,0,0,0,0,0,0,0,0,0,0,0],"id":48,"left_children":[1,3,5,7,9,11,13,-1,15,-1,17,-1,-1,19,-1,-1,-1,-1,-1,-1,-1],"loss_changes":[1.8281594E4,3.0097656E0,1.5494924E4,8.203125E-1,1.0647354E0,2.0019531E-2,2.1890732E4,0E0,3.1367188E0,0E0,4.2939415E0,0E0,0E0,1.3216797E2,0E0,0E0,0E0,0E0,0E0,0E0,0E0],"parents":[2147483647,0,0,1,1,2,2,3,3,4,4,5,5,6,6,8,8,10,10,13,13],"right_children":[2,4,6,8,10,12,14,-1,16,-1,18,-1,-1,20,-1,-1,-1,-1,-1,-1,-1],"split_conditions":[6.741172E-4,-1.1724107E-2,-3.0329806E-1,-4.1736358E-1,-2.7712864E-1,-5.2578664E-1,3.065875E-1,-2.6078269E-2,3.065875E-1,-2.564562E-2,2.936663E-1,-2.6037702E-2,-2.711652E-2,2.936663E-1,-2.6346186E-2,-2.7464623E-2,-2.6128313E-2,-1.0070165E-2,-2.5492534E-2,5.2823145E-2,2.8476277E-2],"split_indices":[47,47,8,8,8,13,8,0,8,0,8,0,0,8,0,0,0,0,0,0,0],"split_type":[0,0,0,0,0,0,0,0,0,0,0,0,0,0,0,0,0,0,0,0,0],"sum_hessian":[1.00483234E5,3.952415E4,6.0959082E4,3.917748E4,3.466662E2,1.535692E4,4.5602164E4,1.3797268E4,2.5380215E4,1.3289914E2,2.1376706E2,1.1477264E4,3.8796562E3,3.3642152E4,1.1960012E4,1.3778282E4,1.1601933E4,1.121616E2,1.0160546E2,3.306224E4,5.7991425E2],"tree_param":{"num_deleted":"0","num_feature":"128","num_nodes":"21","size_leaf_vector":"1"}},{"base_weights":[-3.8943067E-3,3.1356728E-1,-5.372971E-1,-2.6288314E-2,6.021393E-1,-2.6174897E-2,-5.4557586E-1,1.0174754E0,-2.6340423E-2,-2.8201947E-2,-2.6181469E-2,5.1315602E-2,2.588641E-2],"categories":[],"categories_nodes":[],"categories_segments":[],"categories_sizes":[],"default_left":[0,0,0,0,0,0,0,0,0,0,0,0,0],"id":49,"left_children":[1,3,5,-1,7,-1,9,11,-1,-1,-1,-1,-1],"loss_changes":[1.810039E4,1.6230161E4,3.2001953E0,0E0,2.3382432E4,0E0,8.689941E0,1.5891406E2,0E0,0E0,0E0,0E0,0E0],"parents":[2147483647,0,0,1,1,2,2,4,4,6,6,7,7],"right_children":[2,4,6,-1,8,-1,10,12,-1,-1,-1,-1,-1],"split_conditions":[6.741172E-4,-3.0329806E-1,-3.0329806E-1,-2.6288314E-2,3.065875E-1,-2.6174897E-2,3.065875E-1,2.936663E-1,-2.6340423E-2,-2.8201947E-2,-2.6181469E-2,5.1315602E-2,2.588641E-2],"split_indices":[47,8,8,0,8,0,8,8,0,0,0,0,0],"split_type":[0,0,0,0,0,0,0,0,0,0,0,0,0],"sum_hessian":[1.06887766E5,6.7006516E4,3.9881254E4,1.7142363E4,4.986415E4,1.5023977E4,2.485728E4,3.6453875E4,1.3410274E4,1.3461851E4,1.1395428E4,3.581749E4,6.363866E2],"tree_param":{"num_deleted":"0","num_feature":"128","num_nodes":"13","size_leaf_vector":"1"}},{"base_weights":[3.6819964E-3,5.514444E-1,-2.8302938E-1,2.7308589E-2,2.8500184E-2,-8.4265906E-1,5.5253386E-1,-8.5495067E-1,-2.5443783E-1,2.8491257E-2,2.7377496E-2,-2.5990238E-2,-4.3135997E-2,-4.3669934E-3,-1.3850929E-2],"categories":[],"categories_nodes":[],"categories_segments":[],"categories_sizes":[],"default_left":[0,0,0,0,0,0,0,0,0,0,0,0,0,0,0],"id":50,"left_children":[1,3,5,-1,-1,7,9,11,13,-1,-1,-1,-1,-1,-1],"loss_changes":[2.7432574E4,4.4472656E0,5.3615008E4,0E0,0E0,4.9515234E2,2.5341797E0,1.7330078E2,4.9264374E0,0E0,0E0,0E0,0E0,0E0,0E0],"parents":[2147483647,0,0,1,1,2,2,5,5,6,6,7,7,8,8],"right_children":[2,4,6,-1,-1,8,10,12,14,-1,-1,-1,-1,-1,-1],"split_conditions":[-3.0329806E-1,-5.6467944E-1,3.065875E-1,2.7308589E-2,2.8500184E-2,2.936663E-1,5.1437443E-1,-2.9027468E-1,-8.622554E-1,2.8491257E-2,2.7377496E-2,-2.5990238E-2,-4.3135997E-2,-4.3669934E-3,-1.3850929E-2],"split_indices":[8,8,8,0,0,8,8,8,31,0,0,0,0,0,0],"split_type":[0,0,0,0,0,0,0,0,0,0,0,0,0,0,0],"sum_hessian":[1.7467075E5,6.001486E4,1.146559E5,4.680259E4,1.32122705E4,6.8666664E4,4.598923E4,6.725905E4,1.4076179E3,1.0219588E4,3.5769645E4,1.5283102E3,6.573074E4,1.7342487E2,1.2341931E3],"tree_param":{"num_deleted":"0","num_feature":"128","num_nodes":"15","size_leaf_vector":"1"}},{"base_weights":[-1.2029508E-3,-5.296237E-1,3.339332E-1,-5.3048044E-1,-4.2854998E-1,-2.6249085E-2,6.131198E-1,-2.6028851E-2,-5.358441E-1,-0E0,-4.378154E-1,9.983106E-1,-2.6279075E-2,-2.7389368E-2,-2.6071731E-2,8.400984E-3,-1.4167125E-2,-0E0,-2.2154054E-2,5.031265E-2,2.695903E-2],"categories":[],"categories_nodes":[],"categories_segments":[],"categories_sizes":[],"default_left":[0,0,0,0,0,0,0,0,0,0,0,0,0,0,0,0,0,0,0,0,0],"id":51,"left_children":[1,3,5,7,9,-1,11,-1,13,15,17,19,-1,-1,-1,-1,-1,-1,-1,-1,-1],"loss_changes":[1.7310426E4,2.0976562E0,1.4342975E4,6.6308594E-1,9.456825E-1,0E0,1.9800309E4,0E0,2.8251953E0,6.261016E-1,9.581413E-1,1.2091406E2,0E0,0E0,0E0,0E0,0E0,0E0,0E0,0E0,0E0],"parents":[2147483647,0,0,1,1,2,2,3,3,4,4,6,6,8,8,9,9,10,10,11,11],"right_children":[2,4,6,8,10,-1,12,-1,14,16,18,20,-1,-1,-1,-1,-1,-1,-1,-1,-1],"split_conditions":[6.741172E-4,-1.1724107E-2,-3.0329806E-1,-4.0481815E-1,-8.461433E-1,-2.6249085E-2,3.065875E-1,-2.6028851E-2,3.065875E-1,-1.2377534E-1,-3.550899E0,2.936663E-1,-2.6279075E-2,-2.7389368E-2,-2.6071731E-2,8.400984E-3,-1.4167125E-2,-0E0,-2.2154054E-2,5.031265E-2,2.695903E-2],"split_indices":[47,47,8,8,33,0,8,0,8,4,37,8,0,0,0,0,0,0,0,0,0],"split_type":[0,0,0,0,0,0,0,0,0,0,0,0,0,0,0,0,0,0,0,0,0],"sum_hessian":[9.77446E4,3.793445E4,5.9810152E4,3.760157E4,3.3288095E2,1.4670876E4,4.5139277E4,1.3310089E4,2.429148E4,9.048613E0,3.2383234E2,3.373027E4,1.1409007E4,1.3224201E4,1.106728E4,4.012528E0,5.0360847E0,2.7944174E0,3.2103793E2,3.315339E4,5.768804E2],"tree_param":{"num_deleted":"0","num_feature":"128","num_nodes":"21","size_leaf_vector":"1"}},{"base_weights":[-4.108088E-3,3.0609956E-1,-5.359362E-1,-2.6223658E-2,5.819523E-1,-2.611647E-2,-5.440403E-1,9.71619E-1,-2.6273375E-2,-2.8088456E-2,-2.6122242E-2,4.9006213E-2,2.5142372E-2],"categories":[],"categories_nodes":[],"categories_segments":[],"categories_sizes":[],"default_left":[0,0,0,0,0,0,0,0,0,0,0,0,0],"id":52,"left_children":[1,3,5,-1,7,-1,9,11,-1,-1,-1,-1,-1],"loss_changes":[1.7164705E4,1.5055846E4,2.8769531E0,0E0,2.1287887E4,0E0,7.791992E0,1.4351172E2,0E0,0E0,0E0,0E0,0E0],"parents":[2147483647,0,0,1,1,2,2,4,4,6,6,7,7],"right_children":[2,4,6,-1,8,-1,10,12,-1,-1,-1,-1,-1],"split_conditions":[6.741172E-4,-3.0329806E-1,-3.0329806E-1,-2.6223658E-2,3.065875E-1,-2.611647E-2,3.065875E-1,2.936663E-1,-2.6273375E-2,-2.8088456E-2,-2.6122242E-2,4.9006213E-2,2.5142372E-2],"split_indices":[47,8,8,0,8,0,8,8,0,0,0,0,0],"split_type":[0,0,0,0,0,0,0,0,0,0,0,0,0],"sum_hessian":[1.0403955E5,6.571025E4,3.8329297E4,1.6381677E4,4.932858E4,1.4377836E4,2.395146E4,3.6489926E4,1.2838648E4,1.3114103E4,1.0837359E4,3.58365E4,6.534289E2],"tree_param":{"num_deleted":"0","num_feature":"128","num_nodes":"13","size_leaf_vector":"1"}},{"base_weights":[4.018109E-3,5.487829E-1,-2.761057E-1,2.7138254E-2,2.8590793E-2,-8.1417406E-1,5.498019E-1,-8.264097E-1,-2.4746639E-1,2.8429309E-2,2.7281627E-2,-2.4144394E-2,-4.172795E-2,-1.758573E-2,-1.0176135E-2],"categories":[],"categories_nodes":[],"categories_segments":[],"categories_sizes":[],"default_left":[0,0,0,0,0,0,0,0,0,0,0,0,0,0,0],"id":53,"left_children":[1,3,5,-1,-1,7,9,11,13,-1,-1,-1,-1,-1,-1],"loss_changes":[2.5808605E4,6.5351562E0,4.963467E4,0E0,0E0,4.6767578E2,2.0253906E0,1.8359375E2,5.935463E0,0E0,0E0,0E0,0E0,0E0,0E0],"parents":[2147483647,0,0,1,1,2,2,5,5,6,6,7,7,8,8],"right_children":[2,4,6,-1,-1,8,10,12,14,-1,-1,-1,-1,-1,-1],"split_conditions":[-3.0329806E-1,-5.1457494E-1,3.065875E-1,2.7138254E-2,2.8590793E-2,2.936663E-1,3.4152737E-1,-2.9027468E-1,-2.2100963E-1,2.8429309E-2,2.7281627E-2,-2.4144394E-2,-4.172795E-2,-1.758573E-2,-1.0176135E-2],"split_indices":[8,13,8,0,0,8,13,8,10,0,0,0,0,0,0],"split_type":[0,0,0,0,0,0,0,0,0,0,0,0,0,0,0],"sum_hessian":[1.6912034E5,5.743244E4,1.116879E5,4.5589387E4,1.1843054E4,6.7629414E4,4.405848E4,6.619793E4,1.4314835E3,7.9347275E3,3.6123754E4,1.5382465E3,6.4659684E4,4.156563E2,1.0158272E3],"tree_param":{"num_deleted":"0","num_feature":"128","num_nodes":"15","size_leaf_vector":"1"}},{"base_weights":[-1.4402249E-4,-5.283547E-1,3.278452E-1,-5.2927375E-1,-4.21798E-1,-2.6186008E-2,5.950854E-1,-2.5977662E-2,-5.3448784E-1,-9.973211E-2,-4.4013682E-1,9.5559245E-1,-2.6215374E-2,-2.7302016E-2,-2.6018066E-2,-1.3928669E-2,1.6450036E-2,-0E0,-2.2288037E-2,4.8176672E-2,2.5406776E-2],"categories":[],"categories_nodes":[],"categories_segments":[],"categories_sizes":[],"default_left":[0,0,0,0,0,0,0,0,0,0,0,0,0,0,0,0,0,0,0,0,0],"id":54,"left_children":[1,3,5,7,9,-1,11,-1,13,15,17,19,-1,-1,-1,-1,-1,-1,-1,-1,-1],"loss_changes":[1.6477143E4,2.3955078E0,1.3352588E4,4.9804688E-1,1.340435E0,0E0,1.8023066E4,0E0,2.4677734E0,1.7113608E0,9.1070175E-1,1.1807422E2,0E0,0E0,0E0,0E0,0E0,0E0,0E0,0E0,0E0],"parents":[2147483647,0,0,1,1,2,2,3,3,4,4,6,6,8,8,9,9,10,10,11,11],"right_children":[2,4,6,8,10,-1,12,-1,14,16,18,20,-1,-1,-1,-1,-1,-1,-1,-1,-1],"split_conditions":[6.741172E-4,-1.1724107E-2,-3.0329806E-1,-4.0481815E-1,-8.378156E-1,-2.6186008E-2,3.065875E-1,-2.5977662E-2,3.065875E-1,-1.5517168E0,-6.7462945E-1,2.936663E-1,-2.6215374E-2,-2.7302016E-2,-2.6018066E-2,-1.3928669E-2,1.6450036E-2,-0E0,-2.2288037E-2,4.8176672E-2,2.5406776E-2],"split_indices":[47,47,8,8,33,0,8,0,8,0,35,8,0,0,0,0,0,0,0,0,0],"split_type":[0,0,0,0,0,0,0,0,0,0,0,0,0,0,0,0,0,0,0,0,0],"sum_hessian":[9.510444E4,3.6433113E4,5.867132E4,3.6108324E4,3.247872E2,1.401323E4,4.465809E4,1.2708558E4,2.3399768E4,2.0781998E1,3.040052E2,3.3780062E4,1.0878029E4,1.2813064E4,1.0586704E4,1.6557789E1,4.224208E0,3.0644279E0,3.0094077E2,3.3187695E4,5.9236584E2],"tree_param":{"num_deleted":"0","num_feature":"128","num_nodes":"21","size_leaf_vector":"1"}},{"base_weights":[-3.5339906E-3,2.9971275E-1,-5.3451633E-1,-2.6162589E-2,5.648216E-1,-2.606071E-2,-5.4237986E-1,9.2997E-1,-2.620777E-2,-2.797011E-2,-2.6066113E-2,4.6928544E-2,2.2541836E-2],"categories":[],"categories_nodes":[],"categories_segments":[],"categories_sizes":[],"default_left":[0,0,0,0,0,0,0,0,0,0,0,0,0],"id":55,"left_children":[1,3,5,-1,7,-1,9,11,-1,-1,-1,-1,-1],"loss_changes":[1.6275374E4,1.4036248E4,2.4970703E0,0E0,1.9349906E4,0E0,6.8789062E0,1.4836523E2,0E0,0E0,0E0,0E0,0E0],"parents":[2147483647,0,0,1,1,2,2,4,4,6,6,7,7],"right_children":[2,4,6,-1,8,-1,10,12,-1,-1,-1,-1,-1],"split_conditions":[6.741172E-4,-3.0329806E-1,-3.0329806E-1,-2.6162589E-2,3.065875E-1,-2.606071E-2,3.065875E-1,2.936663E-1,-2.620777E-2,-2.797011E-2,-2.6066113E-2,4.6928544E-2,2.2541836E-2],"split_indices":[47,8,8,0,8,0,8,8,0,0,0,0,0],"split_type":[0,0,0,0,0,0,0,0,0,0,0,0,0],"sum_hessian":[1.0107412E5,6.433221E4,3.6741906E4,1.5673375E4,4.865884E4,1.3722742E4,2.3019164E4,3.6440816E4,1.2218023E4,1.2688828E4,1.0330337E4,3.5795215E4,6.4559814E2],"tree_param":{"num_deleted":"0","num_feature":"128","num_nodes":"13","size_leaf_vector":"1"}},{"base_weights":[1.8358306E-3,5.462397E-1,-2.725859E-1,2.7027199E-2,2.8398557E-2,-7.892203E-1,5.472044E-1,-8.0126154E-1,-2.3301966E-1,2.8173441E-2,2.714443E-2,-2.3225784E-2,-4.0461726E-2,-1.6854962E-2,-9.393766E-3],"categories":[],"categories_nodes":[],"categories_segments":[],"categories_sizes":[],"default_left":[0,0,0,0,0,0,0,0,0,0,0,0,0,0,0],"id":56,"left_children":[1,3,5,-1,-1,7,9,11,13,-1,-1,-1,-1,-1,-1],"loss_changes":[2.4496648E4,5.3847656E0,4.6172086E4,0E0,0E0,4.4665625E2,1.5458984E0,1.7408594E2,6.084831E0,0E0,0E0,0E0,0E0,0E0,0E0],"parents":[2147483647,0,0,1,1,2,2,5,5,6,6,7,7,8,8],"right_children":[2,4,6,-1,-1,8,10,12,14,-1,-1,-1,-1,-1,-1],"split_conditions":[-3.0329806E-1,-5.1457494E-1,3.065875E-1,2.7027199E-2,2.8398557E-2,2.936663E-1,3.8121614E-1,-2.9027468E-1,-2.2100963E-1,2.8173441E-2,2.714443E-2,-2.3225784E-2,-4.0461726E-2,-1.6854962E-2,-9.393766E-3],"split_indices":[8,13,8,0,0,8,13,8,10,0,0,0,0,0,0],"split_type":[0,0,0,0,0,0,0,0,0,0,0,0,0,0,0],"sum_hessian":[1.6396714E5,5.4952938E4,1.090142E5,4.359795E4,1.1354989E4,6.687231E4,4.2141887E4,6.5453074E4,1.4192391E3,8.761681E3,3.3380207E4,1.5181227E3,6.3934953E4,4.2070114E2,9.985381E2],"tree_param":{"num_deleted":"0","num_feature":"128","num_nodes":"15","size_leaf_vector":"1"}},{"base_weights":[1.9640532E-4,-5.2714694E-1,3.2066023E-1,-5.2810735E-1,-4.1480067E-1,-2.6127432E-2,5.7652056E-1,-2.5936618E-2,-5.332894E-1,-0E0,-4.2021263E-1,9.163537E-1,-2.6154099E-2,-2.723806E-2,-2.5967276E-2,1.1100291E-2,-0E0,-2.2671944E-2,-1.3421585E-2,4.622014E-2,2.3835305E-2],"categories":[],"categories_nodes":[],"categories_segments":[],"categories_sizes":[],"default_left":[0,0,0,0,0,0,0,0,0,0,0,0,0,0,0,0,0,0,0,0,0],"id":57,"left_children":[1,3,5,7,9,-1,11,-1,13,15,17,19,-1,-1,-1,-1,-1,-1,-1,-1,-1],"loss_changes":[1.560573E4,2.6044922E0,1.239291E4,3.515625E-1,9.038086E-1,0E0,1.6469133E4,0E0,2.2006836E0,9.906484E-2,7.023735E-1,1.1729883E2,0E0,0E0,0E0,0E0,0E0,0E0,0E0,0E0,0E0],"parents":[2147483647,0,0,1,1,2,2,3,3,4,4,6,6,8,8,9,9,10,10,11,11],"right_children":[2,4,6,8,10,-1,12,-1,14,16,18,20,-1,-1,-1,-1,-1,-1,-1,-1,-1],"split_conditions":[6.741172E-4,-1.1724107E-2,-3.0329806E-1,-3.7910217E-1,-6.7462945E-1,-2.6127432E-2,3.065875E-1,-2.5936618E-2,3.065875E-1,-6.834762E-1,6.823884E-1,2.936663E-1,-2.6154099E-2,-2.723806E-2,-2.5967276E-2,1.1100291E-2,-0E0,-2.2671944E-2,-1.3421585E-2,4.622014E-2,2.3835305E-2],"split_indices":[47,47,8,8,35,0,8,0,8,32,40,8,0,0,0,0,0,0,0,0,0],"split_type":[0,0,0,0,0,0,0,0,0,0,0,0,0,0,0,0,0,0,0,0,0],"sum_hessian":[9.234384E4,3.4903754E4,5.7440086E4,3.4595406E4,3.0834787E2,1.3370745E4,4.406934E4,1.2419908E4,2.2175498E4,2.7984548E0,3.055494E2,3.3665934E4,1.0403409E4,1.210597E4,1.0069528E4,1.009976E0,1.7884787E0,2.4363873E2,6.191069E1,3.305734E4,6.085922E2],"tree_param":{"num_deleted":"0","num_feature":"128","num_nodes":"21","size_leaf_vector":"1"}},{"base_weights":[-3.1993277E-3,2.9451063E-1,-5.3318363E-1,-2.6103452E-2,5.484619E-1,-2.6007578E-2,-5.4079103E-1,8.9376986E-1,-2.6147863E-2,-2.7856344E-2,-2.6012296E-2,4.5121178E-2,2.1855198E-2],"categories":[],"categories_nodes":[],"categories_segments":[],"categories_sizes":[],"default_left":[0,0,0,0,0,0,0,0,0,0,0,0,0],"id":58,"left_children":[1,3,5,-1,7,-1,9,11,-1,-1,-1,-1,-1],"loss_changes":[1.5467372E4,1.3016604E4,2.1533203E0,0E0,1.7714828E4,0E0,6.0805664E0,1.4136523E2,0E0,0E0,0E0,0E0,0E0],"parents":[2147483647,0,0,1,1,2,2,4,4,6,6,7,7],"right_children":[2,4,6,-1,8,-1,10,12,-1,-1,-1,-1,-1],"split_conditions":[6.741172E-4,-3.0329806E-1,-3.0329806E-1,-2.6103452E-2,3.065875E-1,-2.6007578E-2,3.065875E-1,2.936663E-1,-2.6147863E-2,-2.7856344E-2,-2.6012296E-2,4.5121178E-2,2.1855198E-2],"split_indices":[47,8,8,0,8,0,8,8,0,0,0,0,0],"split_type":[0,0,0,0,0,0,0,0,0,0,0,0,0],"sum_hessian":[9.802675E4,6.276699E4,3.525976E4,1.4888396E4,4.787859E4,1.3070198E4,2.2189564E4,3.6209668E4,1.1668923E4,1.2319363E4,9.870201E3,3.5533156E4,6.765112E2],"tree_param":{"num_deleted":"0","num_feature":"128","num_nodes":"13","size_leaf_vector":"1"}},{"base_weights":[3.2420063E-3,5.0027454E-1,-1.5929005E-1,5.3248894E-1,-4.808374E-1,-3.3026952E-1,4.5777118E-1,5.369335E-1,1.7694195E-1,2.0034039E-1,-6.391844E-1,-3.948915E-1,3.3275762E-1,-5.131276E-1,5.3321683E-1,2.693586E-2,2.1305136E-2,-1.3230904E-2,2.3773303E-2,1.9814055E-2,-2.3474723E-2,-2.1144083E-2,-3.691618E-2,1.8538108E-2,-2.3350472E-2,-3.060186E-2,2.5834506E-2,-3.155495E-2,1.6619075E-2,3.8814906E-3,2.6919944E-2],"categories":[],"categories_nodes":[],"categories_segments":[],"categories_sizes":[],"default_left":[0,0,0,0,0,0,0,0,0,0,0,0,0,0,0,0,0,0,0,0,0,0,0,0,0,0,0,0,0,0,0],"id":59,"left_children":[1,3,5,7,9,11,13,15,17,19,21,23,25,27,29,-1,-1,-1,-1,-1,-1,-1,-1,-1,-1,-1,-1,-1,-1,-1,-1],"loss_changes":[1.277566E4,1.2320361E3,1.2573115E4,5.8819336E1,1.3415115E2,3.9984434E3,1.8942041E3,6.173828E0,6.2309143E1,3.0715122E1,2.0105865E1,4.695449E3,1.4402422E3,1.86418E2,5.5984375E1,0E0,0E0,0E0,0E0,0E0,0E0,0E0,0E0,0E0,0E0,0E0,0E0,0E0,0E0,0E0,0E0],"parents":[2147483647,0,0,1,1,2,2,3,3,4,4,5,5,6,6,7,7,8,8,9,9,10,10,11,11,12,12,13,13,14,14],"right_children":[2,4,6,8,10,12,14,16,18,20,22,24,26,28,30,-1,-1,-1,-1,-1,-1,-1,-1,-1,-1,-1,-1,-1,-1,-1,-1],"split_conditions":[-6.263479E-1,3.276072E-1,8.910543E-1,2.3368749E-1,-7.441072E-1,8.880731E-1,-1.4981447E-1,1.241303E-1,7.665206E-1,4.9426407E-1,4.187231E-1,-9.4436544E-1,-5.741277E-1,1.0790559E0,-1.1821385E-1,2.693586E-2,2.1305136E-2,-1.3230904E-2,2.3773303E-2,1.9814055E-2,-2.3474723E-2,-2.1144083E-2,-3.691618E-2,1.8538108E-2,-2.3350472E-2,-3.060186E-2,2.5834506E-2,-3.155495E-2,1.6619075E-2,3.8814906E-3,2.6919944E-2],"split_indices":[9,7,7,7,9,9,9,7,6,7,7,7,7,7,9,0,0,0,0,0,0,0,0,0,0,0,0,0,0,0,0],"split_type":[0,0,0,0,0,0,0,0,0,0,0,0,0,0,0,0,0,0,0,0,0,0,0,0,0,0,0,0,0,0,0],"sum_hessian":[1.5814027E5,3.897044E4,1.1916982E5,3.7732973E4,1.2374688E3,9.331544E4,2.585438E4,3.7263832E4,4.6914264E2,2.32164E2,1.00530475E3,8.50299E4,8.285534E3,1.8628318E3,2.3991549E4,3.6660906E4,6.0292377E2,1.8793039E2,2.8121225E2,1.8109207E2,5.1071922E1,3.2077896E2,6.8452576E2,7.3180815E3,7.771182E4,1.3489094E3,6.9366245E3,1.6360016E3,2.2683012E2,2.7216815E2,2.371938E4],"tree_param":{"num_deleted":"0","num_feature":"128","num_nodes":"31","size_leaf_vector":"1"}},{"base_weights":[-1.1990116E-4,-5.2606076E-1,3.144432E-1,-5.26999E-1,-4.1709402E-1,-2.6092758E-2,5.6241065E-1,-2.5884766E-2,-5.318151E-1,-0E0,-4.2278323E-1,8.8806367E-1,-2.6122957E-2,-2.7109599E-2,-2.5934627E-2,1.0709845E-2,-0E0,-3.4684248E-3,-2.1759188E-2,4.4785958E-2,2.3439107E-2],"categories":[],"categories_nodes":[],"categories_segments":[],"categories_sizes":[],"default_left":[0,0,0,0,0,0,0,0,0,0,0,0,0,0,0,0,0,0,0,0,0],"id":60,"left_children":[1,3,5,7,9,-1,11,-1,13,15,17,19,-1,-1,-1,-1,-1,-1,-1,-1,-1],"loss_changes":[1.4884203E4,2.2783203E0,1.1674306E4,1.6992188E-1,1.0116196E0,0E0,1.5341169E4,0E0,1.6381836E0,9.28577E-2,7.7542496E-1,1.05416016E2,0E0,0E0,0E0,0E0,0E0,0E0,0E0,0E0,0E0],"parents":[2147483647,0,0,1,1,2,2,3,3,4,4,6,6,8,8,9,9,10,10,11,11],"right_children":[2,4,6,8,10,-1,12,-1,14,16,18,20,-1,-1,-1,-1,-1,-1,-1,-1,-1],"split_conditions":[6.741172E-4,-1.1724107E-2,-3.0329806E-1,-4.1736358E-1,-3.550899E0,-2.6092758E-2,3.065875E-1,-2.5884766E-2,3.065875E-1,5.467244E-1,-8.423217E-1,2.936663E-1,-2.6122957E-2,-2.7109599E-2,-2.5934627E-2,1.0709845E-2,-0E0,-3.4684248E-3,-2.1759188E-2,4.4785958E-2,2.3439107E-2],"split_indices":[47,47,8,8,37,0,8,0,8,41,33,8,0,0,0,0,0,0,0,0,0],"split_type":[0,0,0,0,0,0,0,0,0,0,0,0,0,0,0,0,0,0,0,0,0],"sum_hessian":[8.996324E4,3.3670164E4,5.629308E4,3.3369812E4,3.003488E2,1.2872837E4,4.3420242E4,1.1489878E4,2.1879936E4,2.3961222E0,2.9795267E2,3.3396484E4,1.0023756E4,1.2153134E4,9.726802E3,1.0239117E0,1.3722104E0,1.3057231E1,2.8489545E2,3.2794188E4,6.0229675E2],"tree_param":{"num_deleted":"0","num_feature":"128","num_nodes":"21","size_leaf_vector":"1"}},{"base_weights":[-4.102257E-3,2.8778553E-1,-5.317776E-1,-2.6065951E-2,5.341822E-1,-2.596804E-2,-5.3901094E-1,8.656458E-1,-2.611179E-2,-2.772711E-2,-2.5976172E-2,4.3749705E-2,1.9571746E-2],"categories":[],"categories_nodes":[],"categories_segments":[],"categories_sizes":[],"default_left":[0,0,0,0,0,0,0,0,0,0,0,0,0],"id":61,"left_children":[1,3,5,-1,7,-1,9,11,-1,-1,-1,-1,-1],"loss_changes":[1.4694784E4,1.224613E4,1.7128906E0,0E0,1.648925E4,0E0,5.1132812E0,1.5728516E2,0E0,0E0,0E0,0E0,0E0],"parents":[2147483647,0,0,1,1,2,2,4,4,6,6,7,7],"right_children":[2,4,6,-1,8,-1,10,12,-1,-1,-1,-1,-1],"split_conditions":[6.741172E-4,-3.0329806E-1,-3.0329806E-1,-2.6065951E-2,3.065875E-1,-2.596804E-2,3.065875E-1,2.936663E-1,-2.611179E-2,-2.772711E-2,-2.5976172E-2,4.3749705E-2,1.9571746E-2],"split_indices":[47,8,8,0,8,0,8,8,0,0,0,0,0],"split_type":[0,0,0,0,0,0,0,0,0,0,0,0,0],"sum_hessian":[9.540348E4,6.1424555E4,3.3978918E4,1.4337767E4,4.708679E4,1.2585504E4,2.1393416E4,3.584205E4,1.1244739E4,1.1861329E4,9.532087E3,3.5146246E4,6.9580426E2],"tree_param":{"num_deleted":"0","num_feature":"128","num_nodes":"13","size_leaf_vector":"1"}},{"base_weights":[1.6285026E-3,5.4221594E-1,-2.6259038E-1,2.683259E-2,2.815049E-2,-7.492348E-1,5.4330164E-1,-7.614862E-1,-2.2394603E-1,2.7931396E-2,2.693492E-2,-1.9766346E-2,-3.852163E-2,-1.6241021E-2,-9.3323905E-3],"categories":[],"categories_nodes":[],"categories_segments":[],"categories_sizes":[],"default_left":[0,0,0,0,0,0,0,0,0,0,0,0,0,0,0],"id":62,"left_children":[1,3,5,-1,-1,7,9,11,13,-1,-1,-1,-1,-1,-1],"loss_changes":[2.2008941E4,4.4521484E0,4.0590875E4,0E0,0E0,4.1414062E2,1.3505859E0,2.0510156E2,4.973961E0,0E0,0E0,0E0,0E0,0E0,0E0],"parents":[2147483647,0,0,1,1,2,2,5,5,6,6,7,7,8,8],"right_children":[2,4,6,-1,-1,8,10,12,14,-1,-1,-1,-1,-1,-1],"split_conditions":[-3.0329806E-1,-5.1457494E-1,3.065875E-1,2.683259E-2,2.815049E-2,2.936663E-1,5.1437443E-1,-2.9027468E-1,-2.3945048E-1,2.7931396E-2,2.693492E-2,-1.9766346E-2,-3.852163E-2,-1.6241021E-2,-9.3323905E-3],"split_indices":[8,13,8,0,0,8,8,8,10,0,0,0,0,0,0],"split_type":[0,0,0,0,0,0,0,0,0,0,0,0,0,0,0],"sum_hessian":[1.5408423E5,5.0586938E4,1.03497305E5,3.996711E4,1.0619828E4,6.4531027E4,3.8966277E4,6.305797E4,1.4730609E3,8.922307E3,3.0043969E4,1.5076986E3,6.155027E4,3.8831897E2,1.084742E3],"tree_param":{"num_deleted":"0","num_feature":"128","num_nodes":"15","size_leaf_vector":"1"}},{"base_weights":[-2.2696012E-4,-5.246453E-1,3.0755258E-1,-5.2587503E-1,-3.8507146E-1,-2.6038347E-2,5.45918E-1,-2.5848715E-2,-5.306212E-1,-2.5389109E-2,-2.96525E-1,8.55832E-1,-2.606715E-2,-2.70459E-2,-2.58874E-2,-4.4003595E-3,-2.5172113E-2,4.3214515E-2,2.0716876E-2],"categories":[],"categories_nodes":[],"categories_segments":[],"categories_sizes":[],"default_left":[0,0,0,0,0,0,0,0,0,0,0,0,0,0,0,0,0,0,0],"id":63,"left_children":[1,3,5,7,9,-1,11,-1,13,-1,15,17,-1,-1,-1,-1,-1,-1,-1],"loss_changes":[1.4058454E4,4.415039E0,1.0836986E4,2.734375E-2,2.2197266E0,0E0,1.4098312E4,0E0,1.4067383E0,0E0,6.9944715E0,1.2171289E2,0E0,0E0,0E0,0E0,0E0,0E0,0E0],"parents":[2147483647,0,0,1,1,2,2,3,3,4,4,6,6,8,8,10,10,11,11],"right_children":[2,4,6,8,10,-1,12,-1,14,-1,16,18,-1,-1,-1,-1,-1,-1,-1],"split_conditions":[6.741172E-4,-1.1724107E-2,-3.0329806E-1,-3.9205053E-1,-2.4981557E-1,-2.6038347E-2,3.065875E-1,-2.5848715E-2,3.065875E-1,-2.5389109E-2,2.8074983E-1,2.936663E-1,-2.606715E-2,-2.70459E-2,-2.58874E-2,-4.4003595E-3,-2.5172113E-2,4.3214515E-2,2.0716876E-2],"split_indices":[47,47,8,8,8,0,8,0,8,0,8,8,0,0,0,0,0,0,0],"split_type":[0,0,0,0,0,0,0,0,0,0,0,0,0,0,0,0,0,0,0],"sum_hessian":[8.709701E4,3.2212842E4,5.4884164E4,3.1921672E4,2.9117014E2,1.226342E4,4.2620746E4,1.1213349E4,2.0708322E4,1.1532318E2,1.7584695E2,3.303042E4,9.590322E3,1.1439533E4,9.268789E3,9.070175E1,8.5145195E1,3.2406344E4,6.240787E2],"tree_param":{"num_deleted":"0","num_feature":"128","num_nodes":"19","size_leaf_vector":"1"}},{"base_weights":[-3.7099593E-3,2.825163E-1,-5.3048325E-1,-2.6012791E-2,5.2035236E-1,-2.5920046E-2,-5.3746516E-1,8.359309E-1,-2.6056005E-2,-2.7617237E-2,-2.5927082E-2,4.2243786E-2,1.9467624E-2],"categories":[],"categories_nodes":[],"categories_segments":[],"categories_sizes":[],"default_left":[0,0,0,0,0,0,0,0,0,0,0,0,0],"id":64,"left_children":[1,3,5,-1,7,-1,9,11,-1,-1,-1,-1,-1],"loss_changes":[1.3938159E4,1.1435875E4,1.4111328E0,0E0,1.5187439E4,0E0,4.4277344E0,1.4009375E2,0E0,0E0,0E0,0E0,0E0],"parents":[2147483647,0,0,1,1,2,2,4,4,6,6,7,7],"right_children":[2,4,6,-1,8,-1,10,12,-1,-1,-1,-1,-1],"split_conditions":[6.741172E-4,-3.0329806E-1,-3.0329806E-1,-2.6012791E-2,3.065875E-1,-2.5920046E-2,3.065875E-1,2.936663E-1,-2.6056005E-2,-2.7617237E-2,-2.5927082E-2,4.2243786E-2,1.9467624E-2],"split_indices":[47,8,8,0,8,0,8,8,0,0,0,0,0],"split_type":[0,0,0,0,0,0,0,0,0,0,0,0,0],"sum_hessian":[9.243898E4,5.9893793E4,3.2545184E4,1.3687787E4,4.6206008E4,1.1999073E4,2.054611E4,3.5461812E4,1.0744192E4,1.1456687E4,9.089423E3,3.4762406E4,6.994098E2],"tree_param":{"num_deleted":"0","num_feature":"128","num_nodes":"13","size_leaf_vector":"1"}},{"base_weights":[1.5643936E-3,5.4004323E-1,-2.5800174E-1,2.6769532E-2,2.7749408E-2,-7.2989E-1,5.4107666E-1,-7.4260056E-1,-1.846249E-1,2.7776534E-2,2.6835447E-2,-1.9346237E-2,-3.7573118E-2,1.4879954E-2,-9.547462E-3],"categories":[],"categories_nodes":[],"categories_segments":[],"categories_sizes":[],"default_left":[0,0,0,0,0,0,0,0,0,0,0,0,0,0,0],"id":65,"left_children":[1,3,5,-1,-1,7,9,11,13,-1,-1,-1,-1,-1,-1],"loss_changes":[2.0766443E4,1.9716797E0,3.780165E4,0E0,0E0,4.3576172E2,9.589844E-1,1.9270312E2,4.3384743E0,0E0,0E0,0E0,0E0,0E0,0E0],"parents":[2147483647,0,0,1,1,2,2,5,5,6,6,7,7,8,8],"right_children":[2,4,6,-1,-1,8,10,12,14,-1,-1,-1,-1,-1,-1],"split_conditions":[-3.0329806E-1,-5.7675433E-1,3.065875E-1,2.6769532E-2,2.7749408E-2,2.936663E-1,5.1437443E-1,-2.9027468E-1,-3.5787177E0,2.7776534E-2,2.6835447E-2,-1.9346237E-2,-3.7573118E-2,1.4879954E-2,-9.547462E-3],"split_indices":[8,8,8,0,0,8,8,8,40,0,0,0,0,0,0],"split_type":[0,0,0,0,0,0,0,0,0,0,0,0,0,0,0],"sum_hessian":[1.4857089E5,4.8323957E4,1.0024693E5,3.6930543E4,1.1393415E4,6.3027797E4,3.7219137E4,6.158989E4,1.4379058E3,8.554584E3,2.8664553E4,1.5010509E3,6.008884E4,1.5970818E1,1.4219349E3],"tree_param":{"num_deleted":"0","num_feature":"128","num_nodes":"15","size_leaf_vector":"1"}},{"base_weights":[1.1787887E-3,-5.2354187E-1,3.0341518E-1,-2.6239693E-2,-3.8189852E-1,-2.5986332E-2,5.3387815E-1,-2.520891E-2,-3.0161467E-1,8.275008E-1,-2.601297E-2,-6.287027E-3,-2.4999533E-2,4.1798014E-2,1.9643253E-2],"categories":[],"categories_nodes":[],"categories_segments":[],"categories_sizes":[],"default_left":[0,0,0,0,0,0,0,0,0,0,0,0,0,0,0],"id":66,"left_children":[1,3,5,-1,7,-1,9,-1,11,13,-1,-1,-1,-1,